index,Humidity3pm,Humidity9am,MaxTemp,MinTemp,Pressure3pm,Pressure9am,RainToday,Rainfall,Temp3pm,Temp9am,WindDir3pm_cos,WindDir3pm_sin,WindDir9am_cos,WindDir9am_sin,WindGustDir_cos,WindGustDir_sin,WindGustSpeed,WindSpeed3pm,WindSpeed9am,true_label,sum_abs
209,0.186313867109917,0.011755281691751404,-0.03923830338791085,0.06013104945067262,-0.15225303869659626,0.10825841169483774,0.0003870037918079037,0.026854746945540936,-0.046207749722425674,0.024803534556459606,0.01931966329017386,0.0060645043917468815,0.00884272938420721,0.01580362287225425,0.00242667072067315,-0.005879160339533334,0.10018331791718808,-0.026059753108549,-0.015775730364921463,1,0.8565581394371672
293,0.17825493553297894,0.009090895284127177,-0.02160528933079372,0.04342046006900808,-0.14693871518014487,0.10676251137651493,-0.025263245307364013,0.02195361068346968,-0.027883968244632802,0.004215338285336542,0.00861807341442719,-0.011965858256975862,0.014141286648717598,0.006486405296005053,-0.0030418120416996737,-0.0015398019130251441,0.08815088170575607,-0.04434677913052375,-0.013560612518045124,0,0.7772404802195462
339,0.16213430378086355,0.006943457622678303,-0.019129425474606655,0.04751919861765986,-0.12475354534200062,0.09175420883801286,-0.002181027458930177,0.020825575828027992,-0.024224212497145896,0.005974627914674812,0.01692797380236616,-0.004829304707560871,0.002144431797682978,0.017650488264181523,-0.0026793220993540172,-0.013926465205515449,0.09961184262328367,-0.0355510887652411,-0.009281855634972996,0,0.7080423562747595
347,0.17012708926123532,0.030831074857080646,-0.01551220849702522,0.041550148062414645,-0.13963771374163056,0.08878900981714595,-0.004415414658191172,0.01828542417026425,-0.041050159221198104,0.020349871546063422,0.0030174416505509526,-0.007514117627529695,-0.00043535949755217537,0.013214626174897331,0.011039244275282191,-0.01024114994319888,0.09720854769984844,-0.042351189746733124,-0.0037863075807802707,0,0.7593560980286224
365,0.1725646553759782,0.011816852846701363,-0.03277484629588074,0.03990952610896851,-0.1283049201796874,0.0997867402530192,0.006941873227271878,0.018660691073906097,-0.03845056991127401,0.014875990953817041,0.0037201793764473877,-0.005872738641921604,0.01288940546641161,-0.0010896226505738933,-0.0022538474542405647,-0.008612445154229709,0.09009586015865252,-0.023908833536340896,-0.02893411875745676,0,0.7414637174227794
437,0.19158331192008896,0.019632496176565744,-0.030334182110716947,0.027451570294292477,-0.14479563714260432,0.10654323351622057,0.012343472827400991,0.03082074116075726,-0.0381371430214305,0.03306284557284834,0.005252511301537204,-0.0181580261063942,0.01542989917455155,0.008685370139971657,-0.004116416247249046,-9.079887137312061e-05,0.07912937632072764,-0.018827264144658365,5.321566410241968e-05,0,0.7844475117134914
596,0.17578213806891,0.01657006719550533,-0.029298183780657416,0.048920182116514846,-0.13595658682224127,0.09025639305135702,0.0061824645499420775,0.021062342221438782,-0.029787880101664565,0.0008842976335985542,0.0069796329947586265,0.0009058559282705048,0.021132851988117707,0.01922876559849016,-0.006485957801433459,-0.011691051625816188,0.08341324567422377,-0.040323904911923045,-0.0027629158933450853,0,0.7476247179582084
617,0.18961017793791896,0.021353582214049028,-0.017988216112945914,0.03580373413999519,-0.14975920832132833,0.09535362054560369,-0.0011552463989603458,0.010272560691347478,-0.02948772679165255,0.006197610721922158,0.010974665316354859,0.0009495431440752563,0.0078092356880392795,0.012425999460299748,-0.0034774192551718618,-0.025048886519482283,0.095008149016615,-0.03248353582908895,-0.012488921960898503,0,0.7576480400657494
705,0.18111643823670182,0.017616735994518923,-0.053514497723665566,0.03692068589031412,-0.15566767930928707,0.09730640465819008,0.0017262338430854528,0.014824364112079593,-0.04222233381810987,0.027753736062752228,0.02514393065169097,-0.008838111342126299,0.011564302027562002,0.013464329538068096,-0.002891423826538018,-0.00501537486852283,0.07860075389128592,-0.028692420803174117,0.0056732057368727605,1,0.8085529623345458
786,0.17669570807972265,0.016152750104561405,-0.030798400759797236,0.0382421877534184,-0.14696418638970724,0.09791595436345507,-0.0029207060918959287,0.028649884999235212,-0.03360100231992984,0.020461103170968168,0.013883994766985038,0.0023092251267550087,0.02088184469484531,0.008075609178247277,-0.008712837923222918,-0.017110304172376262,0.0941971197400778,-0.025547618850338877,-0.007465810796263997,0,0.7905862492818037
805,0.17189662470569442,0.013676545095427782,-0.029451342908393185,0.04672785424621711,-0.124631933755658,0.09094857960788869,0.0010933901926781784,0.02511936557571664,-0.03392395448990636,0.004368690386321304,0.011567074258448455,-0.0030479597988177366,0.019649901135739736,0.010455102679733694,-0.0019252823040157288,-0.0039990926139211866,0.08263670825117453,-0.0320232268934894,-0.009483284504420472,0,0.7166259134036626
821,0.18261968343566665,0.012280148046252196,-0.03073100966108775,0.04848327518314255,-0.14795143974385364,0.09049368794634885,-0.0035848103697053565,0.01618741980087785,-0.0365566949151883,0.014728612524226551,0.019517847692726038,0.012011492533418017,0.01638188342244671,0.012378604056433486,-0.020286711200034925,-0.007307334162343402,0.09399618218979282,-0.03773696917814637,-0.015970608989145773,0,0.8192044150508372
838,0.18714551022349535,0.007647654865204294,-0.037353214514235664,0.05399361385023149,-0.14018894267141213,0.09657333194576545,-0.0011587593081511074,0.02347698474687797,-0.04046971044085998,0.013938774634377506,0.004412974493558887,-0.0027633559059091883,0.02491382377906957,-0.0018701972769190882,-0.006271508893670823,-0.0002133712451955627,0.0892022906941007,-0.027371949120162734,-0.020744121784493176,0,0.7797100903936907
845,0.18635155572849219,0.02638925977495397,-0.021762774228054876,0.05284573525703333,-0.14304195691152843,0.09606128743910239,0.0016576134981854192,0.03646361861672165,-0.04414336149280275,0.012350439855587727,0.01299503842798486,-0.005671429292819622,0.0038655023413376563,0.010692625614019957,-0.005131023419734348,-0.001341627872725518,0.08464253465993306,-0.04239424368012491,-0.019058944478409605,0,0.8068605725895522
858,0.18258971196929227,0.012654063134868585,-0.025187635742249498,0.0367265109789668,-0.15311757890651254,0.11668600260355741,-0.0017597099451424213,0.02145115175794793,-0.035818317488395306,0.0063753434870048595,0.00766668091756534,0.0020919882969239042,0.016020181984555293,0.013966339297957006,-0.0010304150208590823,-0.012628712574095698,0.09235004733454659,-0.029789987319213538,-0.010948431672282778,0,0.7788588104319368
1067,0.18912592095714167,0.020812036082863195,-0.03077970412793104,0.03906252519879071,-0.1395364112535047,0.09426519033173889,0.0017777056997706473,0.026312968139187442,-0.031105871008376997,0.015794650645209282,0.017811911999520768,0.0015365307728010384,0.003597564848432108,0.01198915900197332,-0.018542123069256018,-0.013759921638001108,0.09532014908290654,-0.02744917007215484,-0.007071640138746127,0,0.7856511540683064
1088,0.17176452238266837,0.027704228399404437,-0.033019806769079924,0.036890678611684824,-0.13482513018354567,0.09115675123071036,0.01402895266963366,0.017924257067977446,-0.035161755376915224,0.008875133094629575,0.0113626086755787,-0.0010717343920030834,0.016890146980736695,0.0026259082056542763,0.002723457169369253,-0.0028441927188850935,0.08905210552329682,-0.0265107903723188,-0.023506443236956467,1,0.7479386030610486
1155,0.17384382067808568,0.019064990681543235,-0.02585512610435989,0.04753662148473833,-0.1528952453121471,0.09262308181411646,0.002867254476240463,0.016196919990896536,-0.03048201422396934,0.0001749937833717576,0.012529301265499001,-0.012741951004427357,0.01994922271591215,0.010714710658679811,0.0004906034326363525,2.4334814035442956e-05,0.09674432038415864,-0.03539220229249917,-0.01511159308791819,0,0.7652383082052349
1262,0.1899046567128216,0.02263690170266289,-0.04534721063982656,0.047110010600462146,-0.15387900262647364,0.09440109697206035,0.0019943297898529335,0.04004134556389321,-0.039776478052953854,0.015468042968599022,0.0172237581157566,-0.0027907650951411495,0.025575020822977954,-0.002571358140403666,-0.0027976900599001884,-0.011098608749920996,0.09341453275665393,-0.015260142061434634,-0.0034244769045629364,1,0.8247154283363582
1277,0.17749692258255617,0.0243935630443799,-0.043388302346198844,0.05723350872244107,-0.13258334812027936,0.1014717505452416,0.017030287439312338,0.015118688136332712,-0.03116222087191954,0.021827634491773103,0.007845128788291132,0.009001222799927633,0.025139745132916898,0.005538465523174053,-0.012439615018838182,-0.005081533331677459,0.08808848905140765,-0.03873985015270874,-0.004840210540173635,1,0.81842048663955
1278,0.19222493092847848,0.01610455704819055,-0.03763289499029616,0.049356306147988596,-0.15090018071289488,0.10057521580677682,0.0006917054114041263,0.0243060433040961,-0.02424732967472462,0.013720404291496386,0.023261140331338925,0.009153561915583235,0.011429052460995267,0.008531795117673109,0.004158992517776447,-0.0003591210057092015,0.09136184587451666,-0.03396523954327579,-0.012922742428288113,1,0.8049030595115034
1285,0.18373332082711763,0.018481542239307466,-0.03700228373750468,0.03760259600515438,-0.13928093440050507,0.09783814561827263,-0.000754040766758878,0.025985855976653142,-0.034084558846172966,0.02149265112869195,0.006744024702598978,-0.022768828483773876,0.02986103922731219,-0.00031799608743867926,-0.017209676528429446,0.0017212793692851667,0.08496851787826122,-0.014867775686701952,-0.011480379667533737,0,0.786195447177474
1559,0.1660257127162776,0.0018562319212025663,-0.03090561378994788,0.05906862358046306,-0.15927402373027993,0.08456798830474974,0.003363885669354894,0.028296292467208113,-0.015786956797185957,0.02574038396616438,0.01878582526310044,0.0028220485204861986,0.022943215652335307,-0.002298912718396168,-0.017646114292541232,-0.0011199462295704429,0.10281297843923669,-0.018394299149858906,-0.005001845746767359,0,0.7667108989551269
1597,0.19011629772316102,0.009531435418257095,-0.03549771703034542,0.04389971001071,-0.14332432652285573,0.11308108855436294,-0.003054604241048133,0.029591318989117817,-0.039721997958319044,0.020853393551867935,0.024818369299238592,-0.0017654240550127548,0.023156751324373576,0.022964999205175675,-0.010701448110930645,-0.008378553892119367,0.09808641370494058,-0.030593949154287477,-0.005847791351788629,0,0.8549855900979124
1638,0.17259842421166216,0.014459917573038583,-0.033618466661379846,0.029134278410563836,-0.12627060067901733,0.09364566828376775,0.0031965861586599276,0.02620864331990139,-0.025111008672300057,0.003713058648985315,0.024461719008193085,-0.00206474545344173,0.009050588866717668,0.007107537343698635,-0.009473864676535172,-0.000991723616052214,0.07742751204289415,-0.04026796082708134,0.003463964723296045,0,0.7022662691771863
1667,0.1760166062317127,0.02276229601294106,-0.03550776365699768,0.050680386704763825,-0.14016950549153628,0.0912076522133468,0.007009789642117371,0.018054745396529504,-0.040350079145371684,0.01350269371109244,0.022082785496459048,-0.0045364836136778264,0.007234187132201422,0.007617559141320741,-0.0013117153368297344,-0.003958552158450131,0.08307701189163205,-0.040994044867058335,-0.010598190113820974,0,0.7766720479578596
1687,0.17062854994789195,0.013504216942372974,-0.03592994171433072,0.049469470051125654,-0.13899341273673,0.0774340547397165,-0.0035910256978516895,0.020687925315795337,-0.03482981945441403,0.002259911462740083,0.025915668082971754,-0.010134569217954807,0.014739802894674366,0.02006033812458333,-0.015503928522441972,-0.010878813519901139,0.09118451394399335,-0.03633364712442776,-0.015895547313642282,1,0.7879751568075597
1744,0.18903567224015905,0.025379898722647315,-0.03381459625270774,0.036446230213848366,-0.146780282441316,0.09646841273154493,0.008584693265368837,0.029515700954077493,-0.04285187947685681,0.002232519563384834,0.022803128827676877,-0.0013363018335604663,0.011246339884198207,0.004270789028854119,-0.01142443336107973,-0.01799023536028154,0.10119014741714205,-0.03765945007397014,-0.014728223885382905,0,0.8337589355340574
1807,0.16889168900804022,0.01836286479516958,-0.03979430565180543,0.040387573806831424,-0.13627418239064956,0.1072886450265969,0.0001159419554858338,0.03535864610051415,-0.028655419996592418,0.025845882430917726,0.0025769380871689404,-0.005442985545546804,0.010655177625916487,0.009936454892118874,-0.015123821993107495,-0.014452904616979945,0.09327891205630992,-0.046969536907040095,-0.003388067667375329,1,0.8027999505541671
1854,0.17724130677949845,0.01678624136244356,-0.04330655718481842,0.05363850063281486,-0.13775806685100542,0.08880614186746968,-0.004406738738444712,0.016255889968026845,-0.04004157802838368,0.019544374404498844,0.007309196041919049,-0.016484155393417757,0.009967259463843373,0.007906793028104509,0.0006169061436517068,-0.01654101126549214,0.09096217556312268,-0.02460350266289364,-0.00027454633171188623,0,0.7724509417115613
1958,0.17885764863940634,0.02108695974700648,-0.037426252708560086,0.04727902014917828,-0.15076742755369352,0.10506036095567887,0.006052810520932411,0.004476415508580476,-0.035955141916559956,0.010384563412550701,0.01181697992172787,-0.00025417518940974937,0.02294084191847602,0.001152916680492958,-0.0264132814120352,-0.0060097079169056326,0.08469949534337438,-0.025276264868341898,-0.004956362278535518,0,0.7808666266414463
1999,0.17770997438354658,0.015669679492288504,-0.03973513659105966,0.05023444973920408,-0.13063837767972522,0.10386666644583421,-0.00419177371647323,0.019042957057736582,-0.03661041900982808,0.016291346280850785,-9.834213871127244e-05,0.006215367556039906,0.007636753874338524,0.005234011607137256,-0.013652438351328263,-0.0156690825397927,0.0809740525373401,-0.025279849550161687,-0.02359456830750347,0,0.7723452468589
2023,0.1798059377868531,0.021991523449271074,-0.040896242287598875,0.04612408854580808,-0.14266937985335343,0.09890263115013238,-0.01004617190511484,0.024539307833018453,-0.04958249349115094,0.01263972978468606,0.022151324578400862,-0.01630352456636172,0.017878407131093392,0.010093724655781353,-0.007015708951056276,-0.012668271208218045,0.0851497697844165,-0.04332220368019796,-0.004584068472406482,1,0.8463645091149198
2036,0.1805681980059267,0.02142401179082022,-0.04163017696549976,0.027495539890591475,-0.14934990968586823,0.09051732249198038,0.008556310064421625,0.006692566745270608,-0.04156644975033364,0.001912579625283382,0.0040239152469787225,-0.0070944802249012584,0.01231352457566409,0.0032329605991389537,-0.009019807788905161,-0.014049145052556363,0.09149777628483155,-0.03436524180100536,-0.010134271178891171,0,0.7554441877688687
2063,0.17758280307285057,0.013233989256109283,-0.021434526943817485,0.03985461557832426,-0.1327192633773818,0.08791519957340856,-0.0030079707982943772,0.017750159607753183,-0.022635737139644715,0.00344152354890934,0.007278968570079745,-0.0046420285220101845,0.01909994954070846,0.012705350875519016,-0.009402214305418573,-0.008870072895956954,0.08639633455214522,-0.02264764227139336,-0.008629852876491012,0,0.6992482033062161
2127,0.18082563965962917,0.03294297109533651,-0.04698265018480718,0.05401256586590375,-0.13511539560409216,0.09707903159146933,0.00656830262942269,0.01325887320496449,-0.03410268740842829,-0.0008545034906813264,0.02058561821812477,-0.004361267540705342,0.008075893043836048,0.0054548210282957844,-0.0052427405544070455,0.0037135580854657994,0.08755924934353156,-0.03280338483259915,0.0017894709725450667,1,0.7713286243542454
2159,0.18278207199333443,0.005984080751324503,-0.04064959753129381,0.04776215371585115,-0.14055078869338886,0.09757222322205841,-0.0032739387229646063,0.016369027179349644,-0.03213847055758129,0.020549647660701352,0.006982064367070996,-0.0027977063393845357,0.018112137627324394,0.009456799132330771,-0.011375463947560853,-0.00425182746738225,0.08817426759348981,-0.026711265428683642,-0.01219443128973388,1,0.7676879632208092
2172,0.17122093585713774,0.01915355617682079,-0.04256315132573816,0.04670614428986552,-0.1443820334844154,0.09367510585387562,-0.014518443215597546,0.008828665460938063,-0.030885711982277023,0.01416609518598228,0.004756454315111547,-0.006788434371269599,0.01383054286540683,0.00019722107220958518,-0.009163679992775967,-0.0027499550370649493,0.07466211690945422,-0.03417985062621664,0.002756702505049188,0,0.7351848005272067
2226,0.18203663057039035,0.016410402639660617,-0.042546828440390504,0.03021505993596038,-0.16628054081886998,0.08255055818836068,-0.0050505293162885455,0.021627157321141583,-0.04037190883685018,0.0057633359560314255,0.014782396362730616,-0.010743271548103799,0.0143720105948089,0.015670811467624952,-0.010317115534466195,-0.014086583299801737,0.10000667832616705,-0.03463191289441545,-0.007405016091076407,0,0.8148687481431394
2230,0.1886787351850116,0.008362771340804157,-0.03301086418768424,0.03906111573354913,-0.151540935942847,0.11514695447430247,0.0039842969373535715,0.020062873975649,-0.029881729758476923,0.02157606008293082,0.00523320993250798,-0.01701849393146619,0.012312076197885448,0.0022206557146547045,-0.004803923383992411,0.002743384333651898,0.09327967467068222,-0.0326528125574548,-0.014357855246844338,0,0.795928423587749
2367,0.17616562092556057,0.024980857666043927,-0.026748829742635805,0.029329668413246367,-0.1359361338090652,0.10044223791097638,-0.0017208538112381405,0.02636371889583401,-0.03287367439466908,0.016082280227703985,0.018347167821819194,-0.0020350425470296494,0.018485201782902864,0.00784761203641615,-0.0024550578040228926,-0.005790972527811959,0.07987955001225784,-0.027919588751300795,-0.009704026201879492,0,0.7431080952824143
2416,0.17892693658293637,0.025885205081573687,-0.05382231688728775,0.03387987236814505,-0.13797130271724586,0.08917622168277523,-0.0004322966190790409,0.016664790841141638,-0.05360945310024474,0.02478093269195301,0.020196174630227205,-0.01716051311649069,0.015024634885699464,0.0075599583211160915,-0.003561784722356788,-0.000503938566937064,0.08185007330068439,-0.03743087830792642,-0.0039168770155088555,0,0.8023541614393294
2515,0.18630886056253823,0.01306497621923086,-0.03201173262769956,0.04211328449647519,-0.1430525874192932,0.09460441254421705,0.006946523653480156,0.034362657379147364,-0.026285376256254312,0.015878708384092697,0.0036534274402170853,0.005568489002001822,0.016064172896575177,0.003604169244661057,-0.011667161925479261,0.010869936417007961,0.07965277412802628,-0.03343205295789488,-0.011676002578319753,0,0.7708173061326119
2608,0.1701387588269492,0.010889065480977568,-0.04637184263670198,0.044049797504249144,-0.14031199534185557,0.09056465020597283,0.004393185721493693,0.017430283656155766,-0.034212743686211744,0.01532852408968892,0.00840561226550324,-0.0030702211966726635,0.004778944127259505,0.0033551794323062848,-0.011607185907963781,0.0005836840671819139,0.07484811583104596,-0.035918744032499665,-0.015133000663346144,0,0.7313915346740356
2618,0.18002692397453127,0.014254053623512963,-0.03810670643566509,0.03411712173642918,-0.12924536285947155,0.09595773042678393,0.003879506060445691,0.015525516193752902,-0.03137233536088509,0.008913021361254915,0.00892898458407437,-0.010567162668337291,0.01329757772482913,0.0047226585762345456,-0.010123940890865957,0.0070605308760325275,0.09092591019748203,-0.02332463313747978,-0.005418277821535512,0,0.7257679545096037
2667,0.17324723745809478,0.0034181452965603293,-0.023232761873230142,0.04097145887268173,-0.14966776019127362,0.08821519180850641,-0.008579414046631949,0.026710031980489483,-0.03927810755993741,0.007845138688670119,0.013905652666433597,-0.003872115054206742,0.014424768480935006,0.003369132270589862,-0.009780256732064513,-0.004511002958525982,0.08246686453536442,-0.036000632723206805,-0.007259809536621641,0,0.7367554827340246
2674,0.1848608334245757,0.026970452787114966,-0.03628888435610662,0.04074969172169879,-0.13841604458314177,0.09889157653470762,0.004963755015101334,0.025825606922252442,-0.030502685933958596,0.02064235612438054,0.016588588816588916,0.013321969033094176,0.007382562721050313,0.009832534343549068,-0.005068073848101605,-0.005598233849291714,0.08200146664034295,-0.03402258646609451,-0.002966400392377466,0,0.7848943035135291
2701,0.17673473526106367,0.027959438798436233,-0.04047460926520416,0.04555755960169271,-0.13955629611921397,0.09848169932740981,0.012140122367271277,0.028631786793089843,-0.043688121430646605,0.003022632172555483,0.011259661823763568,-0.0011930044735528438,0.011025136145177451,-0.0012872635849085204,-0.014399995263975585,0.00036445030067754254,0.0805090674658634,-0.029012510562580744,-0.012200664878468786,0,0.7774987556355522
2733,0.1549782042520271,0.020961160186074117,-0.0310239553503546,0.0417177823657385,-0.13140265057805992,0.08955880591915415,0.007036599366342964,0.014283838968842456,-0.03652965453847829,0.010942736227720552,0.013665977770717838,-0.005115168537479628,0.017867146045311436,0.016282574774553162,-0.001029265496768722,-0.00729881376119897,0.10313543533246297,-0.03756044542034176,-0.02690811897092306,0,0.7672983338625502
2799,0.17451745005714572,0.01415251898934849,-0.028077672063340338,0.052298127110658135,-0.1507613232661725,0.09510758762711519,0.008119510361954156,0.028317249518361683,-0.02665686652292643,0.020246111741280118,0.016975810951388153,-0.010036522213655105,0.007317393922358062,0.0229269391547644,-0.016476557837961883,0.0032095555976437143,0.07555374684987046,-0.021128892040478145,-0.014047354244972714,1,0.7859271900713954
2906,0.1950891182891225,0.014376884243346032,-0.018016105865037792,0.04303732987053977,-0.1483203699534566,0.09354978411867977,0.003304939263401366,0.022312884965007922,-0.038437209006308225,0.010897272830185729,0.023857445901378716,-0.0033358535441723723,0.017403438759940482,0.002903087685498991,-0.014578360273392111,-0.0190968943129494,0.08768209338408885,-0.031181104090637977,-0.0075030176226841315,1,0.7948831939798288
2934,0.1754856413459198,0.010624892125870339,-0.02915707586244352,0.05072898574829096,-0.1456267790209357,0.08822882347435285,0.003440222325692985,0.016969938212568623,-0.02657896794148461,0.014292154626774597,0.008685469905451585,-0.0051741929293571695,0.008871646099444547,-0.0037500745589205482,0.004982446276932097,-0.0015951661324606179,0.10074279773880661,-0.04389745681064056,-0.015631219167904362,1,0.7544639503042521
3023,0.18307160121025254,0.018350985829192472,-0.03842874299664342,0.04212408140466422,-0.13643821918060162,0.10058960595122254,0.008286983027643654,0.011801146015875601,-0.03304127386207536,0.005715239763623605,0.014694648505378383,-0.009943006287296725,0.017416247018763972,0.010608399650151527,-0.007805976402905714,0.003827634909615922,0.08899678856076707,-0.036363337245867544,-0.00793070475354111,0,0.775434622576083
3036,0.18141126606641703,0.025912089607015302,-0.03811592611436505,0.04523887031797597,-0.1438262972415023,0.07672882711615298,-1.0444510873773298e-05,0.013920341139420495,-0.033943342008941044,-0.0021772249586561408,0.022377230573288175,-0.021127922808263574,0.017192648011707865,0.007127625474748532,-0.014531508943457382,-0.002041835759403484,0.087081425375893,-0.03423894780819857,-0.012946435634851022,0,0.7799502094711317
3076,0.17898928818876753,0.01182077400359613,-0.031177273867342942,0.04065539358125334,-0.16187972281089036,0.09395474426359096,-0.004643185701475658,0.021396811472795617,-0.030230872237020406,0.01288341012421793,0.020753992957040276,0.0029586070325492426,0.021052657971029582,0.003139594016935159,-0.014924774715420305,-0.008424105525452173,0.09927848395153069,-0.02177326930131297,-0.02547084766415698,0,0.8054078093863782
3185,0.18206726367534523,0.013276047992616294,-0.035321280970721305,0.03511406717475377,-0.14068741521180816,0.09235196133212704,-0.009744173705340867,0.03452053574453596,-0.048790049648026024,0.015450860020184535,0.009889583932437331,-0.003486817980616914,0.007119704194282914,0.011667229704277806,-0.012894712804482759,0.010252327162647514,0.0982866344674946,-0.035218478496868676,-0.0030788641773107227,0,0.7992180083958784
3310,0.172930346808504,0.018114257177539846,-0.03926386149818836,0.03745063998093551,-0.13498123237258866,0.10227051441591718,-0.0004923638696381347,0.031247104542830872,-0.0515142809783412,0.015963664650051657,0.013868400928910856,-0.007014619096740044,0.020632222249940914,-0.0029931315479828904,-0.00786096611568353,-0.020900523754335945,0.08290113603422944,-0.03169375290637509,-0.008482053393886756,0,0.8005750723226209
3314,0.18589762830592482,0.028598658511719055,-0.030904865882494862,0.049759744188328056,-0.1512750107357463,0.11019236146077693,-2.2122504745256343e-05,0.025515790765960656,-0.03658165739270455,0.013730868523698453,0.003276025319782378,-0.0020265874547864683,0.01683748052943784,0.010816723286539405,-0.01398689291520817,0.0030291908455992913,0.0883153690350548,-0.029948979585775425,-0.025940746966442895,0,0.8266567042107257
3358,0.17886184959257095,0.012082899188414233,-0.032045828742286286,0.039786725014376946,-0.1377928474055239,0.08364313372106211,-0.003947602545219727,0.027431262486515434,-0.04108857456870775,0.014140351355397393,0.00293596001573059,-0.0058387270877027055,0.007671494480234475,0.00045499865199010895,-0.00716213682019698,-0.004745165716360607,0.08086714573664085,-0.021711937141169736,-0.009059951596511392,0,0.7112685918666122
3362,0.16603608265388348,0.016671031596001147,-0.036829207295958316,0.0474122097043486,-0.14791569769896634,0.10375068679339863,-0.0077703781680084774,0.02233858934973296,-0.02936543600237085,0.016372439263935903,0.016732822564041624,0.007060990789653336,0.008930165221144416,0.0005959637267635001,0.0030218437065013563,-0.009394635759941048,0.08793012163544475,-0.031873756387852836,0.0034826028396708255,0,0.7634846611576184
3391,0.1839733077769555,0.016560258740507084,-0.02739189272997649,0.028711702113240496,-0.14750355471911517,0.08874327827644966,0.008094336448146545,0.018257740898212867,-0.0378438344093564,0.02182903557971793,0.008181448398262181,0.0013546329729503452,0.010923245167292555,-0.008053563548588548,-0.008026609795142511,-0.010337048100721122,0.06185432365221502,-0.022528195270346083,-0.016383996456698524,0,0.7265520050538951
3432,0.1733413785215856,0.011190732309358822,-0.03293283007709193,0.04103123121200845,-0.14221956420017948,0.11548477936224982,-0.0012541769536087686,0.013235930383364701,-0.03157420103933769,0.011581190437917603,0.013444173076741681,0.009133605420068467,0.007987386409175162,-0.002653038486506314,-0.006566159766848147,-0.0012810324404076456,0.07552275372273785,-0.018468121817235048,0.000569447343851125,0,0.7094717329802743
3503,0.18183553650517703,0.014106184995558718,-0.032083225593254945,0.043291263996157535,-0.13212858430063187,0.09427262421256229,0.0004522550427845546,0.013893086379936921,-0.02818911817382704,0.0101706763961685,0.02878724147178696,-0.007599135866918578,0.003177732578330164,0.01790404675265637,-0.006525803757791763,0.003621918454639612,0.09927611503428907,-0.03268551693429703,-0.018406439093156767,1,0.7684065055399257
3575,0.16581582021388688,0.014271432838665655,-0.03334236836749886,0.057005709249090444,-0.13133349498977498,0.08777850462167493,0.002273647177816156,0.02591352452712998,-0.029695566749720407,0.009216142111181054,0.00307204577647106,0.0012371885916819016,0.004469036087127677,0.012191092097708668,-0.0014228734460226301,-0.003584310805618574,0.09619507387072154,-0.03620504623168674,-0.016251668441749606,0,0.7312745461952277
3646,0.19207044427590467,0.018835119460197464,-0.04176772521110442,0.03582290770277531,-0.14322091579681945,0.0992829700554334,-0.003273807618130133,0.029988578396728995,-0.02120380931426311,0.003405373689185545,0.017557018288927945,-0.0034721926884245524,0.020984337351111923,0.006787310143185544,-0.011402498414068632,-0.006018910383549517,0.08939820457393734,-0.031381762514177694,-0.011678085381478647,0,0.7875519712594042
3724,0.18693017471175064,0.014675280547788945,-0.029552743953430043,0.041474635314875476,-0.13441511884937243,0.10443358659914263,0.005814882606614762,0.025290522205778588,-0.04533327645374338,0.01559860757011882,0.013166158692007608,0.0012141894369652679,0.014222880537399413,0.018839598442425363,-0.008090660181195574,-0.01211918714872697,0.08316854066888253,-0.037624336875913884,-0.008334268444514188,0,0.8002986492406465
3794,0.18327620382701973,0.01811591484377903,-0.036074293685862936,0.04218231723690771,-0.15134114356581027,0.09208534604267792,-0.004058416311662685,0.02848845321662414,-0.040728664755274466,0.016280995443027028,0.01937779516224284,0.0018362103131714254,0.015675225877169095,0.00527807006599027,-0.008951585900451383,0.0001006415308621755,0.09763861870138148,-0.038344980347866445,-0.007634895092271482,0,0.8074697719200525
4031,0.18392790477027954,0.014933663661977762,-0.038940657257929646,0.039360527259132645,-0.13621318119561865,0.10100320709038167,-0.0012236107963979862,0.02745717582939906,-0.04735659470314871,0.01943617769394378,0.022714989764949102,-0.015580565768406739,0.0306753917667391,0.0076362460711308835,-0.010287978725975484,-0.008991153750266632,0.09989823832743111,-0.04661724928594302,-0.01449673725796151,1,0.866751250977013
4070,0.1920785046095928,0.03824622309393756,-0.04581276134989227,0.04755765123352233,-0.1479242879725598,0.09413201995046139,0.008433311027772806,0.01499804557232961,-0.03939327535891849,0.017005765114694822,0.0037305601979023767,-0.014940053624700541,0.019049181105021778,0.004486407713992384,-0.003312149855674286,-0.00857879835516878,0.09368033550610173,-0.030244842320496332,-0.011619462964916755,0,0.8352236369276569
4073,0.17575770287914905,0.0196586488624561,-0.024585913107547774,0.04153374647937821,-0.14442813386449194,0.09459859827572087,0.006287427625185127,0.030946574293455518,-0.023684609667531654,0.004598150549016182,0.0031080180319019925,0.0034278876828620995,0.004176089867538574,0.003123010329076212,-0.01723354697371343,-0.0056233928949758465,0.08984961522801259,-0.037402923494615756,-0.014287758769174463,0,0.7443117488758034
4109,0.18484704817057906,0.022321754039101548,-0.030129198836009466,0.05396027328183495,-0.1478998713528965,0.10158881978818428,-0.0019835099210101523,0.019349789770306627,-0.035589652250502146,0.015751686280785392,0.01961758469196265,-0.012483999937678028,0.009351723645475422,0.012159917585419261,-0.010529930369748225,-0.01781375501959328,0.08463221601378865,-0.03400804580372603,-0.006355086545021877,0,0.8203738633036235
4160,0.16685306834020386,0.0195369365012872,-0.03284137000967465,0.052249328022413985,-0.1499154025525423,0.09896329550409975,0.004780847300256353,0.026793853206915092,-0.03721394558690423,0.004010470408369321,0.01488912668153892,-0.0031608279832358354,0.014269636663212534,0.015611317748876771,-0.016725081386586037,0.00524091347319493,0.1062905308332424,-0.034204123229728906,-0.008182541373624432,1,0.8117326168059075
4189,0.1779817532970869,0.01901750640161875,-0.038730499110405485,0.032077575878381843,-0.15445491660706867,0.09223901582841358,0.0015955084360709322,0.02136491080677057,-0.02956586445839603,0.014810602590497306,0.012860835808116602,-0.006691639696234488,0.008016920790377838,0.018391854811591047,-0.006247379483525608,-0.013385574202604032,0.08422743943858949,-0.022888506010507813,-0.013280346981205143,0,0.7678286506374621
4194,0.19261123548308623,0.023892892445785855,-0.034606800499071264,0.03904160872084617,-0.1548067065974492,0.09661365412267672,0.010801338266816899,0.01707127462333381,-0.03691323911536261,0.012995007886916652,0.008469061971901018,-0.012214736631292918,0.01902008675797369,0.00794116613789547,-0.013758929799526936,-0.006092026395686831,0.08542202370667606,-0.031524871206914495,-0.016681359809176288,0,0.8204780201783891
4273,0.17740652487651717,0.008895464692715899,-0.024892867591971287,0.045628616506068996,-0.14780509279477366,0.09198700744242688,-0.010861285165114264,0.027554920193828478,-0.022542707709842704,0.003389536671092234,0.0058036302684366615,-0.01086038334896874,0.01556380557914887,0.007833330992270958,0.003083846366312421,-0.011266165440749019,0.09438679494219779,-0.04590645779237994,-0.0035516313477737984,0,0.7592200697225898
4308,0.18524568366853517,0.01824997584903318,-0.037291778455375055,0.046570560610413994,-0.14112114661212202,0.09504932248832523,-0.005554047783780755,0.01526506159386438,-0.03239653584566836,0.0030066027079964767,0.006103898089053195,-0.008248670019941515,0.021862405082340365,0.009395773221784233,-0.007308302901266852,-0.0018659742103993367,0.100229826140575,-0.024899591248572262,-0.012739690850683327,0,0.7724048473797307
4342,0.18359359115595378,0.014196870855177698,-0.020661873695047784,0.05985603927897891,-0.15082818599607123,0.10372051131469931,0.00027414381132429206,0.014944752441948489,-0.034565273387831004,0.017171836265263044,0.012473197086701642,-0.00026789219753382593,0.01777425762180116,0.006462769890888309,0.0024780586432999324,0.0012158377356807858,0.09921625415923908,-0.04391748646888373,-0.012168668035675116,1,0.7957875000419992
4413,0.17547887688538677,0.016625805107855673,-0.037465868997081875,0.03442357240720783,-0.14447176692639815,0.10073492671038106,0.008816068827759194,0.024320845578903263,-0.0483515029107653,0.013103043941605304,0.00447688545380033,0.005970707138923673,0.02251985702528314,0.006039882776469084,-0.005398567538822155,-0.0044139316170103745,0.08052393112507451,-0.03861745173110412,-0.013103080519637973,0,0.7848565732194698
4514,0.18311321350923054,0.03079136834080904,-0.03129563927862338,0.04920245464193058,-0.14288433196679165,0.09102493467866828,-0.00491668151315549,0.0076206068201100504,-0.02473170346564715,0.02421572889584176,0.022263082078994977,-0.010555212130851137,0.02484414482038939,0.011567274483338764,-0.00585468893617989,0.003485527068937828,0.07647744119398533,-0.022466187272365486,-0.009676071648258441,1,0.7769862927441091
4596,0.19141588266113557,0.019006230001335576,-0.029274414811036126,0.048687663295843966,-0.15129963847606412,0.0912783103957978,0.0014129668602403769,0.02912775743758613,-0.03728056945007797,0.004208652857773874,0.01668706872886834,-0.00040514319088437244,0.023490993488809044,0.0031605213240988796,-0.0018247615725649272,-0.008350952538484663,0.07575158231253577,-0.0371475295758248,-0.010434561195101975,0,0.7802452001740643
4657,0.18533167744707568,0.012392986465559943,-0.032459876969772955,0.03280621063632412,-0.15488851886756985,0.09028490283882921,0.013404695390336906,0.017202431823217228,-0.04927844431170545,0.014997589619412202,0.013003593383406736,0.007600761683539859,0.012953775937464529,0.0034823511895449386,-0.003978758325171199,-0.006685723796422315,0.08499530547817481,-0.044226044118280704,-0.01849134162517969,0,0.7984649899069883
4699,0.1811057924225766,0.021462174832214572,-0.02895394830521406,0.03775461449210939,-0.13616927134988763,0.08876206501427299,-0.0011831941694762389,0.03127504168443442,-0.030979990524322727,0.01660095787015472,0.01036467051757954,-0.008317773765726948,0.009337809650732477,0.010717188254078905,-0.02359408924241234,0.0014680350546644957,0.08583022089399332,-0.0332360769349729,-0.018856660202661725,1,0.775969575181486
4714,0.1791616779455399,0.019025394071383914,-0.034481146362912704,0.0317133798053725,-0.14139268157266796,0.09182566406998535,0.005527729774100942,0.025408669289959433,-0.03516181725884449,0.0050891912685609,0.0034453913799905927,-0.012387899820482762,0.028713470845807405,0.007209872662271619,-0.017773161730136,0.010944147140030488,0.08914829710834564,-0.03246019611084008,-0.013794837726560283,0,0.7846646259437929
4751,0.16699026777993028,0.020203574291215914,-0.030988382724288065,0.052138546614917326,-0.14648081420879194,0.09349665102881734,0.00942628485075918,0.008457922510724055,-0.03997606849599362,0.0015711050881053916,0.02376167471071476,0.0015839622773165189,0.02304278688365839,0.0058528827408772886,-0.00831324066505752,-0.005198008159303269,0.07930056103594038,-0.03584952410746795,-0.013108232777817806,0,0.765740490951697
4922,0.19051204980015476,0.0072946904531983724,-0.038349228896858045,0.043332215420272366,-0.14304851900675639,0.1042807221184426,0.002345114393396902,0.013950344696992778,-0.025695803556041348,9.090686953704213e-05,0.005091397091341481,0.0004864868840349319,0.02409560929881244,0.006984105393623089,-0.011925354435653557,-0.014239981005937787,0.09299867155382494,-0.02531318531348468,-0.013898741791727204,0,0.7639331279800907
5168,0.17852854311286062,0.018619854540029145,-0.03306624707765869,0.054486743715443445,-0.146450167931939,0.0990666414910299,-0.01682277045191529,0.003840404829650271,-0.04354054128071828,0.016973493486116112,0.024248850533889553,-0.002652719839781714,0.03376347804255571,0.020039242262769378,-0.011938572551702031,-0.008378751531129963,0.09734953473583996,-0.03394328217080975,-0.018402215931277492,0,0.8621120555171163
5217,0.17851718849328865,0.01966572558485472,-0.036767019337936344,0.05336458106424233,-0.1547399850226793,0.09745543767386214,-0.008294958215252054,0.02501323020372438,-0.04048995984411749,0.014976216257214464,0.010352508299674405,0.0027373036849355657,0.01794404744940252,0.006953785522291447,-0.005604814971308495,-0.003322573360236723,0.09250792309552623,-0.027961867768995598,-0.008015949881327344,0,0.8046850757308702
5281,0.1643835985954803,0.014925472046341584,-0.01813261175820333,0.05680485339127156,-0.15380066592930372,0.0873805578236253,-0.007485737811571674,0.004697188333587072,-0.023353271417697625,0.008760068234460672,0.008946246986087905,-0.006720279008110505,0.020703142650194545,-0.008548821376868234,0.010189529029819223,-0.000549570663503751,0.09287320332477637,-0.039409964806513945,-0.009267544215346837,0,0.7369323274027642
5361,0.1743873083056295,0.006486597631856485,-0.03838334017680502,0.04160072464868752,-0.1352625932835688,0.10350964764446813,0.0043499255538024225,0.012570289637896217,-0.03497437321075793,0.024653409053115256,0.015288249476066336,-0.012838655483345583,0.0296667258404743,0.009119733095418405,0.005940217649748963,-0.008860924894188644,0.08082283521314267,-0.02579968863403088,-0.007478676443297994,1,0.7719939158763011
5378,0.16501515688665955,0.02720664266183722,-0.033213812210008686,0.03816697418684205,-0.154867873012966,0.10955782027075796,-0.009448234562056802,0.025633530253652136,-0.024663516091648116,0.02022878691496326,0.029874629482502055,0.009106367001597098,0.007714376323119431,0.01193724999106108,-0.006196713623249534,-0.0029602100640168136,0.08684393966313424,-0.028667282849293166,-0.0038894364465703224,0,0.7951925524959356
5381,0.1786673184340278,0.015483418782020341,-0.031900113798026486,0.05003050723789336,-0.14677598896841654,0.10418270690864324,-0.006871591269463467,0.017196552250245883,-0.03423607529203726,0.024665515117611683,0.004625826128417635,-0.006885901098121085,0.014888611939975576,-0.0024637263222631544,-0.011400770457179119,-0.003423551680451892,0.08042548034742461,-0.04050220223065009,-0.02598872452289925,0,0.8006145827857685
5515,0.1658169406928941,0.015398385209400909,-0.023400883922842397,0.04939256777683299,-0.1355160087887617,0.11011449365939091,-0.0046562276541161005,0.019498470407051476,-0.04181010883338394,0.007352410010562471,0.005694032188130622,0.001057281531367991,0.00501988345140516,0.015481214502828036,-0.016179958818608463,-0.0163510297251604,0.09310631737948477,-0.025077588571265973,-0.018706740050639967,0,0.7696305431741284
5535,0.1898976114517541,0.016559293577901757,-0.029511518699494706,0.05357469659344078,-0.1420490617248107,0.08642499733083873,-0.005914829440542643,0.016236235553876203,-0.025936452033173792,0.020146361011954817,0.0029348354276515507,0.004522620829165716,0.010757834807281123,-0.00034394429921319296,-0.010297661579992373,-0.004242165240726172,0.11025158158942559,-0.03754807433710667,-0.02181887825271651,0,0.7889686537810672
5638,0.17545288939107964,0.028696164767771693,-0.04497852016966815,0.03870121234107413,-0.15172095009446332,0.09681405396893518,0.0008088483713012906,0.0222133371081916,-0.024151349531086608,0.010083880413977087,0.021432683531148657,0.004295058597303472,0.013116514862267064,0.02267124946725375,-0.0003091998559006563,-0.0008649049192004025,0.07614248441909581,-0.030757955402936098,-0.011421578202902509,0,0.7746328354155572
5655,0.17359572233174878,0.02587866632029554,-0.03743170499559745,0.036441202007883096,-0.1406115697217613,0.09530670000469764,-0.004325973127982715,0.030903639349784056,-0.022773204887907014,0.021284254489476517,0.023935790565836376,0.005261837923335304,0.01471939379756861,0.00781389193894153,-0.014508701605524534,-0.01105079192710001,0.08308148266516492,-0.02911417371056449,-0.0035195825344102615,0,0.7815582839055801
5729,0.1691440369662306,0.017652102372426853,-0.032367597496747495,0.04074870746887525,-0.13515843947437986,0.0935863687676508,0.00874956949714351,0.008028269610674677,-0.026860680761286646,0.0013724127507065878,0.01755357969520952,-0.009427929821586708,0.017107540435985225,0.012266570176742986,-0.009318758342196915,-0.001840958210560329,0.07459747549339253,-0.023828533171134224,-0.009757676673947944,0,0.7093672071868786
5738,0.18550948517260674,0.021179053730729896,-0.031482629212613786,0.05933627245281788,-0.13062119363047314,0.08647243488302285,0.002490613603081348,0.024904611167307345,-0.026914405360123746,0.003935884651377989,0.02064861659581985,-0.005181520993285367,0.013780878011446087,0.021658907021970063,-0.014859842481024121,-0.010328424795296215,0.08992579328876296,-0.04189500193494062,-0.024736356737934877,0,0.8158619257246349
5744,0.1760737207500091,0.010254327684426552,-0.03571963190782412,0.04182394864410943,-0.15337409887500805,0.09759495537740043,-0.009191024912421374,0.023323391383436153,-0.044031979598531376,0.015272813430186098,0.006559589846683662,-0.009338676792061113,0.010526090318069845,0.010293520802426136,-0.012647754724081509,0.002429975614209164,0.08054602443109676,-0.02810138534668683,-0.018754764617617218,0,0.7858576750562849
5772,0.18182096921056323,0.014520236009147763,-0.032563278356485176,0.03443100758338209,-0.15062440999465507,0.09136202230294983,-0.0009571352235554989,0.024174501425515135,-0.041364797937655434,0.005744857762249596,0.020936415705992646,0.004192667558704129,0.01230490481639905,0.01718377621924128,-0.010273106541407104,-0.000909812900380294,0.07321857532397831,-0.04109680510397259,-0.012570390292655664,0,0.7702496702688899
5775,0.17614217751290284,0.03127490325191977,-0.01831397161323249,0.04429972322912361,-0.12860596969466306,0.09997796242368216,-0.01280020250129957,0.026246334355273272,-0.027114856544589012,0.01317765836501922,0.021314950041288597,-0.012222029643550137,0.01157856249569088,-0.0021961464408771967,-0.0149257440590746,-0.005054248758322147,0.08379580813194586,-0.025304682229245663,-0.00839326482390772,1,0.7627391961156078
5795,0.18095967694018353,0.026945932152748795,-0.03845109782763919,0.03633567163138148,-0.14666947593956509,0.10327966289234501,-0.0057320803806945875,0.01898066025536424,-0.03695786374351503,0.01175528336970253,0.021076226112167955,-0.0016224967588895612,0.008636794234094415,0.007090525712768749,-3.7562805866466013e-06,-0.007382957025079779,0.08046837660044658,-0.040785814102992486,0.001432406829570322,0,0.774566758789736
5825,0.16455553770511264,0.012903349954639846,-0.01707804613447477,0.05916936344655695,-0.12052330855052762,0.08459629372566366,0.004999973368143089,0.015729394155390153,-0.030963608975643712,0.007621823613091074,0.0196672726732264,-0.0032718010102801677,-0.00016999601748284495,0.014554196205336021,0.00851319713640114,-0.012248847523430275,0.09704219222428283,-0.04089078390861525,-0.015293327017462811,0,0.7297923133457612
5833,0.18580571024581566,0.008635780105196987,-0.040812441515899835,0.04111386524220948,-0.1462495728461499,0.09953684624235942,-0.001395116025005055,0.020613582518102965,-0.04522774661129987,0.01705710907283797,0.021297485174761082,-0.002990533213299932,0.00014969610384910512,0.00632506891695533,-0.006256475031913094,-0.005685303668369606,0.0891411660383487,-0.028714995495311913,-0.018609848571978123,1,0.785618342639664
5935,0.17174358296898898,0.006883245280443805,-0.03586664585933669,0.045550153931566265,-0.1389228275987677,0.08405551175452718,-0.008819888534790078,0.012571803251938529,-0.033255758535634984,0.0014072716976159425,0.008564143714993599,-0.003936140368862664,0.02831891685914913,0.013741667069627317,-0.003012670548224244,-0.011236817716792816,0.07185313925062921,-0.028819194152240983,-0.026294262750648594,0,0.7348536418447787
6003,0.1705018061298675,0.020847775457052527,-0.03503473575392473,0.0440288448098471,-0.16352701513275236,0.11081283244602258,-0.003455799018408374,0.028865448198532612,-0.04325359403580911,0.004783060968545049,0.010323142644563271,-0.007392092588397853,0.013866586555288085,0.013755930882724771,-0.011467939911787177,-0.007847721239939178,0.0873237903638059,-0.03970508225338074,-0.012096760354734679,0,0.8288899587453836
6066,0.17625635972033804,0.012649983831449151,-0.031073890383058654,0.03973205884862522,-0.12822957039275307,0.10078932489232002,0.0035874628936699,0.020171369709336702,-0.02667956963436792,0.023108306598172517,0.014932964740269993,-0.013103833170721267,0.01924061261190072,0.012996733547951101,-0.008333804580930288,-0.0038670152743794164,0.08326850154418952,-0.027140642385060337,0.00011212176957967185,0,0.7452741265290735
6109,0.18286824255068307,0.000515522441998241,-0.024896654055167496,0.03028421576882717,-0.13292070544144927,0.1076146303331043,0.0019453858630677232,0.011889486673284372,-0.03875648802470636,0.010441409155853636,0.015233835324917122,-0.007305826090175523,0.03073418020579526,0.005425229212842246,-0.008638212791893156,-0.0034266078503618308,0.07008320628927926,-0.026978922877981832,-0.015835722413327584,0,0.7257944833647154
6246,0.19518458894657062,0.021970348066167506,-0.02910990101592211,0.04706647935046901,-0.142911595462365,0.09940660360738339,0.01570776568786884,0.02653210383481806,-0.029129577816554,0.012048828603231662,-0.000548853290679689,-0.009967574604061561,0.017098831584754903,0.007418305510313986,-0.01404477586580495,0.0015377634591063165,0.09955094213438441,-0.02861283061588959,-0.0019043374834978835,0,0.7997520069398435
6254,0.17792666161587586,0.011126659994101142,-0.034801726010386835,0.03539510062048362,-0.14511024669270556,0.08955885344487666,-0.004360236983064031,0.02198085274871646,-0.03610744969352248,0.009692197089152919,0.015018338175946081,-0.0004475269537395899,0.009785550144871893,0.015848955635164624,-0.01034186735823153,-0.008594321102656552,0.09685137317506136,-0.035727163581651206,-0.021472439692563766,0,0.7801475207127722
6295,0.18180205090957519,0.024657563396146744,-0.029948864545747203,0.04633914970320785,-0.16039052430956025,0.09566845342077517,-0.0043541191486580815,0.02431654428807266,-0.029131297227710334,0.017367352127251833,0.004352356421296752,-0.002962810921545312,0.008819083986561994,0.0021970941157071575,-0.014851220772852074,-0.0023312335453272923,0.08156891440400021,-0.0295194354136959,0.004807440205159292,0,0.7653855088628513
6369,0.17243115323073568,0.01443891186061827,-0.029142429277674926,0.04804412186470763,-0.14270813303444252,0.09533830102191834,-0.001618778453037491,0.01900646467257317,-0.03190686984338873,0.010016544469928132,0.007770486776470206,-0.0010231092223250567,0.01967305262076712,0.014771532582057175,-0.0071003415456676894,-0.006548754654257945,0.08495537589552281,-0.02739103160680818,-0.013205990433204211,0,0.7470913830661053
6400,0.18858614375767327,0.0009416297671050649,-0.033328965731324954,0.04503657077590149,-0.13509156003723136,0.08710963567592013,0.0028050712548555227,0.010995568249758536,-0.029523380060076633,0.01636333939722749,0.008509387912993467,-0.0010629833139367184,0.01570919629705247,0.0087960569401866,-0.008729592828641625,-0.005081842095904701,0.06444033513517065,-0.025384238421046413,-0.011359337752326084,0,0.6988548354043331
6401,0.16461645292972876,0.0160876781377116,-0.045187674526743715,0.05072130186025782,-0.12286501120251508,0.09228213433318516,0.005320372728567404,0.014493331511699164,-0.027016599537978504,0.011983298535616388,0.017261643895966707,-0.005527560517282765,-0.004402304023343694,0.01403693684221729,-0.008374295775429065,-0.013347632616902519,0.0878308299520544,-0.04689054729497857,-0.007544623694487465,0,0.7557902299166661
6404,0.17448917665550198,0.020144790179828533,-0.03736448084699654,0.03858294641792254,-0.1434135660480197,0.1078030288331718,-0.0034320749536490584,0.021742183966848117,-0.025804592021197493,0.017402234432281356,0.001623763147147801,-0.0010879060291650146,0.017279995110166826,0.0013204123878583175,-0.014318821047047027,-0.0016056502572852393,0.0745114769871141,-0.030892206309004053,-0.009063460640464762,0,0.7418827662706703
6419,0.19411357105789903,0.027413720132538504,-0.030718977842954902,0.053786962297488104,-0.14679737162737655,0.10056147710525132,-0.0006337466493840367,0.009431562560372399,-0.030972244747007164,0.015133265374246833,0.003846179803333791,-0.0013206357046960794,0.024780826065661628,0.008071329573942649,0.0005267308967147928,-0.013622301209513143,0.08128934211242013,-0.03936060662684725,-0.013841199959547752,0,0.796222051347196
6538,0.17657940113827342,0.022823228560019244,-0.031308327268598925,0.047102031843544195,-0.14540542668632586,0.09727929276760061,0.00832310818998129,0.01137187088177241,-0.032480195234748224,0.00012946339402416872,0.012120421617693203,-0.005972484026133491,0.010349421265053182,0.0020390414462196126,-0.01267805304826838,-0.01009812494668836,0.09447127289020696,-0.02877863791892466,-0.005943300567377578,0,0.7552531036914538
6543,0.1757226432610248,0.02162334160879675,-0.028671519988872095,0.04121589354129931,-0.14557587023168084,0.10374403074688807,0.00011279150696070788,0.029356188626532997,-0.03327695805917097,0.019622133172782795,0.019839141124564242,-0.001322052103665717,0.009871668165404761,0.009535939564426084,-0.009623290529293872,-0.005689873081172529,0.08736987479423107,-0.037904686723766276,-0.00950230741510471,0,0.7895802042456386
6563,0.18340915129101906,0.0160873043084054,-0.04348372733215047,0.048880083390726324,-0.13460953616548088,0.10060774606740043,-0.003961517262564079,0.007088186124130765,-0.03658799809194595,0.005165210183108092,0.007767532858816585,0.0005406574436780884,0.025495056825724925,-0.0009206089176486306,-0.0033567892375392693,-0.0017025486547150989,0.07961784915781289,-0.033362752681975104,-0.020387792718137378,0,0.7530320487129795
6564,0.16696472414729419,0.017289832458747444,-0.031036891022036973,0.051688032399830934,-0.14066604834277263,0.09953977869512512,-0.0072072650248411335,0.020136994157645305,-0.029709500170220154,0.0027377898399933193,0.010507461173582311,0.0033641236008791543,0.024074994303487238,0.005926896599970149,-0.009573529960369141,-0.003140926691701239,0.08588615595190524,-0.036291777609709704,-0.006170187559429808,0,0.7519129097095412
6756,0.1856730102543287,0.016558238598369874,-0.028900772738245768,0.0442547126796579,-0.14340348580194656,0.0893440849854761,0.004693419041264551,0.0075639827636555,-0.0309957753268542,0.02040764913700075,0.01729667177421095,0.003713534105562295,0.02730127984305959,0.006563261226969806,-0.011053177083092688,-0.004407633851192089,0.07929365443822609,-0.021335048473233656,-0.018499962197744427,0,0.7612593543200915
6768,0.1760546895418092,0.018431591690876967,-0.029830811806371583,0.03670267926584093,-0.13289593069940178,0.08193795387122917,-0.004108516790428621,0.011180957427939975,-0.03080336531904734,0.014610079772701446,0.012831963036648875,-0.0021109915905726914,0.021120037598728755,0.017109701434484117,-0.01744862432818765,-0.017449087077410292,0.08694884143434535,-0.0345085037975753,-0.011190877486765637,0,0.7572752039703656
6823,0.16994214751961936,0.018579495265544692,-0.034663831988304285,0.04165691851599445,-0.13023018947658985,0.09966257971937813,0.004811007310117265,0.020949883511690495,-0.0409782879607134,0.013142392579123275,0.01171717047595261,0.003573838237788294,0.008879745826989888,0.0004293576674037263,-0.01777531777830934,0.005113375151488508,0.09196291063480437,-0.03554371561577421,-0.01703973260147588,0,0.766651897837062
6927,0.17687664098963002,0.020235019746690265,-0.04046865004436054,0.044331558836572214,-0.13326939947269234,0.1011491267287311,0.0024544073435126892,0.023057325762203196,-0.0344697744073281,0.010767062755348627,0.013447617114570739,-0.009177510228100698,0.024288111105689104,-0.0026497001732354226,-0.008824090762652231,-0.009102917453738459,0.0855670051463871,-0.0203167584014625,-0.013175308976337598,0,0.7736279854492429
6943,0.15763979966702357,0.0199563278728748,-0.039131821707844405,0.032224608658614505,-0.14597710079850906,0.0882328605584671,-0.00865879277166261,0.019950541961318864,-0.038820174413519495,0.013135119302195207,0.007552907923123148,-0.005488293792835385,0.01679093806930611,0.002479520508239664,-0.0031748050308137554,-0.011547522870391593,0.08289671367020322,-0.025907400322642063,-0.019205625686262977,0,0.7387708755858475
6944,0.19080312770017913,0.012642383620939014,-0.03533861329347036,0.05236124048175661,-0.14366818267264284,0.08422650821874572,-0.009858973695555153,0.02670250249182668,-0.01824101834784419,0.020949290451176338,0.010591401624311882,-0.007742733991099436,0.013394397576418882,0.006628004273637508,-0.008236987145469702,-0.001243662670982301,0.08754910170148235,-0.033132307284406276,-0.01571153475306606,0,0.7790219719950104
6961,0.18039696216081852,0.02278903216385958,-0.03172614229020128,0.043590721426939864,-0.15843896730821766,0.10389913622773649,0.003567689523014678,0.02377608372305215,-0.04266590779771321,0.006979554571235133,0.03958208646708316,-0.005994980239318917,0.014339751957877154,0.012752719719375201,-0.012129659353819312,0.0036884992724555807,0.07798490584661048,-0.02563853567627725,-0.0067469336136944695,0,0.8166882693393
6963,0.17419714897624924,0.015232247629243476,-0.04250763602770036,0.03627564955864234,-0.15218594533424243,0.09288465274021578,0.0012233217884011869,0.028545577196773073,-0.03371104737824882,0.020351885861283604,0.020266013944161918,-0.006006200977882657,0.008313107418330036,-0.002066384278204921,0.000548584694068173,-0.0010963212110240144,0.08311493412728688,-0.032092188738760415,0.0004798152554057581,0,0.751098663136125
6977,0.16544370290630211,0.003957450176609051,-0.018340179389855427,0.055585271944613115,-0.15798483381051445,0.0877917919255088,0.009345911528721065,0.037522641258634665,-0.020840671754028994,0.03094414270227031,0.01602888000608045,0.007099161988750284,0.027634263037710785,-0.0019471000697959086,0.00944708446255276,-0.012112954367898087,0.09021009023278331,-0.03478835005631985,-0.005942276768255208,0,0.7929667583872047
7062,0.17980144709071463,0.020372956979368653,-0.03874114599567365,0.03518373885955381,-0.13444141145971256,0.09207978858963332,-0.009718088644513477,0.020125450800873475,-0.035421750044237366,0.013407891568389415,0.012472583603715743,-0.00020004496368643452,0.022027441561901694,0.005009811926991151,-0.00599250785204375,-0.01538257945411697,0.06784002185680921,-0.040902817589122224,-0.00420769506798184,0,0.7533291739090394
7079,0.16591779009227892,0.015091602256274851,-0.02545240659663248,0.03869286886430655,-0.14307157758541686,0.0762218369970051,-0.005556935036381035,0.013637481623791553,-0.02876901162673976,0.015981182069868777,0.01570267352578193,-0.0075397169411338645,0.018919615466028727,0.001607383913831475,-0.009269317181679351,-0.012904306169627002,0.07584195573148353,-0.024296590904761668,-0.0069594717052441244,0,0.7014337242882676
7086,0.1836964188230614,0.01532580880760287,-0.03179431560480558,0.030714352852847137,-0.14745583727207112,0.09027203181148702,0.008749825276311317,0.029066623416348986,-0.026554025043282945,0.012601017273905144,0.021699112210262748,-0.0030836727969979915,0.02182138417265037,0.012435494674397633,-0.0038268664160915388,-0.010406427173957233,0.07581347736267827,-0.028376065746133515,-0.024411907810000043,0,0.7781046645448928
7101,0.18032097388644866,0.00764961128611554,-0.026630040340112057,0.05143872012346003,-0.14363962030109245,0.10638808384062544,-0.00288017723278612,0.02118570208322422,-0.016092513400665292,0.016118392229943972,0.013198898746724487,0.002696052634763061,0.010096258039938447,0.005159271028285948,-0.014832146312297506,-0.011923968473374047,0.08774909627778359,-0.037255409735750956,-0.011402974302238501,1,0.7666579102756303
7187,0.18318715294182586,0.0014203897499055305,-0.028897051185612564,0.05036553843702323,-0.13710678658881265,0.09449618260531442,-0.006262691284778637,0.012179374018170236,-0.03380284283818768,0.009022808309273104,0.014851782383918195,-0.01117398820657017,0.014633211131367247,0.019116714145044594,-0.003954881389067845,-0.010753329037695528,0.0890903616066424,-0.03692448535203774,-0.016092491116057362,0,0.773332062327305
7220,0.19326488326401908,0.007014018881205302,-0.03841715977748274,0.04471631573100776,-0.13276138057631906,0.08416164857815969,-0.0069349484567189645,0.025836609506045927,-0.018477746282342267,0.004312221260512306,0.00772498616698335,0.0029574565944184778,0.01872171187712478,0.013141937832950246,-0.01447905708734472,-0.0056563147947012084,0.09227238592145989,-0.03242585750790891,-0.006591587491772721,1,0.7498682275884774
7258,0.17296356430720608,0.01386952322670662,-0.033042323781423605,0.03757269364774333,-0.1353190584716791,0.08779791544156208,-0.008928635714678388,0.024956612033167264,-0.030992785883654003,0.0024324875305941716,0.010521297709183657,-0.005814968038655356,0.018948061700626545,0.0002792702945653589,0.006352119369298655,-0.011158919337493899,0.0805466757828898,-0.026466705219164072,-0.024405279808462712,0,0.7323688972987548
7289,0.1735930133399391,0.028659549226516905,-0.03032874636335031,0.05612920707379553,-0.14668890452454714,0.09924662928125348,0.005570747685856496,0.02364309723301326,-0.04960670353425606,0.013026206923575735,0.005065560459913621,0.002070249988034368,0.011054875346228489,0.0038091909282744535,-0.005729636211630503,-5.864186672331403e-05,0.08554579566357057,-0.04030295744088152,-0.009705536056173705,0,0.7898352491475346
7334,0.18337582198625965,0.012753452049054767,-0.02791756006065971,0.03861844976564564,-0.14486753781407338,0.0940657179468935,-0.0021122209519097977,0.03183245854009314,-0.031827974231214744,0.007515756365920672,0.025080828456350693,-0.0025674274098264715,0.022759173493698426,-0.0024849686243407733,-0.019906744620971178,-0.019847532850910055,0.08166478351434169,-0.026957648986043248,-0.01343982986232975,0,0.7895958875305373
7362,0.1804149073396222,0.011606127142978763,-0.04031209493155729,0.03808975634005194,-0.150349959383762,0.09703604017377485,-0.0008119273905732228,0.025069010373181287,-0.03495276188403973,0.02841701572909689,0.017299762308599254,-0.006739054425892799,0.013627203382917284,0.004689985150912056,-0.0032068456021206947,-0.0034837698371946524,0.09301989721672431,-0.03300401487132131,-0.023854997445800972,0,0.8059851309301215
7434,0.178414735642654,0.02354538113801448,-0.02987272795850695,0.05521350789021383,-0.13775380691326028,0.10030488531372055,-0.013819896790377057,0.023453789781151584,-0.03222870823272065,0.00560291857308251,0.00936087810695871,0.003518008819573664,0.02464300293851335,0.003867262638650238,-0.015014772034572675,-6.136610038042836e-05,0.09389365547453513,-0.03010597918597901,0.002487218668593223,0,0.7831625022014583
7596,0.18277323031209297,0.01939103451232572,-0.03292939223960953,0.04935969528502364,-0.13193279015271966,0.08933374680172532,-0.0004863391541839564,0.025113679507317688,-0.027158385870293435,0.008017525074325398,-0.0016494499267708266,-0.014436417523351452,0.018123735081050578,0.0041642601889904495,-0.019139765285623483,-0.01817309856596254,0.09380519093972896,-0.03617239578806216,-0.014125623737074088,0,0.7862857559462318
7611,0.1750719182864321,-0.0008379284537766355,-0.038569200582840454,0.04662427973286693,-0.13898852999745612,0.09162693992333265,-0.004084434150499661,0.01795937297258513,-0.032680871806536185,0.002194480427242049,0.004612912782697412,-0.0014420938831674413,0.008268283675424629,0.004038750639115718,-0.011457451870871166,-0.006949542260299346,0.09496204690958007,-0.03594679099590594,-0.004105980851339842,0,0.7204218102019695
7696,0.1908837465150339,0.020739868668957356,-0.03113346874380475,0.055904129291291474,-0.12981844528873282,0.09511120116213455,-0.0024922036443359662,0.016681899042935138,-0.04403355268897849,0.005671382152564674,0.011059625179430686,0.004606421310166725,0.02634121213386963,0.015072551706515743,-0.004339239596237233,-0.010682726771698327,0.10070138733279883,-0.022634938108235258,-0.014131765658778349,1,0.8020397649964999
7731,0.1674483576334379,0.02393087847284946,-0.029204856950122357,0.0344432032044175,-0.14686260961186576,0.09461990506691591,-0.006578224278155915,0.020422859779231414,-0.02654960797822873,0.022340503261877486,0.020014607007018008,-0.016635374715851168,0.009612120457872136,0.011206690782655182,-0.0009058145104897193,-0.01082048866924434,0.08115967697544217,-0.025278647549011594,-0.018445695308207027,0,0.7664801222128937
7822,0.1768141382736447,0.023578011704046768,-0.04456522401232695,0.04006286746317768,-0.1424385994140395,0.10251860701018278,0.004680684320254503,0.007116667346324815,-0.03258034577074209,0.017724425734163596,0.015920017432792782,-0.010484265690920787,0.012216278627102593,0.01041948457960077,-1.322249335475623e-05,-0.012920803233980146,0.08508584086470156,-0.04184768647082303,-0.0028352636461659005,0,0.7838224340883457
7826,0.19037289467195764,0.01930209813605716,-0.02883494294637936,0.03151684872902143,-0.13718106468335403,0.0940767700114355,-0.0021675103184628144,0.021515467345538903,-0.024280984413392718,0.01421804250041685,0.008199889166417841,-0.004140263999288812,0.021645327510841715,0.006028365766247624,2.9344407549281754e-06,0.004235327908259076,0.0875902891782694,-0.030333582278955058,-0.006648345670863525,0,0.7322909496759143
8046,0.167876543388125,0.020334312557064405,-0.02945644790249143,0.04551576014783665,-0.13589056560305793,0.10419139612119153,0.0033442694978514844,0.013171319503386817,-0.028653084125018314,0.004015215509176743,0.0192985434745808,0.02038892045159022,0.01330228224305756,0.011836819938094365,-0.006609743107635734,-0.002239965820798473,0.08654065940454318,-0.03541392389399078,-0.006934052659556516,1,0.7550138253490479
8080,0.17013181103057234,0.02535739463743417,-0.040331630741382865,0.04619370017090569,-0.1419614223378207,0.0890881790924212,-0.00035679770716496114,0.016056255344942615,-0.029071802648171583,0.005726647291350618,0.006277337114494625,-0.015103860443273212,0.004363597458209827,0.015285639589601493,-0.006410731489218055,0.000587866758804223,0.0875671872076289,-0.03685929705081926,-0.014942179976227299,0,0.7516733380904437
8111,0.17058337254973518,0.012995005591686573,-0.03405759578597415,0.03778469856652778,-0.14162080629431809,0.09739499204630288,0.0025012527324701052,0.021172690400117905,-0.04655366898178917,0.020129184957740475,0.019924526068052832,-0.008880553055586451,0.009162298876817528,0.013465944694621599,-0.0180323530688189,-0.004296236631372453,0.08134863153588352,-0.04140292935497381,-0.011242790293136367,0,0.7925495314859258
8148,0.18747919034714358,0.014919553784240275,-0.03681093580761302,0.033733628351925636,-0.14946164750435878,0.097987314369973,-0.0038630091594736675,0.025819793676204864,-0.0286418255382804,0.021676056509365667,0.004173030689470042,-0.004140659751850442,0.00913068261162571,0.012505102290695354,-0.01214573459789872,-0.02039050546038953,0.0981880090042012,-0.03764489115829234,-0.020753370376495155,0,0.8194649409894974
8162,0.17458681345105942,0.011399115922199296,-0.05089158065704703,0.038585786905844195,-0.1407195453315085,0.10787936987941345,0.002888022684561174,0.02193007780725856,-0.02823163042026781,0.013811971406646072,0.02376177505303462,-0.0007189522870557208,0.020117997536118055,0.0018516340923024357,-0.016141245450383652,-0.0044224245198334605,0.08803226434573741,-0.040888689506998754,-0.01706955881024651,0,0.8039284560675161
8186,0.17372238676082138,0.00971980912845809,-0.03396152964160682,0.04795551156635312,-0.1499175771728802,0.0988004869438818,-0.004119128829494857,0.014187362039313497,-0.032546212266349246,0.012400228292734888,0.008526578528763679,-0.002683079838842787,0.017055266023854848,0.004551402080101904,-0.019827868629988667,-0.018050883696426493,0.1018846329692923,-0.0353221452895954,-0.00539249832114123,0,0.7906245880199012
8206,0.17804941332825658,0.026288651488402457,-0.04505814639136435,0.03587262629763072,-0.14701280072828102,0.08736179240639147,0.015092723573032379,0.02951308056167856,-0.026403324123577203,0.013673525130126634,0.0011397762620668126,-0.009156595591352058,0.009923532760843588,0.009659177045026283,-0.012276381198657907,-0.0072958840862943275,0.0840737947048954,-0.056282972343408205,-0.01574492294537156,0,0.8098791209666575
8260,0.18142527472243014,0.02329159275449393,-0.034503177900475815,0.04798504188476485,-0.1292349440870139,0.09120137172038435,-0.006064690244849275,0.029421807331332105,-0.030742189342184173,0.00393362175893046,0.01800857527454779,-0.0012801414427468303,0.022365625878583473,0.00920633776968835,-0.022650914207047276,-0.008431977500382005,0.08433890206946412,-0.04056408359896822,-0.01764229326619914,0,0.8022925627544862
8363,0.18047792878467667,0.004580993355366067,-0.032676594016035856,0.05512028781570039,-0.13404797969134472,0.08318227669699801,-0.005597891342221021,0.024281382800636644,-0.04876033891806042,0.01170104615993391,0.0010911927478256826,-0.02361898551394537,0.00850114575723189,0.004695840507180725,-0.019222737342643063,0.009553960578866393,0.09184689295601853,-0.028532069440092494,-0.009997100421336433,1,0.7774866448461143
8372,0.18144692034821272,0.010028808822627175,-0.026693179448378294,0.042588884995921575,-0.14072650001115616,0.09595300625545788,-0.010102966441245458,0.014031024991584805,-0.029493258774924074,0.012451635426983305,-0.0034660663479136418,0.001887707744756562,0.01672215390042931,0.001566817775314834,-0.004468733602380809,-0.005443388020868316,0.09009393177771007,-0.052984678945102476,-0.010294727373605518,0,0.7504443910045729
8427,0.168930975195299,0.012615272602943508,-0.03093112303192697,0.04663045341353146,-0.15345228348161258,0.10616295217255244,-0.007570314660980036,0.009440555341684594,-0.03666368277400462,0.030873552664101463,0.009972486302292234,-0.021243675108368193,0.010819272170624023,0.011567624008473089,-0.01150710919758054,-0.010410559312842935,0.08370605635138148,-0.03153876877650586,-0.015531934359981917,0,0.809568650926687
8454,0.1779134988920122,0.014578964189169171,-0.03784249760577549,0.02885623378648219,-0.138623349073753,0.09868267587514697,0.006050943457540012,0.029077684677491517,-0.03194182767545905,0.010195188956565831,0.023127120532600902,0.008336263837917786,0.019465250995142704,0.007325560265303075,-0.004591867130132432,-0.02377271697915454,0.07124778886677699,-0.02416776260618875,-0.011178670566286224,1,0.7669758659688989
8525,0.16835733364436195,0.01706365149556724,-0.037493848950998436,0.041748049876164525,-0.14967247725535052,0.0861518658973283,-0.01372449956724024,0.02582158214205272,-0.04086385175365868,-0.005655840182138447,0.007200949770641957,-0.003905989309209973,-6.964092396970728e-05,0.015546188461905414,-0.012170988299695226,-0.018458839047376274,0.09241976825006748,-0.03704085207501281,-0.01025858963186342,0,0.7836248065346033
8541,0.16746919280241462,0.028863422633641837,-0.0393293786835235,0.039179022223393034,-0.12375421129566723,0.09241498280134264,0.005348271169988035,0.025519949881579018,-0.017586446531432626,0.021277547502776495,0.01604909243246436,-0.001981258124337136,0.02669145022028802,0.00745515330788892,-0.014372384816550328,-0.0075559193981107,0.09055281038102052,-0.03796449423401782,-0.010998326515877349,1,0.7743633149563142
8546,0.17769661027932862,0.02119302960227736,-0.03550454525271896,0.032412592504898884,-0.1345985595694512,0.07689562145700855,0.0022052321588475715,0.03169819031878823,-0.03436387351868914,0.009242418206425506,0.013966814300534005,-0.009739099117506131,-0.0016773858550027684,0.002289818451713502,-0.025012050742435166,-0.023087182249308,0.08962200978007125,-0.05299449927429026,0.002133263443280739,0,0.7763327960825759
8555,0.17604272936903131,0.005330077809536054,-0.043060337625327696,0.04684807138807958,-0.1387870790578578,0.0972824860207179,0.005929829431858,0.03297852071380808,-0.05531382016293727,0.014911790733044772,0.009456652529859342,-0.012700072766988323,0.02461534169606199,0.019743907750213997,-0.008049835155385984,0.0039092086506478186,0.10017603926243412,-0.029326649348389133,-0.01724580477441278,0,0.841708254246592
8579,0.18173904410342925,0.023644793478339685,-0.04984329313309027,0.04434664114576073,-0.14030854411906957,0.08631522633715234,0.000667809258642573,0.01841156277411744,-0.03477416525081304,0.009402496385196026,0.01620398036777441,-0.0031732003330833466,0.015066613857458768,0.004993036750993262,-0.008269347211190266,0.0027086748127363772,0.09059175677838728,-0.04293094255946987,-0.009012871842178416,0,0.7824040004988829
8673,0.176724195218591,0.01910055172197628,-0.03470311496409319,0.04368571329751508,-0.14403773843345696,0.09101570126013386,-0.005930493776634577,0.023201763310824727,-0.0337524708944546,0.014864332508984073,-0.0014322393847117346,-0.01029003832556914,0.01624585802775373,0.008586217053975696,-0.011814537885959351,-0.01378745411203903,0.08482056621429152,-0.034615587528858426,-0.013930125139177556,1,0.7825386990590005
8718,0.19724849275747453,0.02133149222123494,-0.0329095492959066,0.038126396984924545,-0.13187731929885538,0.10617507644930765,-0.00577042835525441,0.02297762055245116,-0.028770421287631767,0.016909632052192165,0.007828306954433102,-0.011457362317366205,0.009572587489251862,0.011920754813755402,-0.002828700569070111,-0.013828997327350922,0.07888812384792789,-0.04281994768854344,-0.01049109422521891,0,0.791732304488151
8886,2.7008250644599046e-05,1.7305474644110885e-05,-9.12408166924485e-06,1.681033703064956e-05,-1.3414396114700921e-05,-9.926424522570061e-06,2.918737678431123e-05,0.00026538044212988024,-8.253824738830718e-06,4.587570323377271e-06,-1.6498151963108113e-05,3.1907669691699092e-06,-1.2382915249410128e-05,-1.710152133478153e-05,-1.6757302729947165e-05,-1.7963117820115783e-06,1.2241916185266285e-05,1.4664104149515078e-05,9.443175040761256e-06,0,0.0005050743440062458
8901,0.1782154233976552,0.015240022725439202,-0.025820909874973232,0.051432917718275045,-0.1359843786506958,0.09445095482826199,-0.0007116091954037753,0.01656868269029053,-0.0337658596988428,0.013111078548134083,-0.0004557635504577645,-0.00020209992274571387,0.014590097853035824,0.007671166922360761,-0.01986013491361319,-0.0027500483393616717,0.10561456483586662,-0.04645578257832461,-0.00933814017467392,0,0.7722396364184118
9056,0.1758250344338086,0.005712019810172827,-0.03592933851974957,0.04197839843828939,-0.14967725986951452,0.10438741226992317,0.007455602321357539,0.028714860291822485,-0.043350319142992345,0.022020952934503277,0.012058040335339854,-0.009403169823354124,0.022310053695569945,0.018861448609410417,-0.011435342616466506,0.003215315312998251,0.08804985203242476,-0.02481508927402851,-0.01137399019121754,0,0.8165734999229436
9112,0.1906836752265528,0.028329939596259873,-0.03130192221622202,0.05368275777199802,-0.1396203739468512,0.1062154244096951,-0.0031681450551773083,0.021293308312789635,-0.026845548477338894,0.00024622209712440286,0.025990818838716442,-0.008644795486730677,0.011322756055485534,0.0029977060077783814,-0.026389212703565534,-0.005285346948107075,0.10317142391995623,-0.035117157846541576,-0.015097876946795418,0,0.8354044118636861
9175,0.17836591622493725,0.014368289979416303,-0.04294068369219095,0.04576868636352004,-0.14623711734233372,0.08148730785274338,0.0036510822611492562,0.020153721762374663,-0.034127628182876485,0.004172523911367353,0.00750630325963999,-0.005855466215492952,0.016259973756955325,0.014313555794889668,0.00381296858648595,0.0028928274956911233,0.08454110898710111,-0.02870143999514649,-0.005295571516449161,1,0.7404521731807612
9211,0.1825628277600511,0.005603292358245222,-0.03499157296255447,0.055599465056322066,-0.14689305586584164,0.10454319414207687,-0.009725399479419,0.02740573418645436,-0.04344849334401185,0.011564495552139962,-0.0014914174065202145,-0.007866967375338929,0.0033912790470919927,0.007978395269289887,-0.015338840333772526,-0.003121566586632507,0.09117246527158106,-0.03034847070226843,-0.0024372616844786843,0,0.7854841943840908
9269,0.17579372889502085,0.013097471826082044,-0.03671964711167916,0.05343899002121793,-0.14095594818115034,0.10815323932554771,0.009271809691168788,0.03785402096072204,-0.035357718184985364,0.007738029872752953,0.01457930626932339,-0.006858243405212536,0.001681550541420765,-0.0005750995754285707,-0.01639627789462418,0.003974726417789371,0.09008869639538966,-0.03256361839494543,-0.015948937092723287,0,0.8010470600571844
9283,0.18215391487810703,0.027594803724711906,-0.037531032501562714,0.035105879815879995,-0.14359726010168358,0.09737427347853504,-0.009370321981792,0.016045806726555943,-0.035968481383269406,0.010590577056710064,0.010669368538682722,-0.000334930478846091,0.0176705336722035,0.00309452491813897,-0.015972810393918922,0.0012727064481199576,0.08386774870797203,-0.030252815631934313,0.006340656269728866,1,0.764808446708353
9338,0.17789494947392304,0.02012434621560062,-0.039696100576668204,0.03731881547183946,-0.14976219789086664,0.10010934997506639,-0.0012766878947131817,0.00809527493666205,-0.027504026065855953,0.020651836836324232,-0.0043943753574393766,-0.017038503161012943,0.014516775821559866,-0.0037070946309353567,-0.0160577802413121,-0.009715029434745526,0.08825665610075582,-0.03960589429090764,-0.02052366239443641,1,0.7962493567706248
9383,0.14677018002307513,0.016047892348232177,-0.02320034819174728,0.04312474390494451,-0.11395678995161213,0.07828559331418806,0.0011345749494468802,0.02387547959736187,-0.03903162722805542,0.0059049812868889745,5.098712233558922e-05,-0.0001280405363953833,0.016903874367320274,-0.012893707580250983,-0.01292070427878234,0.0016542140341731786,0.07256796920110797,-0.020539932173358703,-0.010752685172714764,1,0.6397443252619917
9427,0.17627260592220262,0.020856346667312155,-0.03428006131913577,0.04525097560110392,-0.14174941170361965,0.0939801234570716,0.006619591557364049,0.022448473171129236,-0.03940194562804209,0.02228406590633049,0.020661875651708423,-0.001972432168209318,0.017292439837680505,-0.0017353053020057645,-0.004074422799299205,-0.013410945585973067,0.09285940013358267,-0.03138560953598967,-0.005139751315661967,0,0.7916757832634221
9428,0.18303931817329794,0.020297929596469613,-0.04217600523842095,0.04139238381796736,-0.14474636298022794,0.09375688625546769,0.002342744839148202,0.01650700163847588,-0.03190222824208939,0.008374140909790306,0.015033131493898918,0.007042914758536626,0.023774177777035436,-0.00020782444854574377,-0.010646566024901062,0.0010202613718995044,0.08689333422399524,-0.03791416905582433,-0.019639611373184557,0,0.7867069922191767
9467,0.1867383152290917,0.018430914733503247,-0.045744991827251086,0.04162530250980215,-0.1487524982669861,0.09569973887313273,-0.0017172764222766845,0.021439832095564937,-0.028614105119195602,0.005525417598498549,0.023264113137220776,-0.01723816354954295,0.004509766737104096,0.010523039227835516,-0.014586560448473881,-0.0058976750578233214,0.08170771786584675,-0.03968091466659198,-0.010107960716529826,0,0.8018043040822719
9486,0.17370383155628083,0.02174904766547913,-0.03281420644633828,0.050599058134399584,-0.14247887752050434,0.0879144444361631,-0.002808969856809622,0.020168739847934453,-0.026811776948677916,0.022297708744997233,0.014040668416139586,-0.009674845154912704,0.021856703147450276,0.004605268348329243,-0.002323773945579539,-0.001071610279858437,0.08855603303521552,-0.03344450596970333,-0.013868216817083532,0,0.7707882862718567
9511,0.1736688628635897,0.02567466462989229,-0.03531997857996418,0.054336512856496724,-0.14755342389857798,0.09903159353942577,0.005259562553373877,0.014461608125017504,-0.040888716112679226,0.02921555262540662,0.025144212088805268,-0.005455063728860316,0.006523288809434323,0.011445663182061838,-0.020364569852176703,-0.008330650013913638,0.07831451122379907,-0.03131123804585056,-0.0066619677743585464,0,0.8189616405036841
9519,0.16645018136634868,0.01392987551668927,-0.03981365687625198,0.06133825545612456,-0.15608085234206054,0.09411939367310469,0.010090901487849349,0.029133011128522707,-0.03480652316596812,0.010350213028082379,0.02424536089819065,-0.011004501048579906,0.008307639805647785,-0.00047536816845423124,-0.004525479163785051,-0.006411887955702075,0.09392463627717121,-0.03762975891666265,-0.020811694454815434,0,0.8234491907300112
9566,0.17353871632262963,0.017549019057698036,-0.04563664634340183,0.04038232797575662,-0.14338545263808908,0.09959445941245412,-0.001286472198955447,0.019814847796968477,-0.03675710239708641,0.006376209385197262,0.01982225047771858,-0.0005883386379466643,0.023324558737739382,0.005827758857337543,-0.015937609332223778,-0.009245478666375843,0.08595713347679032,-0.039477073310262824,-0.012169983648160495,0,0.7966714386727923
9610,0.1768107824201264,0.013565987644928407,-0.019310674868643272,0.04912351862444408,-0.14898401495554522,0.09147606299196533,0.005114954102523507,0.015223072336640248,-0.03521615021677681,0.015437449786820413,0.003085642211129619,-0.0002045736200090594,0.015435277407538861,0.004938770380888038,0.0016258197112238091,-0.004443983652033627,0.09581497439059573,-0.043518092118999464,-0.00042852350754560487,0,0.7397583249483775
9653,0.178174986777245,0.020112690385239877,-0.03034699705849289,0.03935797242781598,-0.13676611572649092,0.08740596112923396,-0.015522961574275136,0.018016412706196448,-0.024213091369255937,0.011912225658642221,0.005088155332161859,-0.003204289088959859,0.012860231868293616,0.015584216424758435,-0.008922305638185909,0.000715400246823267,0.09130591935455246,-0.033132473073803216,-0.014168957875711883,0,0.7468113637161389
9663,0.17717978336360948,0.01328954488898158,-0.028434194124191684,0.05561080344139855,-0.128075030796674,0.09944655331711777,0.0056655911336925486,0.025255969214106742,-0.042941751199535756,0.007542505911931315,-0.00028988563479667316,-0.011261324023917503,0.0036711787520363735,0.012428310845318891,-0.01219510209976129,-0.0005758027359342711,0.09637659975050185,-0.030794100824599324,-0.002927000403778332,0,0.753961032461884
9738,0.17181592801809747,0.015416786258148744,-0.032651757392235435,0.04348111448574087,-0.14574973610170588,0.09664797981667954,-0.0014778141985089164,0.01545388122800081,-0.034937241550703456,0.02188608777067614,0.006227729510654255,-0.014234026830635746,0.027675374939571472,-0.0007994687318583345,-0.0064162574296844225,-0.010058125327149564,0.07380978541077314,-0.04009040355824958,-0.011815784383098172,0,0.7706452829421719
9746,0.18536749151879103,0.011494576828280595,-0.0486179053249439,0.034596989471644746,-0.14429308444456984,0.09575164591843005,0.009642825044820572,0.018381914654310466,-0.037707350652646396,0.003376122928773032,0.0023334670991050415,-0.010839965906372004,0.027181891256207524,0.016206855157268277,-0.00580597943646822,-0.0033795109113250277,0.08806836890068355,-0.036273522735101926,-0.017362309501503644,0,0.7966817776912458
9750,0.181614765946517,0.011668794250345074,-0.040738257273813056,0.04680077701532433,-0.16131391203967554,0.10906591009907649,0.0033788973658106652,0.03243678556473666,-0.02996258842802204,0.022087644693602762,0.010071501197737132,0.008030066792234562,0.017707808660747015,0.004976901929237562,0.0017841854830532827,0.01079382057440196,0.08087034961707938,-0.04322459505943535,-0.00929170331679166,0,0.8258192653076415
9755,0.1841204128953673,0.014335706446523763,-0.036110483688886884,0.039222797053487996,-0.14535622130477371,0.08555197284411081,-0.01128181815067551,0.025520978906415897,-0.025610052074310143,0.006956401991796839,0.007988500584820087,-0.008059916905140047,0.0174972831407222,0.010746700682735215,-0.008493488294449673,0.00760471555579395,0.08974227937841235,-0.028104752759635112,-0.01714985959375859,0,0.7694543422518161
9798,0.18035392879383802,0.01056937919027969,-0.059456811870739625,0.04932761453396308,-0.13821646682609173,0.1070602042019017,0.002400205803135809,0.02141537529270249,-0.044306967053187915,0.011973154967826742,0.0008481155982786334,-0.013305463971052638,0.005603906940061731,-0.0005188045204485386,-0.017315318337078604,-0.005312980446997708,0.08501530452028636,-0.01738057140932667,-0.011108482293321866,0,0.7814890565705196
9902,0.17161623547746713,0.015711375128066748,-0.03583237761158869,0.03903458673083134,-0.14843352607223811,0.09309384585953702,0.003602320019392703,0.026038908010103896,-0.025579992404993087,0.00321600216114993,-0.0028891670384223116,-0.009203557561117362,0.012201863033818155,0.003631639347526636,-0.017644379333978184,-0.005313534465923299,0.08317864895657212,-0.0412966207454155,-0.016338230861547325,0,0.7538568108196896
9937,0.18455942172827786,0.03132467310093331,-0.03239116189664465,0.05176946243001516,-0.1428825846705896,0.09681171125602987,0.009886816659284408,0.03525660363074514,-0.03859258395180515,0.023951672536678334,0.014784162958045117,-0.0010715351055679725,0.008332722156901748,0.009437372724468122,0.008698181331841033,0.0004816548923027138,0.10532122054910359,-0.03213716899373437,-0.014152877184722563,1,0.8418435877576907
10018,0.17713496517882038,0.02356780908515574,-0.02828775784375618,0.04350602087514668,-0.13993270723091916,0.08856255777396664,-0.004198508055300119,0.02441826642926228,-0.04195493263053295,0.015329634309068198,0.018051411430777972,-0.015030127012912039,0.013342577795382912,0.015844108845452697,-0.005545067550544591,-0.005291055076972685,0.09396950510325841,-0.040931573606464065,-0.0224311058914991,0,0.8173296917251928
10051,0.18059544245574122,0.009566036398036834,-0.034479471645701754,0.0487503460920253,-0.1436698699977814,0.10671140267132612,0.005637005438246302,0.030294935069265384,-0.03702518318506104,0.006495086759150058,0.010500036700175498,0.0004221465107693,0.014533451372013697,0.018582625171235566,-0.016344794147300758,-0.006785639201679176,0.09340830526514034,-0.0288278693549231,-0.006930932752463,0,0.7995605801880358
10157,0.18371850774497792,0.026520533232910166,-0.04053272701531012,0.05375742816135775,-0.1425588810966637,0.09154384415465416,0.0036341778118957713,0.024501185931013577,-0.03496849440011004,0.01216031510243755,0.019806529391312337,-0.005763043302312706,0.023213368442231482,0.004840567777267767,-0.011703960817930726,-0.010548696344305242,0.0932176148954608,-0.03170360953117754,-0.012163548893946125,0,0.8268570340472755
10187,0.17456966292642895,0.022227217262487456,-0.037912864531392955,0.03851667424525413,-0.14495638739997962,0.09694053164325828,0.0070790273613374425,0.007180637926424705,-0.02344395637505066,0.014222347645208045,0.019319024236899004,-8.82581260286344e-06,0.01483728684053229,0.021161464716048663,-0.006635188491418538,-0.008431314435020237,0.09307905294318415,-0.025887968346142702,-0.011453841004019407,0,0.7678632741426901
10292,0.18842012191108914,0.02076033477013566,-0.027252330770046265,0.03385863823185219,-0.14362345164061302,0.09609514212723348,-0.011722195058622311,0.03148925496191587,-0.028060411686772042,0.018461338269475068,0.014477020012179683,-0.007680141753156529,0.005897733932267129,0.007889142131795876,-0.006723174018013321,-0.005833975789521611,0.08480520668268396,-0.03285019557519641,-0.014998555606622239,1,0.7808983649291918
10342,0.18232470370144427,0.023600068783830416,-0.04274404357686702,0.03330616247239952,-0.13958695680488717,0.09777485627765584,-0.004724263220591384,0.019609767288760516,-0.026692603518196467,0.0181158600751078,0.00423212715490617,0.004554647853382595,0.0045818254735705815,0.016809538860287864,-0.008815181004622967,0.005297550457044894,0.08699763900950949,-0.028538255493918818,-0.020323775941028986,1,0.7686298269680127
10349,0.16992904105942505,0.013694511779316302,-0.033531770826038636,0.05053253693498019,-0.14094332965150183,0.08492865149302546,0.0015470795147975182,0.009997964499594399,-0.024916311642228538,0.013408325507254846,0.013803069870033468,0.001325964119448057,0.005515151598140092,0.008586872121665713,-0.007897028816961372,-0.006051168160879163,0.0709884794976297,-0.03792030009157878,-0.003969985785640961,0,0.69948754297014
10496,0.16649574887763685,0.014799831293644457,-0.020168131512893848,0.05071304952425882,-0.13066915974752852,0.09189316916473612,-0.0015566610508960998,0.018106016958612834,-0.03910587628988503,-0.002166774389225317,0.012651608970630645,-0.004658561437927718,0.008625653019364512,0.002036994776122586,-0.0062909897985768135,-0.011786612518349645,0.08258369724158082,-0.025244716696910932,-0.01596305172798749,0,0.7055163049967691
10549,0.17859789343046575,0.020178528177822917,-0.02235433056276567,0.04597284544196111,-0.14452873302669153,0.08406876154069884,0.008230969632853741,0.020180979453817895,-0.03308320018647682,0.021439265803469824,0.016467680127435155,-0.007082936248808694,0.011109104675277837,0.014023939461420037,0.004156437951244119,-0.009976925886483065,0.08501611374275843,-0.030536947232288485,-0.019311711098768943,0,0.7763173036815089
10570,0.17303148759952947,0.020445856371816812,-0.0240950041682122,0.02456096492795783,-0.13357053425730475,0.09196113744652049,0.00647610085280999,0.03353161679315622,-0.033862265286353936,0.01572200122514777,0.022349839096762785,0.005087440377660729,0.017730577690268482,0.009123968540639026,-0.00835283354671282,-0.0020309696669611288,0.07848579214520608,-0.04434496238855214,-0.01850042820939397,0,0.7632637805909667
10577,0.16901494445251186,0.020925957968111364,-0.03193827808684138,0.03867073637009285,-0.1482866642977589,0.1069703628398008,-0.00482043550781183,0.02753719957909365,-0.025612679648767716,0.01377522932575643,0.022461215414774912,-0.011024843031546869,0.005359945651936885,0.00015591083828724506,-0.004697605649695188,-0.01602435091378408,0.08383411520446142,-0.034482799090272666,-0.007134336497744797,0,0.7727276103690509
10583,0.17139398373555087,0.02902801118838727,-0.030835957597761806,0.029051585319121796,-0.146875108281846,0.09432342034697945,-0.009185838906018049,0.025534835709599565,-0.034020595583686836,0.012270552608603056,0.017351598420904397,0.004539134826900963,0.01250347104052903,0.0034968342085907366,-0.006993313434148403,-0.003694233391099415,0.09867865427291722,-0.0354770517494334,0.0032282733986936487,0,0.7684824540207719
10615,0.16117554409742496,0.01030331807643735,-0.025473939905193005,0.04586929100235216,-0.15625325807682344,0.07910427457556242,-0.0001988555905795734,0.02526121939873251,-0.034169622121320825,0.008261633070075413,0.014665671142402166,-0.0035128451189352042,0.021536536140307982,0.0029254016019649824,-0.01369912598248719,-0.011194533236463222,0.08961202233668311,-0.03386667622448737,-0.017690850593960535,0,0.7547746182921934
10774,0.18590160012702617,0.019112576601530092,-0.022329922871774533,0.04941816834905165,-0.1435271899671658,0.09092166967604397,-0.00194947853538278,0.01778776316592555,-0.027696279693881203,0.009908725460475859,0.02295368349710425,-0.0201383295803359,0.01931939081059847,0.010922783375135602,0.0012529585941457749,-0.017338816808258734,0.07996152995320095,-0.03992318132833498,-0.01115833772143964,0,0.7915223861168119
10868,0.17624569076620117,0.020076844536700805,-0.0337179069048005,0.049429440042119466,-0.1481733507673539,0.10071267373157296,0.013821680089242934,0.02341339088372275,-0.040097013991440215,0.010547093614807082,0.030488046268049452,0.0017435088316522004,0.013003459573405533,0.016044993833223754,0.003720691008309204,-0.007060728880772642,0.09336027079039909,-0.0413206094979058,-0.02323758785784122,0,0.8462149818695207
10954,0.18145280857207566,0.004631524877959582,-0.027692991051531116,0.0561143670103612,-0.1481254368807771,0.10691436062459475,-0.0018795989782038275,0.03186435364858529,-0.03167086025546366,0.02633339358505743,0.013870769357234861,-0.010256372831527347,0.020569474379357987,0.009944930942602351,-0.0012514889507061783,-0.016992069663458488,0.07338782748605843,-0.029587645120432854,-0.015005052209241882,0,0.80754532642523
10958,0.17491805066436591,0.010011484940459158,-0.040463544305292566,0.046355024927361835,-0.14326909297564874,0.1100602290691067,0.009526902693587129,0.03321532632355886,-0.036053041568222886,0.016630579231761547,0.018996044687137913,-0.0048940741828927105,0.021266201414214685,-0.0007860549901472983,-0.015093141399074396,-0.0013414194229723199,0.0857433564289849,-0.0325097620437141,-0.012738338092791226,0,0.8138716693612948
10959,0.16278622480385724,0.013421649346930607,-0.02240449853285368,0.0405037464125513,-0.14560593123434393,0.0905654389950926,-0.011779389127487674,0.0415338688416676,-0.025160737524101945,0.01161569887108073,0.00971104079298385,-0.009800086991819936,0.002413868954768697,0.021467636906857993,-0.00876850731059562,-0.001650691837015881,0.09065114760831455,-0.04218845112136602,-0.011790713217913435,1,0.7638193284316033
11013,0.181797195850348,0.028068811069033462,-0.038666023609135285,0.036777653704351855,-0.13015057499647167,0.08494130648945712,-0.009554970827527601,0.023436689349685638,-0.03268017514762419,0.013277820405680063,0.006749225115416936,0.007093876967676951,0.010516656483535761,0.00015811105844563083,-0.011516312362541097,0.004770252457832719,0.08879714493565471,-0.029516037816967818,-0.006928170612265342,0,0.7453970092596519
11066,0.1727787026973455,0.028099687802935053,-0.02599078054149693,0.04235147109028744,-0.13492669844177474,0.08565851460274417,0.0019745194570419066,0.01982309681444426,-0.03849052574017623,0.010406420897977352,0.01293141629428924,-0.0008176446815444134,0.019969168200833765,-0.006815607647539598,-0.013050042082248853,0.0048343274758868345,0.08260771155678487,-0.031080752496696337,-0.029332637283454546,0,0.7619397258055021
11117,0.18137008663918874,0.021478258435739514,-0.03435666650948427,0.05438300344364962,-0.12465369839266725,0.09122897165297804,0.0004427335004275926,0.0175967527897556,-0.03920043357877366,0.00784303653298515,0.012498497085656049,-0.005736438639132497,0.012948002378052482,-0.0022424869535857712,-0.017088180043901096,-0.015559032497535949,0.08664705468619768,-0.051381501547638445,-0.00696418595343861,0,0.783619021260788
11136,0.18581270570666983,0.022357668798899773,-0.032494408471944784,0.047186793667351346,-0.1306840589941044,0.09927788504539777,0.0008137884125541808,0.028596963788986525,-0.03242697709777509,0.01054072879756315,0.014813744908467878,0.004247786761933995,-0.0018394394302667055,0.013761719319200645,-0.008113784038648082,0.0029356110129069553,0.08353321740847021,-0.0255877194858279,-0.015494794791676446,1,0.7605197959386457
11141,0.1819973719092048,0.008900004949491573,-0.035531516315719706,0.051007338355356875,-0.14295182860938915,0.10331818454768128,0.002881991075601309,0.025294958027625554,-0.038213047929632676,0.011742546400319053,0.032996021219063205,-0.004642953765220062,0.02477321403512781,0.012285706335803429,-0.0006213739604627265,-0.007816489423936286,0.09019280458849002,-0.03365564847554274,-0.007700149321617987,0,0.8165231492452862
11162,0.18278156916063057,0.02183201412181988,-0.0395814136097393,0.042424429308907025,-0.1313719058518104,0.09383544943979431,0.003062057138888659,0.010562031598535896,-0.03436106501951564,0.007235863156665477,0.013289024163815647,-0.0043705278352863365,0.010844005570208098,0.024511025257144523,-0.00029613716324666475,-0.019844696712775712,0.08377290202998175,-0.029155723991857178,-0.01650403379227766,0,0.7696358749229008
11166,0.1776930909039989,0.020943152653632523,-0.03510480458837704,0.04762891503957932,-0.1495416711387221,0.09652481765883698,-0.007448893059427083,0.03139994306578786,-0.03138144600843569,0.009537556871524298,0.021106456623423316,-0.008912277361407341,0.009730141553871145,0.0017673645597957308,0.0006295058123260025,-0.024847034136827803,0.07630453966989187,-0.031212453370106905,-0.0095125280139938,1,0.7912265920899657
11175,0.1809656403792526,0.013155307065627887,-0.03733071986497375,0.042287273931176164,-0.1345578936673573,0.10130105247874033,0.0039047566946171725,0.030238336958636147,-0.03058515297486343,0.017500158670074664,0.02826870107618932,0.002373104110191472,0.016649873494418512,0.007695951011367602,-0.024518145012813037,-0.013745101130623355,0.08581788672888187,-0.03383928520957807,-0.0165202598750182,0,0.8212546003344009
11185,0.18465970322005223,0.019028111239731534,-0.02773626074644956,0.039577402489261664,-0.15599388526716831,0.10014432359021351,-0.00019610412342330899,0.025240944247278206,-0.03183503845520762,0.015116419374322078,0.0164416999467979,-0.012169304738866833,0.014515150747017496,0.005335471429512262,-0.00894186493076001,0.0023630101849842437,0.08231450314382947,-0.042197732141859304,-0.017397202478704497,0,0.8012041324954401
11218,0.17290367497845766,0.013272338577971747,-0.02738781645581779,0.03475762954098019,-0.1353421954516922,0.10836876569155372,0.0005307294600475435,0.029611003152114988,-0.030839558931799002,0.003385581613520321,0.003564297666092078,-0.003362282383609782,0.0278643492924648,-0.007951192274996103,-0.0036990481351285736,-0.00330463221364148,0.09403799172648705,-0.029064629686453847,-0.01093782864640819,0,0.740185545879237
11276,0.17890993256086743,0.01290935057095812,-0.024239573287265257,0.049063657303171845,-0.1474840533770226,0.09987990911107113,0.008052253190804905,0.016541382134179647,-0.02261300013197904,0.012538854406221584,0.0179915701534983,0.0018736760050941806,0.01142168859914217,0.004503423059678171,-0.015909143251910788,0.0020167041025413745,0.0932793324822359,-0.02824338950617387,-0.006335927916945316,0,0.7538068211507616
11293,0.1917485036336553,0.01700735212959764,-0.04352835955488486,0.05000557866280205,-0.14370053285575268,0.08395752151751926,0.0010634742456480891,0.01937767414896512,-0.030865439613025885,0.024226366669545193,0.01410785647146744,-0.016373880793656818,0.02279989901642464,-5.139087960929077e-05,-0.023388193345290777,-0.00630180645522717,0.08547319892322879,-0.03140302836617481,-0.012979886645295886,0,0.8183599439277717
11294,0.18682991688241907,0.014559253277313182,-0.039164330499100924,0.04363254731657049,-0.1417330423561121,0.0932957255985842,0.007429687787698203,0.01247479231451009,-0.02889282492097923,0.02225316543107844,0.007937739532888913,-0.014614004392834406,0.022268012804451256,0.008485362097832795,-0.009058323887212588,0.004814969617322599,0.07411819914261698,-0.024447256538605962,-0.009237991023734361,0,0.7652471454218658
11394,0.17088714358215873,0.008005131185277863,-0.0305465252499898,0.047215942995071966,-0.14296939868611855,0.09121063849092564,0.012281569544973555,0.017894950057740347,-0.025003773012371982,0.011798581617745533,0.009911890161310196,0.0038221689262076947,0.017615957972322193,0.016316094956538362,-0.008786524730295819,-0.0038987326682474806,0.10228610126206646,-0.03528202090281222,-0.005455906497208456,0,0.7611890524993828
11403,0.17508386588618746,0.016332430244194503,-0.032644223424268044,0.04346594554192925,-0.12588637188584648,0.08782536917773663,0.0061452861032700035,0.018632742206434436,-0.021371260080521325,0.00404364000180145,0.023571691938327515,-0.0018344423746867672,0.018080756654663785,0.007916979207867554,-0.013852209636761785,-0.02018301013679035,0.09176547291416594,-0.03835078395464825,-0.00732731198928473,0,0.7543137933593863
11502,0.16379830129167575,0.020667647891695538,-0.03252275012699329,0.035439494925594034,-0.13035396884782613,0.08497835720488378,0.009631164529995736,0.022007645379304327,-0.033013671669091006,0.0012315708235458476,0.010451733987129161,-0.006974812095144341,0.006601301463797622,0.006579062755590996,0.004703583077287842,-0.01677507027986413,0.08021589135446658,-0.01778428189140347,-0.008244059460651315,0,0.6919743690559409
11508,0.1835049793029607,0.01856668153220724,-0.030537787355472756,0.0431104499036262,-0.1550446228212784,0.10033366877019582,0.0011116238764854105,0.010578738644613913,-0.019777245812006933,0.013430023186249454,0.01795817877217588,-0.00010560431488410773,0.007768720809005221,0.014198907543775738,-0.02053506498126083,-0.01990802799189626,0.0785527334772694,-0.032012425835837625,-0.008030336591202777,0,0.7750658215224047
11512,0.16365593296750724,0.007998317223818583,-0.021170213947134562,0.037203089783196475,-0.1309623901575184,0.08639072861630309,0.0006512464760314961,0.011679053496385343,-0.02627240121806835,0.01201440601989608,0.0005385061052279135,0.00702217162858289,0.017496338517096838,0.010629384492733405,0.0014062708688504673,0.00021096102876643668,0.0729447514823048,-0.031873252374121065,-0.0052352237171416115,0,0.645354640120685
11513,0.1697155487665343,0.009712492816511112,-0.033691160369328975,0.03230364293281295,-0.1374700532309396,0.09753527195081357,-0.0005359498946751116,0.018766022754916872,-0.037674353811344805,0.009074747977517474,0.013474235869088677,-0.01170436859670348,0.019832632962907878,0.010124416085653228,-0.021992645031457626,-0.004748717012287145,0.08036191225353446,-0.0334246088337076,-0.022038057885813752,0,0.7641808390365487
11526,0.18162598102280642,0.02667031956168875,-0.041590153256013174,0.05255094754169086,-0.14098428567244528,0.10668840053004983,-0.0012753904657277308,0.02934420095578104,-0.028241871623197815,0.0023931237866765174,0.01364674788431881,-0.01641349353984724,0.007919505230127773,0.0021404278259907253,-0.010997011188759965,-0.014388046523239611,0.08998880382704108,-0.04410256191287441,-0.009658803252281495,0,0.8206200756005585
11716,0.18273033493706226,0.02047669360972987,-0.022297172306902292,0.04765804997330381,-0.14951351130882184,0.08967064364081714,0.00339728597888437,0.006653392858934487,-0.03881351076624951,0.01588783170095141,0.0164302342505984,0.003148397796603991,0.01189391637607866,0.020020718015886882,-0.0017060139208211805,-0.01614713475685773,0.09538170204470146,-0.04195856215310074,-0.015907482112816687,0,0.7996925885091227
11781,0.1782819055654673,0.00895747373325788,-0.039752038112036515,0.04614069599637909,-0.13049074590313248,0.09541885011347281,0.006793216665190116,0.02775979326211373,-0.024579010909099943,0.003346468038545256,0.009372204160106049,-0.01820095356010235,0.010530974123522507,0.00545580622932301,-0.0015718005162394398,-0.006455113835233559,0.088415589351251,-0.028588366176877163,-0.02272172361410829,0,0.7528327298654585
11860,0.1743015781250696,0.023106961116841324,-0.0437614501875561,0.04061273958286809,-0.13979311805153133,0.0996929059132828,-0.007747704744014556,0.012263835872784018,-0.03405181015111862,0.02610349721045554,0.020639299949706702,-0.006166066967491774,0.011050595300164074,0.010395010565806313,-0.005358863297403598,-0.009687846264793914,0.08277670405076358,-0.03599722221362059,-0.017072878612346437,0,0.8005800881776189
11942,0.18023714203085528,0.006880372119483323,-0.03274584166958088,0.038377914223451874,-0.15023798661422796,0.09428794212763388,0.0060436561869701535,0.02185112130751209,-0.0223977713848409,0.009227870088186985,0.015490148804762831,0.0009455692764731407,0.023680536970301633,0.014424989661483537,-0.007897527587413446,-0.011736854059088172,0.09136700706196385,-0.03423604636889067,-0.005337316841015329,0,0.767403614384136
11964,0.17946110554415717,0.028485903275359555,-0.036847672097528136,0.045878759651034044,-0.1287784993032825,0.09804718896953377,-0.0022722095230195845,0.01943030216633068,-0.0339637111900237,0.01399677978582863,0.004891648651987167,-0.00821586410983202,0.013508472128959588,0.009093377231862985,-0.010121792081198127,-0.014036722565476379,0.08632514467132009,-0.034456254981318775,-0.007841957194305875,0,0.7756533651223588
