{"learner":{"attributes":{},"feature_names":["MinTemp","MaxTemp","Rainfall","WindGustSpeed","WindSpeed9am","WindSpeed3pm","Humidity9am","Humidity3pm","Pressure9am","Pressure3pm","Temp9am","Temp3pm","RainToday","WindGustDir_sin","WindGustDir_cos","WindDir9am_sin","WindDir9am_cos","WindDir3pm_sin","WindDir3pm_cos"],"feature_types":[],"gradient_booster":{"model":{"cats":{"enc":[],"feature_segments":[],"sorted_idx":[]},"gbtree_model_param":{"num_parallel_tree":"1","num_trees":"48"},"iteration_indptr":[0,1,2,3,4,5,6,7,8,9,10,11,12,13,14,15,16,17,18,19,20,21,22,23,24,25,26,27,28,29,30,31,32,33,34,35,36,37,38,39,40,41,42,43,44,45,46,47,48],"tree_info":[0,0,0,0,0,0,0,0,0,0,0,0,0,0,0,0,0,0,0,0,0,0,0,0,0,0,0,0,0,0,0,0,0,0,0,0,0,0,0,0,0,0,0,0,0,0,0,0],"trees":[{"base_weights":[1.4903588E-2,-8.006154E-1,1.4309485E0,-1.0661751E0,2.6144934E-1,8.428037E-1,1.9387212E0,-1.4223487E0,-4.2542288E-1,-3.1551328E-1,1.21332E0,9.396286E-1,-7.4653715E-2,1.9794364E0,1.0354081E0,-1.5220802E0,-1.7782606E-1,-1.1808221E0,-5.9784833E-2,6.8407506E-1,-7.1285903E-1,-7.4581146E-2,1.4563669E0,1.332679E0,4.6217188E-1,2.0019827E0,2.7195211E-2,1.0653959E-4,8.5174344E-2,-1.6518544E0,-1.1729629E0,-9.028008E-1,1.4991677E0,4.9713813E-2,-1.293932E0,1.4336911E0,-1.9198874E-1,-9.6502393E-1,1.7923834E0,-1.4204212E0,5.381481E-1,1.8577499E0,2.9102322E-1,1.4764785E0,2.7711447E-3,7.0892364E-1,-6.4939356E-1,1.578846E0,2.0438993E0,1.1575982E-2,-6.718933E-2,-6.832246E-2,-1.1166151E-2,1.1592657E-2,-7.4694596E-2,2.7195211E-2,8.5174344E-2,-3.0674469E-2,-7.473907E-2,1.1575982E-2,8.523292E-2,2.5250303E-2,-1.9366957E-2,-7.466362E-2,4.9713813E-2,8.5279845E-2,2.7195211E-2,-4.549875E-3,-7.473907E-2,5.462642E-2,-7.4641615E-2,1.1575982E-2,8.213665E-2,-7.4641615E-2,8.523292E-2,6.604604E-2,3.3822358E-2,-7.462648E-2,8.5174344E-2,-6.676712E-3,4.4581167E-2,6.528562E-2,-7.469005E-2,8.5279845E-2,2.7234498E-2,8.2951955E-2,6.1953675E-2],"categories":[],"categories_nodes":[],"categories_segments":[],"categories_sizes":[],"default_left":[0,0,0,0,0,0,0,0,0,0,0,0,0,0,0,0,0,0,0,0,0,0,0,0,0,0,0,0,0,0,0,0,0,0,0,0,0,0,0,0,0,0,0,0,0,0,0,0,0,0,0,0,0,0,0,0,0,0,0,0,0,0,0,0,0,0,0,0,0,0,0,0,0,0,0,0,0,0,0,0,0,0,0,0,0,0,0],"id":0,"left_children":[1,3,5,7,9,11,13,15,17,19,21,23,-1,25,27,29,31,33,35,37,39,-1,41,43,45,47,-1,-1,-1,49,51,53,55,-1,57,59,61,63,65,67,69,71,73,75,77,79,81,83,85,-1,-1,-1,-1,-1,-1,-1,-1,-1,-1,-1,-1,-1,-1,-1,-1,-1,-1,-1,-1,-1,-1,-1,-1,-1,-1,-1,-1,-1,-1,-1,-1,-1,-1,-1,-1,-1,-1],"loss_changes":[4.935986E2,7.649806E1,4.6642273E1,4.9514816E1,2.979797E1,1.9040058E1,3.074829E0,1.730719E1,2.1411652E1,1.3419356E1,1.5360704E1,1.3113266E1,0E0,2.3398743E0,4.1216273E0,5.8416443E0,1.2588183E1,6.9502487E0,1.0315477E1,1.7571539E1,2.1401863E1,0E0,8.876438E0,7.329979E0,8.658649E0,1.3858032E0,0E0,0E0,0E0,6.228821E0,1.6914093E1,8.384737E0,1.6225848E0,0E0,7.3586655E0,3.4212103E0,1.1649574E1,7.776352E0,2.2112617E0,9.175491E0,1.7544308E1,4.4940453E0,1.9475033E1,3.9195557E0,1.4999823E1,9.276671E0,1.6078611E1,3.5715103E0,1.3049011E0,0E0,0E0,0E0,0E0,0E0,0E0,0E0,0E0,0E0,0E0,0E0,0E0,0E0,0E0,0E0,0E0,0E0,0E0,0E0,0E0,0E0,0E0,0E0,0E0,0E0,0E0,0E0,0E0,0E0,0E0,0E0,0E0,0E0,0E0,0E0,0E0,0E0,0E0],"parents":[2147483647,0,0,1,1,2,2,3,3,4,4,5,5,6,6,7,7,8,8,9,9,10,10,11,11,13,13,14,14,15,15,16,16,17,17,18,18,19,19,20,20,22,22,23,23,24,24,25,25,29,29,30,30,31,31,32,32,34,34,35,35,36,36,37,37,38,38,39,39,40,40,41,41,42,42,43,43,44,44,45,45,46,46,47,47,48,48],"right_children":[2,4,6,8,10,12,14,16,18,20,22,24,-1,26,28,30,32,34,36,38,40,-1,42,44,46,48,-1,-1,-1,50,52,54,56,-1,58,60,62,64,66,68,70,72,74,76,78,80,82,84,86,-1,-1,-1,-1,-1,-1,-1,-1,-1,-1,-1,-1,-1,-1,-1,-1,-1,-1,-1,-1,-1,-1,-1,-1,-1,-1,-1,-1,-1,-1,-1,-1,-1,-1,-1,-1,-1,-1],"split_conditions":[6.4E1,1.7E1,7.8E1,5.1E1,4.3E1,1.0309E3,2.19E1,6.7E1,2.8E1,1.0083E3,-9.238795E-1,7.0710677E-1,-7.4653715E-2,1.0286E3,4.1E1,2.7E1,4.5E1,6.2E0,-9.238795E-1,1.0107E3,5.7E1,-7.4581146E-2,2.6E1,2.01E1,1.71E1,6E0,2.7195211E-2,1.0653959E-4,8.5174344E-2,1.0021E3,4E1,-9.238795E-1,6.9E1,4.9713813E-2,3.8268343E-1,1.47E1,-7.0710677E-1,2.8E0,3.39E1,-3.8268343E-1,7E0,3.7E1,3.92E1,3.8268343E-1,2.29E1,1.21E1,1.0108E3,1.0205E3,2.19E1,1.1575982E-2,-6.718933E-2,-6.832246E-2,-1.1166151E-2,1.1592657E-2,-7.4694596E-2,2.7195211E-2,8.5174344E-2,-3.0674469E-2,-7.473907E-2,1.1575982E-2,8.523292E-2,2.5250303E-2,-1.9366957E-2,-7.466362E-2,4.9713813E-2,8.5279845E-2,2.7195211E-2,-4.549875E-3,-7.473907E-2,5.462642E-2,-7.4641615E-2,1.1575982E-2,8.213665E-2,-7.4641615E-2,8.523292E-2,6.604604E-2,3.3822358E-2,-7.462648E-2,8.5174344E-2,-6.676712E-3,4.4581167E-2,6.528562E-2,-7.469005E-2,8.5279845E-2,2.7234498E-2,8.2951955E-2,6.1953675E-2],"split_indices":[7,0,7,7,3,8,10,3,3,9,17,17,0,9,3,11,7,10,15,8,7,0,5,10,0,5,0,0,0,9,7,13,3,0,13,10,14,2,11,15,4,7,11,14,10,0,9,8,11,0,0,0,0,0,0,0,0,0,0,0,0,0,0,0,0,0,0,0,0,0,0,0,0,0,0,0,0,0,0,0,0,0,0,0,0,0,0],"split_type":[0,0,0,0,0,0,0,0,0,0,0,0,0,0,0,0,0,0,0,0,0,0,0,0,0,0,0,0,0,0,0,0,0,0,0,0,0,0,0,0,0,0,0,0,0,0,0,0,0,0,0,0,0,0,0,0,0,0,0,0,0,0,0,0,0,0,0,0,0,0,0,0,0,0,0,0,0,0,0,0,0,0,0,0,0,0,0],"sum_hessian":[4.2742078E2,2.712218E2,1.5619897E2,2.1697058E2,5.4251225E1,7.237641E1,8.382256E1,1.3945003E2,7.752056E1,3.377869E1,2.0472534E1,6.9887344E1,2.4890687E0,8.020305E1,3.6195114E0,1.2910312E2,1.0346905E1,2.5281319E1,5.2239246E1,9.607092E0,2.4171598E1,1.4934413E0,1.8979092E1,3.832809E1,3.1559252E1,7.8830605E1,1.3724418E0,1.8702555E0,1.7492559E0,9.410752E1,3.4995594E1,7.2252073E0,3.1216977E0,1.1235348E0,2.4157784E1,4.2452326E0,4.7994015E1,3.8615105E0,5.7455816E0,1.5439135E1,8.732464E0,1.41150465E1,4.8640456E0,3.458758E1,3.740511E0,2.5827486E1,5.7317657E0,7.118023E0,7.1712585E1,1.6213486E0,9.2486176E1,2.1782806E1,1.3212788E1,3.2426972E0,3.98251E0,1.3724418E0,1.7492559E0,1.2708066E1,1.1449717E1,1.6213486E0,2.6238837E0,1.2600883E1,3.539313E1,2.7379756E0,1.1235348E0,4.37314E0,1.3724418E0,3.9894178E0,1.1449717E1,6.492302E0,2.240162E0,1.6213486E0,1.2493698E1,2.240162E0,2.6238837E0,2.6850744E1,7.7368364E0,1.991255E0,1.7492559E0,8.227742E0,1.7599743E1,1.9981627E0,3.7336032E0,4.37314E0,2.7448835E0,6.659272E1,5.11986E0],"tree_param":{"num_deleted":"0","num_feature":"19","num_nodes":"87","size_leaf_vector":"1"}},{"base_weights":[3.1953003E-2,-7.2447354E-1,1.546636E0,-1.2259215E0,1.5409131E-2,1.0362941E0,1.8632771E0,-5.569122E-1,-1.4755056E0,2.1309742E-1,-9.8133916E-1,1.1524647E0,-7.284601E-2,1.7300072E0,8.192209E-2,5.543399E-1,-1.0289421E0,-1.7432085E0,-9.252828E-1,2.824649E-1,-7.490552E-2,-7.3265664E-2,9.899449E-2,1.2226497E0,-7.482199E-2,1.7934405E0,-2.013573E-3,-9.6346575E-1,1.1531171E0,-1.3566973E0,7.690151E-1,-1.7814691E0,-1.0506076E0,-1.1204731E0,1.7679186E0,1.1104814E-1,1.1569548E0,-7.490119E-2,9.8514307E-1,1.0297956E0,1.9003896E0,3.4866404E-2,1.8392233E0,5.2667793E-2,-7.2663195E-2,-1.477572E-2,6.388728E-2,-6.69624E-2,-8.480027E-3,6.929299E-2,-1.6352773E-2,-4.9978912E-2,-7.265856E-2,-7.240244E-2,1.44153545E-2,-5.775503E-2,-1.36641925E-2,8.494608E-2,4.775073E-2,7.6367985E-3,-7.361812E-2,6.0895234E-2,-7.482159E-2,-1.5030084E-2,7.347795E-2,-1.0856731E-2,4.6903703E-2,8.242651E-2,2.4490207E-2,5.599252E-2,7.628349E-2],"categories":[],"categories_nodes":[],"categories_segments":[],"categories_sizes":[],"default_left":[0,0,0,0,0,0,0,0,0,0,0,0,0,0,0,0,0,0,0,0,0,0,0,0,0,0,0,0,0,0,0,0,0,0,0,0,0,0,0,0,0,0,0,0,0,0,0,0,0,0,0,0,0,0,0,0,0,0,0,0,0,0,0,0,0,0,0,0,0,0,0],"id":1,"left_children":[1,3,5,7,9,11,13,15,17,19,21,23,-1,25,-1,27,29,31,33,35,-1,-1,37,39,-1,41,-1,43,45,47,49,51,53,55,57,59,61,-1,63,65,67,-1,69,-1,-1,-1,-1,-1,-1,-1,-1,-1,-1,-1,-1,-1,-1,-1,-1,-1,-1,-1,-1,-1,-1,-1,-1,-1,-1,-1,-1],"loss_changes":[5.1436487E2,1.1108537E2,2.4154755E1,2.9794739E1,2.3833641E1,1.9058838E1,2.3512268E0,2.5439445E1,1.9137543E1,1.4653366E1,1.8536684E1,1.1709885E1,0E0,6.1591187E0,0E0,1.3145317E1,2.0061947E1,2.3092957E0,2.237262E1,1.46448345E1,0E0,0E0,1.5537304E1,7.0222626E0,0E0,2.2075958E0,0E0,8.04854E0,7.1133595E0,1.0653297E1,6.0070047E0,1.8122253E0,4.9645257E0,1.0138763E1,5.8581066E-1,1.289085E1,1.8036835E1,0E0,7.161905E0,8.02438E0,2.5654488E0,0E0,1.6202545E0,0E0,0E0,0E0,0E0,0E0,0E0,0E0,0E0,0E0,0E0,0E0,0E0,0E0,0E0,0E0,0E0,0E0,0E0,0E0,0E0,0E0,0E0,0E0,0E0,0E0,0E0,0E0,0E0],"parents":[2147483647,0,0,1,1,2,2,3,3,4,4,5,5,6,6,7,7,8,8,9,9,10,10,11,11,13,13,15,15,16,16,17,17,18,18,19,19,22,22,23,23,25,25,27,27,28,28,29,29,30,30,31,31,32,32,33,33,34,34,35,35,36,36,38,38,39,39,40,40,42,42],"right_children":[2,4,6,8,10,12,14,16,18,20,22,24,-1,26,-1,28,30,32,34,36,-1,-1,38,40,-1,42,-1,44,46,48,50,52,54,56,58,60,62,-1,64,66,68,-1,70,-1,-1,-1,-1,-1,-1,-1,-1,-1,-1,-1,-1,-1,-1,-1,-1,-1,-1,-1,-1,-1,-1,-1,-1,-1,-1,-1,-1],"split_conditions":[6.7E1,5.2E1,7.8E1,1.0093E3,1.0252E3,1.0302E3,3.3E1,1.7E1,7.9E1,2.6E1,2.8E1,9.238795E-1,-7.284601E-2,2.24E1,8.192209E-2,3.5E1,7.0710677E-1,5.7E1,5.6E1,4.4E1,-7.490552E-2,-7.3265664E-2,7.9E1,4.1E1,-7.482199E-2,7.9E1,-2.013573E-3,1.68E1,-1.8369701E-16,7E1,4E0,1.0102E3,4.1E1,3.5E1,6.7E1,2.36E1,1.9E1,-7.490119E-2,6.2E1,-3.8268343E-1,3E1,3.4866404E-2,6E0,5.2667793E-2,-7.2663195E-2,-1.477572E-2,6.388728E-2,-6.69624E-2,-8.480027E-3,6.929299E-2,-1.6352773E-2,-4.9978912E-2,-7.265856E-2,-7.240244E-2,1.44153545E-2,-5.775503E-2,-1.36641925E-2,8.494608E-2,4.775073E-2,7.6367985E-3,-7.361812E-2,6.0895234E-2,-7.482159E-2,-1.5030084E-2,7.347795E-2,-1.0856731E-2,4.6903703E-2,8.242651E-2,2.4490207E-2,5.599252E-2,7.628349E-2],"split_indices":[7,7,7,9,8,8,3,5,6,5,3,15,0,11,0,7,15,3,3,3,0,0,6,3,0,6,0,10,16,3,4,9,7,3,3,10,4,0,7,13,5,0,5,0,0,0,0,0,0,0,0,0,0,0,0,0,0,0,0,0,0,0,0,0,0,0,0,0,0,0,0],"split_type":[0,0,0,0,0,0,0,0,0,0,0,0,0,0,0,0,0,0,0,0,0,0,0,0,0,0,0,0,0,0,0,0,0,0,0,0,0,0,0,0,0,0,0,0,0,0,0,0,0,0,0,0,0,0,0,0,0,0,0,0,0,0,0,0,0,0,0,0,0,0,0],"sum_hessian":[4.4892728E2,2.9940646E2,1.4952081E2,1.7845715E2,1.2094931E2,5.725565E1,9.226516E1,4.8490673E1,1.2996649E2,1.00933846E2,2.0015465E1,5.502597E1,2.2296817E0,5.4520363E1,3.7744797E1,1.44563055E1,3.4034367E1,8.742366E1,4.2542828E1,9.769844E1,3.2354002E0,1.115998E1,8.855485E0,5.3782326E1,1.2436458E0,5.2645004E1,1.8753566E0,4.0888987E0,1.0367408E1,2.8787624E1,5.2467413E0,8.28414E1,4.5822544E0,3.9669888E1,2.8729389E0,8.168994E1,1.60085E1,2.7381077E0,6.1173773E0,4.187563E1,1.19066925E1,2.5029893E0,5.0142014E1,1.1173E0,2.9715986E0,2.3632843E0,8.004123E0,2.2439325E1,6.3482995E0,2.8785663E0,2.368175E0,6.076335E0,7.676507E1,2.9702795E0,1.6119748E0,2.7880527E1,1.1789362E1,1.7476878E0,1.1252509E0,7.8464745E1,3.225198E0,1.4265947E1,1.7425516E0,2.3655357E0,3.7518415E0,4.250051E0,3.762558E1,1.0529748E1,1.3769445E0,7.3857408E0,4.2756275E1],"tree_param":{"num_deleted":"0","num_feature":"19","num_nodes":"71","size_leaf_vector":"1"}},{"base_weights":[-1.2397341E-2,-5.5323577E-1,8.7747216E-1,5.6074256E-1,-8.333901E-1,6.9717867E-3,1.3880891E0,-7.179436E-2,6.598649E-1,-1.4026937E0,-4.9319875E-1,6.8992066E-1,-4.8267552E-1,1.5019674E0,2.6864433E-1,1.4453573E0,3.9432517E-1,-1.5061356E0,-2.1025813E-1,1.4552441E0,-5.687192E-1,7.7009305E-2,1.7002115E0,-1.1021767E0,2.3546469E-1,1.5457128E0,-7.307685E-2,-9.561683E-1,1.0733566E0,9.8661983E-1,7.9099596E-2,-7.256074E-2,9.2512727E-1,-1.6633135E0,-8.748611E-1,8.7605083E-1,-7.020076E-2,1.0632297E-2,7.973821E-2,-7.90925E-1,5.7919826E-2,9.8569983E-1,-7.2688855E-2,8.2289785E-2,1.0779274E0,-1.4044399E0,3.7308704E-2,-1.1068773E0,7.8369945E-1,9.6632004E-1,1.6920409E0,5.094474E-2,-7.4611396E-2,-7.02434E-3,1.7748657E0,6.0621656E-2,-1.2004004E-2,4.128019E-2,-7.2454296E-2,-6.8459086E-2,-3.3992466E-2,2.8750582E-2,-5.8656406E-2,-7.5251777E-3,8.623429E-2,-4.7458872E-2,-1.3767909E-2,3.5813786E-2,-1.996295E-2,2.1329101E-2,7.33442E-2,8.877297E-4,8.8006325E-2,-1.2086452E-2,-7.188806E-2,4.729113E-2,-7.194515E-2,4.855122E-2,-2.3417322E-2,4.850643E-2,-2.406548E-2,4.631691E-2,7.204385E-2,8.224386E-2,4.3731146E-2],"categories":[],"categories_nodes":[],"categories_segments":[],"categories_sizes":[],"default_left":[0,0,0,0,0,0,0,0,0,0,0,0,0,0,0,0,0,0,0,0,0,0,0,0,0,0,0,0,0,0,0,0,0,0,0,0,0,0,0,0,0,0,0,0,0,0,0,0,0,0,0,0,0,0,0,0,0,0,0,0,0,0,0,0,0,0,0,0,0,0,0,0,0,0,0,0,0,0,0,0,0,0,0,0,0],"id":2,"left_children":[1,3,5,7,9,11,13,-1,15,17,19,21,23,25,27,29,31,33,35,37,39,41,43,45,47,49,-1,51,53,55,-1,-1,57,59,61,63,-1,-1,-1,65,67,69,-1,-1,71,73,-1,75,77,79,81,-1,-1,-1,83,-1,-1,-1,-1,-1,-1,-1,-1,-1,-1,-1,-1,-1,-1,-1,-1,-1,-1,-1,-1,-1,-1,-1,-1,-1,-1,-1,-1,-1,-1],"loss_changes":[2.12706E2,8.579155E1,7.42614E1,1.2938478E1,4.2537674E1,2.0658089E1,1.3422028E1,0E0,1.1056252E1,1.0132263E1,2.0235138E1,1.5972441E1,1.6008013E1,1.3956268E1,9.591284E0,3.306446E0,4.659969E1,7.495163E0,1.1064035E1,3.3243113E0,1.8432144E1,2.7746405E1,2.2011414E0,1.190621E1,1.2267452E1,7.991974E0,0E0,7.906149E0,5.1494427E0,4.9892983E0,0E0,0E0,9.712837E0,2.6654053E0,1.4371962E1,5.2976794E0,0E0,0E0,0E0,1.7406548E1,1.6282948E1,4.180238E0,0E0,0E0,4.301933E0,7.396286E0,0E0,7.7503514E0,7.0551662E0,7.4973526E0,4.608322E0,0E0,0E0,0E0,7.271166E-1,0E0,0E0,0E0,0E0,0E0,0E0,0E0,0E0,0E0,0E0,0E0,0E0,0E0,0E0,0E0,0E0,0E0,0E0,0E0,0E0,0E0,0E0,0E0,0E0,0E0,0E0,0E0,0E0,0E0,0E0],"parents":[2147483647,0,0,1,1,2,2,3,3,4,4,5,5,6,6,8,8,9,9,10,10,11,11,12,12,13,13,14,14,15,15,16,16,17,17,18,18,19,19,20,20,21,21,22,22,23,23,24,24,25,25,27,27,28,28,29,29,32,32,33,33,34,34,35,35,39,39,40,40,41,41,44,44,45,45,47,47,48,48,49,49,50,50,54,54],"right_children":[2,4,6,8,10,12,14,-1,16,18,20,22,24,26,28,30,32,34,36,38,40,42,44,46,48,50,-1,52,54,56,-1,-1,58,60,62,64,-1,-1,-1,66,68,70,-1,-1,72,74,-1,76,78,80,82,-1,-1,-1,84,-1,-1,-1,-1,-1,-1,-1,-1,-1,-1,-1,-1,-1,-1,-1,-1,-1,-1,-1,-1,-1,-1,-1,-1,-1,-1,-1,-1,-1,-1],"split_conditions":[8.6E1,-7.0710677E-1,4E-1,2.4E1,1.03E1,-1.8369701E-16,2.6E1,-7.179436E-2,1.58E1,1.86E1,1.66E1,1.86E1,9.238795E-1,1.0315E3,3.7E1,1.33E1,1.22E1,7.9E1,2.55E1,1.57E1,1.78E1,1.75E1,2.58E1,4.8E1,-3.8268343E-1,-3.8268343E-1,-7.307685E-2,-7.0710677E-1,2.82E1,1.11E1,7.9099596E-2,-7.256074E-2,4.8E0,1.0281E3,1.0124E3,-3.8268343E-1,-7.020076E-2,1.0632297E-2,7.973821E-2,7.3E1,2.75E1,1.67E1,-7.2688855E-2,8.2289785E-2,3.3E1,-7.0710677E-1,3.7308704E-2,6.2E0,1.0229E3,6.123234E-17,2E0,5.094474E-2,-7.4611396E-2,-7.02434E-3,5E1,6.0621656E-2,-1.2004004E-2,4.128019E-2,-7.2454296E-2,-6.8459086E-2,-3.3992466E-2,2.8750582E-2,-5.8656406E-2,-7.5251777E-3,8.623429E-2,-4.7458872E-2,-1.3767909E-2,3.5813786E-2,-1.996295E-2,2.1329101E-2,7.33442E-2,8.877297E-4,8.8006325E-2,-1.2086452E-2,-7.188806E-2,4.729113E-2,-7.194515E-2,4.855122E-2,-2.3417322E-2,4.850643E-2,-2.406548E-2,4.631691E-2,7.204385E-2,8.224386E-2,4.3731146E-2],"split_indices":[6,14,2,3,0,14,11,0,11,10,11,10,14,8,3,10,0,6,11,10,0,11,11,3,15,13,0,18,11,10,0,0,2,9,9,13,0,0,0,6,11,11,0,0,3,15,0,10,8,14,2,0,0,0,3,0,0,0,0,0,0,0,0,0,0,0,0,0,0,0,0,0,0,0,0,0,0,0,0,0,0,0,0,0,0],"split_type":[0,0,0,0,0,0,0,0,0,0,0,0,0,0,0,0,0,0,0,0,0,0,0,0,0,0,0,0,0,0,0,0,0,0,0,0,0,0,0,0,0,0,0,0,0,0,0,0,0,0,0,0,0,0,0,0,0,0,0,0,0,0,0,0,0,0,0,0,0,0,0,0,0,0,0,0,0,0,0,0,0,0,0,0,0],"sum_hessian":[4.4195627E2,2.7488834E2,1.6706793E2,5.5238537E1,2.1964981E2,6.1768723E1,1.0529921E2,2.2220273E0,5.301651E1,8.2154335E1,1.3749548E2,2.5792814E1,3.5975906E1,9.557509E1,9.724122E0,1.3390232E1,3.9626274E1,7.559535E1,6.558984E0,5.127866E0,1.3236761E2,1.6056131E1,9.736683E0,1.9313683E1,1.6662226E1,9.433981E1,1.2352748E0,3.8552084E0,5.8689137E0,7.2418814E0,6.148351E0,7.6585026E0,3.1967773E1,6.0520454E1,1.5074893E1,3.85831E0,2.7006736E0,1.6151416E0,3.5127242E0,9.771693E1,3.465069E1,1.0864474E1,5.191657E0,6.1340585E0,3.602624E0,1.6820606E1,2.4930763E0,4.830551E0,1.1831675E1,1.902764E1,7.531218E1,1.1203775E0,2.7348309E0,2.1108634E0,3.7580502E0,5.117539E0,2.1243422E0,3.0730186E1,1.2375878E0,5.6704994E1,3.8154619E0,4.1027093E0,1.0972183E1,2.1133685E0,1.7449415E0,5.1487255E1,4.622967E1,1.3835187E1,2.0815502E1,7.1182866E0,3.7461882E0,1.8648309E0,1.7377932E0,4.4787555E0,1.234185E1,1.1268797E0,3.7036717E0,8.985034E0,2.8466408E0,1.64078E1,2.619838E0,1.3504017E1,6.180816E1,2.6296287E0,1.1284215E0],"tree_param":{"num_deleted":"0","num_feature":"19","num_nodes":"85","size_leaf_vector":"1"}},{"base_weights":[1.3680128E-2,-6.421504E-1,6.162218E-1,3.1497058E-1,-8.6961526E-1,1.2934048E-1,1.1057912E0,1.3871124E0,-4.567642E-2,-1.3695033E0,-4.917141E-1,-3.4395948E-2,1.3328402E0,1.6592159E0,8.537017E-1,-8.78196E-3,1.8053795E0,-7.013983E-2,4.7450024E-1,-6.3406193E-1,-1.5160587E0,7.5922483E-1,-6.6425973E-1,9.247208E-1,-2.4488078E-1,1.0485533E-3,1.5357205E0,1.730399E0,6.0480535E-3,5.40162E-1,1.3634753E0,7.667683E-2,4.2299833E-2,-6.996799E-2,7.949486E-1,-1.0752234E0,6.5601476E-2,-5.3959167E-1,-1.6146266E0,-7.371737E-2,1.1346229E0,1.220633E0,-7.6830935E-1,1.762085E0,2.1884008E-1,-6.0297185E-1,4.569144E-1,1.114805E0,8.27325E-2,3.174891E-2,1.8033192E0,9.37662E-1,-1.4100842E0,1.6575482E0,1.5009241E-3,1.6139302E-2,7.386331E-2,-6.9265515E-2,4.0356282E-2,3.9255574E-2,-6.8977766E-2,-6.917474E-2,-4.9114753E-2,-7.144199E-2,6.1000187E-2,2.6346408E-2,8.332614E-2,-3.313512E-2,8.343948E-2,7.991653E-2,4.3657128E-2,-7.153882E-2,3.875266E-2,-4.19747E-3,-5.2490227E-2,4.5283895E-2,-4.081712E-2,7.903399E-3,7.811766E-2,7.8367904E-2,6.1936487E-2,-8.042393E-3,4.8825115E-2,1.3294481E-2,-7.29933E-2,7.079806E-2,3.8314905E-2,-7.321777E-2,3.5077434E-2],"categories":[],"categories_nodes":[],"categories_segments":[],"categories_sizes":[],"default_left":[0,0,0,0,0,0,0,0,0,0,0,0,0,0,0,0,0,0,0,0,0,0,0,0,0,0,0,0,0,0,0,0,0,0,0,0,0,0,0,0,0,0,0,0,0,0,0,0,0,0,0,0,0,0,0,0,0,0,0,0,0,0,0,0,0,0,0,0,0,0,0,0,0,0,0,0,0,0,0,0,0,0,0,0,0,0,0,0,0],"id":3,"left_children":[1,3,5,7,9,11,13,15,17,19,21,23,25,27,29,-1,31,-1,33,35,37,39,41,43,45,-1,47,49,-1,51,53,-1,-1,-1,55,57,-1,59,61,-1,63,65,67,69,71,73,75,77,-1,-1,79,81,83,85,87,-1,-1,-1,-1,-1,-1,-1,-1,-1,-1,-1,-1,-1,-1,-1,-1,-1,-1,-1,-1,-1,-1,-1,-1,-1,-1,-1,-1,-1,-1,-1,-1,-1,-1],"loss_changes":[1.7519408E2,4.621788E1,5.5074905E1,1.57631645E1,3.2399063E1,2.2830046E1,1.6067566E1,6.901182E0,2.7207493E1,7.9546967E0,2.1086525E1,2.0588417E1,3.6769943E0,3.8669662E0,1.2649673E1,0E0,7.104206E-1,0E0,1.6732735E1,1.2354382E1,5.922058E0,1.1605104E1,1.683953E1,1.0846166E1,2.1018084E1,0E0,2.7215786E0,2.3381424E0,0E0,3.8006985E1,1.2072876E1,0E0,0E0,0E0,8.445737E0,1.4242974E1,0E0,1.0268161E1,2.5802917E0,0E0,1.2012451E1,2.1815357E0,1.4702408E1,1.3521309E0,1.5124566E1,1.9679026E1,2.843599E1,5.2333603E0,0E0,0E0,1.2859039E0,1.3340313E1,6.103134E0,2.0455246E0,8.659257E0,0E0,0E0,0E0,0E0,0E0,0E0,0E0,0E0,0E0,0E0,0E0,0E0,0E0,0E0,0E0,0E0,0E0,0E0,0E0,0E0,0E0,0E0,0E0,0E0,0E0,0E0,0E0,0E0,0E0,0E0,0E0,0E0,0E0,0E0],"parents":[2147483647,0,0,1,1,2,2,3,3,4,4,5,5,6,6,7,7,8,8,9,9,10,10,11,11,12,12,13,13,14,14,16,16,18,18,19,19,20,20,21,21,22,22,23,23,24,24,26,26,27,27,29,29,30,30,34,34,35,35,37,37,38,38,40,40,41,41,42,42,43,43,44,44,45,45,46,46,47,47,50,50,51,51,52,52,53,53,54,54],"right_children":[2,4,6,8,10,12,14,16,18,20,22,24,26,28,30,-1,32,-1,34,36,38,40,42,44,46,-1,48,50,-1,52,54,-1,-1,-1,56,58,-1,60,62,-1,64,66,68,70,72,74,76,78,-1,-1,80,82,84,86,88,-1,-1,-1,-1,-1,-1,-1,-1,-1,-1,-1,-1,-1,-1,-1,-1,-1,-1,-1,-1,-1,-1,-1,-1,-1,-1,-1,-1,-1,-1,-1,-1,-1,-1],"split_conditions":[7.9E1,-7.0710677E-1,6E-1,1.58E1,1.81E1,4.8E1,-7.0710677E-1,1.16E1,6.6E1,-7.0710677E-1,2.13E1,1.65E1,8.8E0,1.0231E3,3.7E1,-8.78196E-3,3.8268343E-1,-7.013983E-2,1.66E1,2.6E1,4E0,3.1E1,-9.238795E-1,1.0161E3,1.94E1,1.0485533E-3,8.6E1,2.6E1,6.0480535E-3,2.36E1,9.238795E-1,7.667683E-2,4.2299833E-2,-6.996799E-2,2.33E1,1.67E1,6.5601476E-2,1.0065E3,9.238795E-1,-7.371737E-2,-3.8268343E-1,1.5E1,3.98E1,3.8268343E-1,9.4E0,3.8268343E-1,2.78E1,6.3E1,8.27325E-2,3.174891E-2,1.26E1,1.39E1,8.1E1,2.2E1,-7.0710677E-1,1.6139302E-2,7.386331E-2,-6.9265515E-2,4.0356282E-2,3.9255574E-2,-6.8977766E-2,-6.917474E-2,-4.9114753E-2,-7.144199E-2,6.1000187E-2,2.6346408E-2,8.332614E-2,-3.313512E-2,8.343948E-2,7.991653E-2,4.3657128E-2,-7.153882E-2,3.875266E-2,-4.19747E-3,-5.2490227E-2,4.5283895E-2,-4.081712E-2,7.903399E-3,7.811766E-2,7.8367904E-2,6.1936487E-2,-8.042393E-3,4.8825115E-2,1.3294481E-2,-7.29933E-2,7.079806E-2,3.8314905E-2,-7.321777E-2,3.5077434E-2],"split_indices":[6,14,2,11,10,3,14,10,6,18,11,11,10,9,3,0,17,0,10,5,4,3,15,9,10,0,6,3,0,11,16,0,0,0,10,10,0,9,13,0,18,5,11,16,10,13,11,3,0,0,2,10,6,5,13,0,0,0,0,0,0,0,0,0,0,0,0,0,0,0,0,0,0,0,0,0,0,0,0,0,0,0,0,0,0,0,0,0,0],"split_type":[0,0,0,0,0,0,0,0,0,0,0,0,0,0,0,0,0,0,0,0,0,0,0,0,0,0,0,0,0,0,0,0,0,0,0,0,0,0,0,0,0,0,0,0,0,0,0,0,0,0,0,0,0,0,0,0,0,0,0,0,0,0,0,0,0,0,0,0,0,0,0,0,0,0,0,0,0,0,0,0,0,0,0,0,0,0,0,0,0],"sum_hessian":[4.4333698E2,2.12281E2,2.3105597E2,4.076176E1,1.7151924E2,1.1584858E2,1.1520739E2,1.02579155E1,3.0503847E1,7.383726E1,9.768198E1,1.0197756E2,1.387102E1,3.6048244E1,7.915915E1,2.118179E0,8.139736E0,7.09949E0,2.3404356E1,1.2272499E1,6.156476E1,1.183871E1,8.584327E1,1.8349762E1,8.36278E1,1.8651676E0,1.2005853E1,3.4422066E1,1.6261787E0,4.901806E1,3.0141087E1,7.015456E0,1.1242797E0,2.9383736E0,2.0465982E1,1.0284609E1,1.9878905E0,5.6471334E0,5.5917625E1,1.4873595E0,1.0351351E1,4.4886947E0,8.1354576E1,8.390597E0,9.959165E0,5.5374138E1,2.8253664E1,6.7543006E0,5.2515516E0,2.496754E0,3.1925314E1,4.0720387E1,8.297673E0,2.4787947E1,5.353139E0,1.4959317E1,5.5066657E0,7.8070083E0,2.4776008E0,2.4770744E0,3.1700587E0,4.24534E1,1.3464226E1,1.2319072E0,9.119443E0,2.735924E0,1.7527707E0,7.960159E1,1.7529808E0,6.142428E0,2.2481694E0,2.710346E0,7.248819E0,3.263565E1,2.2738487E1,1.9370047E1,8.883617E0,3.2429817E0,3.5113192E0,1.9281431E1,1.2643883E1,8.20327E0,3.2517117E1,1.6152066E0,6.682467E0,2.1166325E1,3.621622E0,1.729608E0,3.6235309E0],"tree_param":{"num_deleted":"0","num_feature":"19","num_nodes":"89","size_leaf_vector":"1"}},{"base_weights":[5.8291603E-2,-6.552117E-1,1.3515568E0,-1.1282462E0,-1.1815632E-2,8.1788766E-1,1.6944832E0,-4.3996954E-1,-1.4764555E0,-2.562771E-1,5.9805787E-1,9.702447E-1,-7.452482E-2,1.4093984E0,1.7989417E0,-1.2871832E0,-1.24203354E-1,-1.6181787E0,-7.8770536E-1,-7.256124E-2,-1.1135173E-1,-7.2653554E-2,7.4850035E-1,1.0435491E0,-7.108483E-2,1.5642587E0,-1.0717537E-2,1.8103602E0,4.4338867E-2,-2.114141E-1,-6.857742E-2,1.4424978E0,-3.1312314E-1,-1.656097E0,3.2615315E-2,-1.442485E0,7.455868E-1,4.5802325E-2,-1.41608E0,-7.082163E-2,8.714524E-1,1.7378279E0,8.6676663E-1,2.7507083E-3,1.677684E0,1.8369632E0,1.5236992E0,4.5712546E-2,-7.0368566E-2,1.4404192E-2,8.383625E-2,-3.4378204E-2,1.4055378E-2,-6.75092E-2,-3.4926113E-2,-6.85574E-2,6.0873453E-2,-6.9556706E-2,7.5237624E-2,4.8097447E-3,-7.112053E-2,-7.295668E-2,2.709495E-2,5.3926554E-2,1.0358075E-2,1.9926412E-2,7.6101795E-2,3.883907E-2,-2.7511638E-2,7.17245E-2,3.0064324E-2,5.347488E-2,7.3864646E-2,1.786662E-2,7.4181765E-2],"categories":[],"categories_nodes":[],"categories_segments":[],"categories_sizes":[],"default_left":[0,0,0,0,0,0,0,0,0,0,0,0,0,0,0,0,0,0,0,0,0,0,0,0,0,0,0,0,0,0,0,0,0,0,0,0,0,0,0,0,0,0,0,0,0,0,0,0,0,0,0,0,0,0,0,0,0,0,0,0,0,0,0,0,0,0,0,0,0,0,0,0,0,0,0],"id":4,"left_children":[1,3,5,7,9,11,13,15,17,19,21,23,-1,25,27,29,31,33,35,-1,37,-1,39,41,-1,43,-1,45,-1,47,-1,49,51,53,-1,55,57,59,61,-1,63,65,67,-1,69,71,73,-1,-1,-1,-1,-1,-1,-1,-1,-1,-1,-1,-1,-1,-1,-1,-1,-1,-1,-1,-1,-1,-1,-1,-1,-1,-1,-1,-1],"loss_changes":[3.9932416E2,8.487912E1,2.8153107E1,3.8516647E1,1.7618437E1,2.46586E1,2.779541E0,1.44452095E1,1.0412476E1,1.9125082E1,1.232055E1,1.1507439E1,0E0,6.5345993E0,5.2919006E-1,6.8362865E0,1.1645817E1,8.182358E0,1.8296577E1,0E0,1.5832305E1,0E0,9.891567E0,6.8054733E0,0E0,3.901802E0,0E0,5.032196E-1,0E0,8.9081545E0,0E0,3.0226374E0,1.284717E1,2.565918E0,0E0,1.05428295E1,1.5531251E1,9.445808E0,7.2169495E0,0E0,8.942106E0,2.3891983E0,7.427578E0,0E0,2.4043808E0,4.9269104E-1,2.0828323E0,0E0,0E0,0E0,0E0,0E0,0E0,0E0,0E0,0E0,0E0,0E0,0E0,0E0,0E0,0E0,0E0,0E0,0E0,0E0,0E0,0E0,0E0,0E0,0E0,0E0,0E0,0E0,0E0],"parents":[2147483647,0,0,1,1,2,2,3,3,4,4,5,5,6,6,7,7,8,8,9,9,10,10,11,11,13,13,14,14,15,15,16,16,17,17,18,18,20,20,22,22,23,23,25,25,27,27,29,29,31,31,32,32,33,33,35,35,36,36,37,37,38,38,40,40,41,41,42,42,44,44,45,45,46,46],"right_children":[2,4,6,8,10,12,14,16,18,20,22,24,-1,26,28,30,32,34,36,-1,38,-1,40,42,-1,44,-1,46,-1,48,-1,50,52,54,-1,56,58,60,62,-1,64,66,68,-1,70,72,74,-1,-1,-1,-1,-1,-1,-1,-1,-1,-1,-1,-1,-1,-1,-1,-1,-1,-1,-1,-1,-1,-1,-1,-1,-1,-1,-1,-1],"split_conditions":[6.6E1,5.1E1,7.8E1,1.0102E3,2.77E1,1E0,1E0,2.54E1,8.6E1,-3.8268343E-1,1.0075E3,9.238795E-1,-7.452482E-2,2.38E1,1.0286E3,1.0021E3,2.55E1,6.3E1,3.5E1,-7.256124E-2,2.01E1,-7.2653554E-2,1.92E1,1.0114E3,-7.108483E-2,-7.0710677E-1,-1.0717537E-2,2.27E1,4.4338867E-2,-9.238795E-1,-6.857742E-2,2.8E1,3.6E1,1.76E1,3.2615315E-2,1.0267E3,1.02E3,2E1,1E0,-7.082163E-2,9.238795E-1,-7.0710677E-1,2.55E1,2.7507083E-3,1E2,7.9E1,2.35E1,4.5712546E-2,-7.0368566E-2,1.4404192E-2,8.383625E-2,-3.4378204E-2,1.4055378E-2,-6.75092E-2,-3.4926113E-2,-6.85574E-2,6.0873453E-2,-6.9556706E-2,7.5237624E-2,4.8097447E-3,-7.112053E-2,-7.295668E-2,2.709495E-2,5.3926554E-2,1.0358075E-2,1.9926412E-2,7.6101795E-2,3.883907E-2,-2.7511638E-2,7.17245E-2,3.0064324E-2,5.347488E-2,7.3864646E-2,1.786662E-2,7.4181765E-2],"split_indices":[7,7,7,9,1,17,2,1,6,17,8,15,0,1,8,9,11,3,3,0,10,0,10,8,0,15,0,11,0,17,0,7,7,0,0,9,8,4,17,0,13,13,1,0,6,7,11,0,0,0,0,0,0,0,0,0,0,0,0,0,0,0,0,0,0,0,0,0,0,0,0,0,0,0,0],"split_type":[0,0,0,0,0,0,0,0,0,0,0,0,0,0,0,0,0,0,0,0,0,0,0,0,0,0,0,0,0,0,0,0,0,0,0,0,0,0,0,0,0,0,0,0,0,0,0,0,0,0,0,0,0,0,0,0,0,0,0,0,0,0,0,0,0,0,0,0,0,0,0,0,0,0,0],"sum_hessian":[4.327479E2,2.78886E2,1.538619E2,1.6071947E2,1.1816653E2,6.0196133E1,9.3665764E1,5.3996964E1,1.0672251E2,8.435591E1,3.381061E1,5.6969265E1,3.2268662E0,2.5131393E1,6.853437E1,1.4657785E1,3.9339176E1,8.850564E1,1.8216867E1,7.148401E0,7.720751E1,1.9756472E0,3.1834965E1,5.549437E1,1.4748954E0,2.30088E1,2.1225939E0,6.7406845E1,1.1275237E0,4.212245E0,1.0445541E1,4.230566E0,3.510861E1,8.7150635E1,1.3550067E0,1.2765784E1,5.4510837E0,6.891034E1,8.297173E0,1.4755892E0,3.0359377E1,1.1256032E1,4.423834E1,1.6229403E0,2.138586E1,6.1664333E1,5.742512E0,2.248091E0,1.9641538E0,1.6076394E0,2.6229267E0,1.9234E1,1.587461E1,8.3111984E1,4.0386486E0,1.1675417E1,1.090367E0,1.7131586E0,3.737925E0,6.6205154E1,2.7051795E0,6.927588E0,1.3695847E0,1.6980326E1,1.3379051E1,1.3731862E0,9.882846E0,4.1375736E1,2.862601E0,1.8886087E1,2.4997718E0,1.992781E0,5.9671555E1,1.3744338E0,4.368078E0],"tree_param":{"num_deleted":"0","num_feature":"19","num_nodes":"75","size_leaf_vector":"1"}},{"base_weights":[-1.6497891E-2,-7.1329856E-1,1.2987096E0,-1.2804134E0,4.7551262E-1,-1.685511E-1,1.5274024E0,-1.6010221E0,-6.645364E-1,1.3233688E0,3.7116665E-2,-1.2517152E0,1.1453073E0,9.723721E-1,1.7545855E0,-1.6851817E-1,-1.7364851E0,-8.128056E-2,-2.6748785E-1,-8.1062146E-2,1.4389349E0,1.0408238E0,-4.214105E-1,-1.7161998E0,3.0419592E-2,1.5520777E0,-8.1062146E-2,-1.6850628E-1,1.3479115E0,1.8930137E0,1.2400844E0,5.0995976E-1,-8.121308E-2,-1.9548737E0,-1.4152762E0,6.261505E-1,-1.300236E0,5.7775575E-1,1.7388756E0,1.2272916E0,-5.6101406E-1,-1.1733075E0,5.692231E-1,2.0271258E-2,-8.126616E-2,7.812312E-2,1.0742241E0,3.6462122E-1,-8.117949E-2,8.9737564E-1,1.6290826E0,1.9262642E0,3.0419592E-2,1.4629126E0,-8.1101224E-2,6.751888E-2,-9.878568E-3,-4.732077E-2,-7.9511784E-2,-8.128435E-2,-3.920333E-2,2.9141853E-2,-8.1062146E-2,-6.949261E-2,3.6303043E-2,3.902049E-2,-8.1062146E-2,7.344768E-2,4.711583E-3,6.531765E-2,2.3488102E-2,-8.1062146E-2,4.2704083E-2,-6.7786776E-2,1.03521105E-2,4.4987723E-2,-2.2383828E-2,7.806938E-2,-6.6989656E-3,-1.2787034E-2,7.806938E-2,-3.2583885E-2,5.489819E-2,6.804428E-2,2.0271258E-2,7.8172944E-2,6.9570675E-2,4.7209333E-3,6.757139E-2],"categories":[],"categories_nodes":[],"categories_segments":[],"categories_sizes":[],"default_left":[0,0,0,0,0,0,0,0,0,0,0,0,0,0,0,0,0,0,0,0,0,0,0,0,0,0,0,0,0,0,0,0,0,0,0,0,0,0,0,0,0,0,0,0,0,0,0,0,0,0,0,0,0,0,0,0,0,0,0,0,0,0,0,0,0,0,0,0,0,0,0,0,0,0,0,0,0,0,0,0,0,0,0,0,0,0,0,0,0],"id":5,"left_children":[1,3,5,7,9,11,13,15,17,19,21,23,25,27,29,31,33,-1,35,-1,37,39,41,43,-1,45,-1,47,49,51,53,55,-1,57,59,61,63,65,67,69,71,73,75,-1,-1,-1,77,79,-1,81,83,85,-1,87,-1,-1,-1,-1,-1,-1,-1,-1,-1,-1,-1,-1,-1,-1,-1,-1,-1,-1,-1,-1,-1,-1,-1,-1,-1,-1,-1,-1,-1,-1,-1,-1,-1,-1,-1],"loss_changes":[4.7904544E2,2.3037064E2,6.0746582E1,4.567456E1,4.1019875E1,3.4749413E1,1.9741943E1,2.9520508E1,4.323771E1,1.460408E1,3.348314E1,1.2531208E1,1.4280366E1,1.9493866E1,7.905426E0,1.6678932E1,9.739349E0,0E0,5.6726948E1,0E0,9.388733E0,6.8169785E0,3.7199886E1,7.8195763E0,0E0,1.9001598E0,0E0,1.1229422E1,4.3302116E0,3.2830505E0,1.7211517E1,8.661462E0,0E0,2.5456543E0,1.5152733E1,9.215753E0,2.7965778E1,9.85894E0,4.5474396E0,5.3627186E0,5.733565E0,2.1468746E1,1.3640805E1,0E0,0E0,0E0,4.964738E0,9.588043E0,0E0,1.08415E1,1.8445473E0,5.2838135E-1,0E0,6.900566E0,0E0,0E0,0E0,0E0,0E0,0E0,0E0,0E0,0E0,0E0,0E0,0E0,0E0,0E0,0E0,0E0,0E0,0E0,0E0,0E0,0E0,0E0,0E0,0E0,0E0,0E0,0E0,0E0,0E0,0E0,0E0,0E0,0E0,0E0,0E0],"parents":[2147483647,0,0,1,1,2,2,3,3,4,4,5,5,6,6,7,7,8,8,9,9,10,10,11,11,12,12,13,13,14,14,15,15,16,16,18,18,20,20,21,21,22,22,23,23,25,25,27,27,28,28,29,29,30,30,31,31,33,33,34,34,35,35,36,36,37,37,38,38,39,39,40,40,41,41,42,42,46,46,47,47,49,49,50,50,51,51,53,53],"right_children":[2,4,6,8,10,12,14,16,18,20,22,24,26,28,30,32,34,-1,36,-1,38,40,42,44,-1,46,-1,48,50,52,54,56,-1,58,60,62,64,66,68,70,72,74,76,-1,-1,-1,78,80,-1,82,84,86,-1,88,-1,-1,-1,-1,-1,-1,-1,-1,-1,-1,-1,-1,-1,-1,-1,-1,-1,-1,-1,-1,-1,-1,-1,-1,-1,-1,-1,-1,-1,-1,-1,-1,-1,-1,-1],"split_conditions":[5.8E1,4.4E1,3E1,3.8268343E-1,1.0076E3,7.2E1,6.6E1,1.0092E3,2.7E1,1E1,1.03E1,1.1E1,1.0286E3,-3.8268343E-1,1.0196E3,1.93E1,4.4E1,-8.128056E-2,1.0178E3,-8.1062146E-2,5.2E1,1.0222E3,3.8268343E-1,1.19E1,3.0419592E-2,1.0174E3,-8.1062146E-2,6.3E1,3.9E1,9.238795E-1,7.0710677E-1,1.3E1,-8.121308E-2,1.0104E3,3.3E1,2.97E1,4.1E1,2E1,2.4E1,1.22E1,4.9E1,1.8E0,2.73E1,2.0271258E-2,-8.126616E-2,7.812312E-2,1.09E1,1.5E1,-8.117949E-2,-1.8369701E-16,1.83E1,1.0173E3,3.0419592E-2,-7.0710677E-1,-8.1101224E-2,6.751888E-2,-9.878568E-3,-4.732077E-2,-7.9511784E-2,-8.128435E-2,-3.920333E-2,2.9141853E-2,-8.1062146E-2,-6.949261E-2,3.6303043E-2,3.902049E-2,-8.1062146E-2,7.344768E-2,4.711583E-3,6.531765E-2,2.3488102E-2,-8.1062146E-2,4.2704083E-2,-6.7786776E-2,1.03521105E-2,4.4987723E-2,-2.2383828E-2,7.806938E-2,-6.6989656E-3,-1.2787034E-2,7.806938E-2,-3.2583885E-2,5.489819E-2,6.804428E-2,2.0271258E-2,7.8172944E-2,6.9570675E-2,4.7209333E-3,6.757139E-2],"split_indices":[7,3,3,18,9,7,7,9,7,7,0,4,8,18,8,0,7,0,9,0,3,9,14,11,0,9,0,7,3,13,18,5,0,9,3,11,3,5,4,10,7,2,11,0,0,0,0,4,0,14,10,8,0,18,0,0,0,0,0,0,0,0,0,0,0,0,0,0,0,0,0,0,0,0,0,0,0,0,0,0,0,0,0,0,0,0,0,0,0],"split_type":[0,0,0,0,0,0,0,0,0,0,0,0,0,0,0,0,0,0,0,0,0,0,0,0,0,0,0,0,0,0,0,0,0,0,0,0,0,0,0,0,0,0,0,0,0,0,0,0,0,0,0,0,0,0,0,0,0,0,0,0,0,0,0,0,0,0,0,0,0,0,0,0,0,0,0,0,0,0,0,0,0,0,0,0,0,0,0,0,0],"sum_hessian":[5.22719E2,3.4169165E2,1.8102734E2,2.3133485E2,1.1035679E2,2.441075E1,1.5661661E2,1.5213264E2,7.920221E1,3.761048E1,7.274631E1,1.3380282E1,1.1030466E1,4.549287E1,1.1112373E2,1.3144249E1,1.389884E2,1.7743204E1,6.1459003E1,1.2495215E0,3.6360962E1,2.2810646E1,4.9935665E1,1.0874305E1,2.5059783E0,9.780945E0,1.2495215E0,1.12664995E1,3.422637E1,8.7556435E1,2.3567293E1,9.64559E0,3.49866E0,8.272526E1,5.626314E1,3.294911E1,2.8509895E1,9.395685E0,2.6965277E1,2.0433086E1,2.3775585E0,2.838841E1,2.1547253E1,1.3779414E0,9.496363E0,5.2687964E0,4.5121484E0,8.767457E0,2.499043E0,1.315812E1,2.106825E1,8.505046E1,2.5059783E0,2.2067867E1,1.4994258E0,3.7624354E0,5.883154E0,4.1268888E0,7.8598366E1,2.2991194E1,3.327195E1,3.1699587E1,1.2495215E0,2.3747843E1,4.7620525E0,8.146164E0,1.2495215E0,2.5337431E1,1.6278456E0,1.2415343E1,8.017744E0,1.2495215E0,1.1280371E0,2.0748991E1,7.6394196E0,1.44145775E1,7.1326756E0,2.6343982E0,1.8777499E0,6.1330585E0,2.6343982E0,2.877367E0,1.0280753E1,1.969031E1,1.3779414E0,7.112875E1,1.3921704E1,3.2556913E0,1.8812176E1],"tree_param":{"num_deleted":"0","num_feature":"19","num_nodes":"89","size_leaf_vector":"1"}},{"base_weights":[-6.763027E-2,-6.2083125E-1,2.8125172E0,-9.145533E-1,1.0303457E0,2.155501E0,3.5656147E0,-1.0469216E0,5.978441E-1,-1.0265704E0,1.7898123E0,2.8908203E0,-7.1623206E-1,3.6368613E0,1.0635866E-1,-1.210584E0,-2.4100891E-1,1.719404E0,7.5784035E-2,-5.3958785E-2,1.4917875E-2,-4.6753109E-1,2.1464684E0,3.1069301E-2,3.0654085E0,7.719484E-2,-5.3936776E-2,7.719484E-2,3.723766E0,4.2361695E-2,-1.2300844E0,-1.0809498E0,2.1549249E0,1.3418576E-1,6.622036E-1,-5.394197E-2,1.0651565E0,7.719484E-2,-5.391278E-2,2.5556324E0,6.2586296E-1,4.2361695E-2,3.2229893E0,3.7679949E0,1.2628765E-1,-4.9784496E-2,-3.463948E-4,-5.3971447E-2,-1.0087251E-2,8.943075E-3,1.1109134E-1,-5.3878333E-2,1.2628765E-1,7.740519E-2,-5.3878333E-2,1.2537129E-1,3.1118434E-2,1.19203635E-1,-5.391278E-2,1.0651452E-1,1.3928549E-1,1.2628765E-1,1.5223925E-1],"categories":[],"categories_nodes":[],"categories_segments":[],"categories_sizes":[],"default_left":[0,0,0,0,0,0,0,0,0,0,0,0,0,0,0,0,0,0,0,0,0,0,0,0,0,0,0,0,0,0,0,0,0,0,0,0,0,0,0,0,0,0,0,0,0,0,0,0,0,0,0,0,0,0,0,0,0,0,0,0,0,0,0],"id":6,"left_children":[1,3,5,7,9,11,13,15,17,19,21,23,25,27,-1,29,31,33,35,-1,-1,37,39,-1,41,-1,-1,-1,43,-1,45,47,49,-1,51,-1,53,-1,-1,55,57,-1,59,61,-1,-1,-1,-1,-1,-1,-1,-1,-1,-1,-1,-1,-1,-1,-1,-1,-1,-1,-1],"loss_changes":[5.0032535E2,1.27759415E2,2.500644E1,4.477391E1,6.2155357E1,5.708754E1,1.4703064E0,2.7122498E1,1.0538485E1,4.923006E0,2.3397812E1,7.9230347E0,9.328681E0,3.197235E0,0E0,7.5827026E0,6.987379E1,9.949003E0,1.737964E1,0E0,0E0,8.45353E0,1.5605812E1,0E0,6.2585907E0,0E0,0E0,0E0,4.6588135E-1,0E0,3.9554443E0,5.814722E0,1.1003147E1,0E0,1.7619383E1,0E0,1.5406581E1,0E0,0E0,2.0700302E1,2.4935982E1,0E0,2.7231903E0,5.5426025E-1,0E0,0E0,0E0,0E0,0E0,0E0,0E0,0E0,0E0,0E0,0E0,0E0,0E0,0E0,0E0,0E0,0E0,0E0,0E0],"parents":[2147483647,0,0,1,1,2,2,3,3,4,4,5,5,6,6,7,7,8,8,9,9,10,10,11,11,12,12,13,13,15,15,16,16,17,17,18,18,21,21,22,22,24,24,28,28,30,30,31,31,32,32,34,34,36,36,39,39,40,40,42,42,43,43],"right_children":[2,4,6,8,10,12,14,16,18,20,22,24,26,28,-1,30,32,34,36,-1,-1,38,40,-1,42,-1,-1,-1,44,-1,46,48,50,-1,52,-1,54,-1,-1,56,58,-1,60,62,-1,-1,-1,-1,-1,-1,-1,-1,-1,-1,-1,-1,-1,-1,-1,-1,-1,-1,-1],"split_conditions":[5E1,5.4E1,8E1,2E-1,1.5E1,1.0146E3,1.023E3,7.0710677E-1,1.3E1,3.97E1,3.1E1,2.23E1,6.3E0,-3.8268343E-1,1.0635866E-1,2E1,2.6E1,1.2246469E-16,2E1,-5.3958785E-2,1.4917875E-2,1.52E1,7.0710677E-1,3.1069301E-2,-7.0710677E-1,7.719484E-2,-5.3936776E-2,7.719484E-2,2.19E1,4.2361695E-2,3.1E1,4.6E1,4.1E1,1.3418576E-1,1.019E3,-5.394197E-2,2.6E1,7.719484E-2,-5.391278E-2,2.45E1,0E0,4.2361695E-2,2.65E1,8.2E1,1.2628765E-1,-4.9784496E-2,-3.463948E-4,-5.3971447E-2,-1.0087251E-2,8.943075E-3,1.1109134E-1,-5.3878333E-2,1.2628765E-1,7.740519E-2,-5.3878333E-2,1.2537129E-1,3.1118434E-2,1.19203635E-1,-5.391278E-2,1.0651452E-1,1.3928549E-1,1.2628765E-1,1.5223925E-1],"split_indices":[7,3,7,2,7,9,8,14,4,11,11,11,0,17,0,3,7,17,5,0,0,10,13,0,17,0,0,0,0,0,5,3,3,0,8,0,5,0,0,0,15,0,11,7,0,0,0,0,0,0,0,0,0,0,0,0,0,0,0,0,0,0,0],"split_type":[0,0,0,0,0,0,0,0,0,0,0,0,0,0,0,0,0,0,0,0,0,0,0,0,0,0,0,0,0,0,0,0,0,0,0,0,0,0,0,0,0,0,0,0,0,0,0,0,0,0,0,0,0,0,0,0,0,0,0,0,0,0,0],"sum_hessian":[3.1401147E2,2.634185E2,5.0592976E1,2.2363806E2,3.9780426E1,2.7027483E1,2.3565495E1,2.0564119E2,1.7996872E1,1.0726748E1,2.9053679E1,2.1517847E1,5.509635E0,2.1821093E1,1.7444005E0,1.7092755E2,3.471364E1,5.7135863E0,1.2283285E1,8.695189E0,2.031559E0,3.9638233E0,2.5089855E1,1.645106E0,1.9872742E1,1.0654267E0,4.444208E0,1.0654267E0,2.0755667E1,1.4518795E0,1.6947568E2,2.570448E1,9.009161E0,2.2301478E0,3.4834385E0,5.0238876E0,7.259398E0,1.0654267E0,2.8983967E0,1.9768084E1,5.3217707E0,1.4518795E0,1.8420862E1,1.9204493E1,1.551174E0,1.6686444E2,2.6112382E0,1.9322643E1,6.381835E0,2.2247853E0,6.7843757E0,1.9322644E0,1.551174E0,5.327133E0,1.9322644E0,1.4832767E1,4.935318E0,2.4233742E0,2.8983967E0,6.1054015E0,1.231546E1,1.551174E0,1.7653318E1],"tree_param":{"num_deleted":"0","num_feature":"19","num_nodes":"63","size_leaf_vector":"1"}},{"base_weights":[-2.7562961E-2,-1.0270282E0,1.0710628E0,-1.2167217E0,1.1460718E0,1.4935638E0,-1.4738718E-1,2.5390416E-1,-1.4080782E0,3.5985332E-2,1.3943118E0,5.8133614E-1,1.6814247E0,-9.5293057E-1,8.638037E-1,-7.837832E-2,7.023876E-1,-1.8350445E0,-9.0165484E-1,-7.8218125E-2,4.5607667E-2,4.7048554E-1,1.9310721E0,-9.721623E-2,1.3942295E0,1.4299104E0,1.9685436E0,-1.2155813E0,1.3929955E0,-7.835047E-2,1.2531422E0,2.5827348E-1,8.095334E-2,-1.8667871E0,7.5467806E-3,-7.843364E-2,-4.962999E-1,1.3277574E0,-7.825589E-2,4.5531917E-2,8.097559E-2,-7.836941E-2,5.247075E-1,7.8038466E-1,8.0961294E-2,9.9780595E-1,1.8880703E0,4.5531917E-2,1.9836637E0,3.6915985E-1,-1.6486527E0,8.084225E-2,2.3103438E-2,5.063648E-1,1.7313441E0,-2.6778089E-2,4.971626E-2,-7.56758E-2,-2.5115179E-2,-5.9234038E-2,5.0124293E-4,7.5467806E-3,8.089776E-2,-7.828289E-2,3.9153915E-2,6.10901E-2,-1.9517789E-2,1.4718702E-2,5.7115503E-2,7.829578E-2,5.7711475E-2,7.968062E-2,4.5531917E-2,-7.830315E-2,6.10901E-2,4.5531917E-2,-7.172364E-2,6.71083E-2,-3.8713252E-3,7.756899E-2,7.5467806E-3],"categories":[],"categories_nodes":[],"categories_segments":[],"categories_sizes":[],"default_left":[0,0,0,0,0,0,0,0,0,0,0,0,0,0,0,0,0,0,0,0,0,0,0,0,0,0,0,0,0,0,0,0,0,0,0,0,0,0,0,0,0,0,0,0,0,0,0,0,0,0,0,0,0,0,0,0,0,0,0,0,0,0,0,0,0,0,0,0,0,0,0,0,0,0,0,0,0,0,0,0,0],"id":7,"left_children":[1,3,5,7,9,11,13,15,17,19,21,23,25,27,29,-1,31,33,35,-1,-1,37,39,41,43,45,47,49,51,-1,53,55,-1,57,-1,-1,59,61,-1,-1,-1,-1,63,65,-1,67,69,-1,71,73,75,-1,-1,77,79,-1,-1,-1,-1,-1,-1,-1,-1,-1,-1,-1,-1,-1,-1,-1,-1,-1,-1,-1,-1,-1,-1,-1,-1,-1,-1],"loss_changes":[5.009944E2,9.849054E1,1.1189192E2,6.1838013E1,5.285387E0,2.765329E1,4.5589268E1,2.5202776E1,4.203534E1,7.781997E0,7.769535E0,1.5205915E1,9.653229E0,1.9200136E1,2.7349506E1,0E0,1.2422782E1,6.7805786E0,3.8446045E1,0E0,0E0,1.2040172E1,7.7869797E-1,1.7473629E1,4.8995914E0,1.4117722E1,7.7145386E-1,1.9230797E1,1.6168919E0,0E0,7.787323E0,1.4526848E1,0E0,4.114441E0,0E0,0E0,3.2472614E1,3.407889E0,0E0,0E0,0E0,0E0,1.2855871E1,6.114215E0,0E0,1.0046028E1,1.1549072E0,0E0,8.0052185E-1,1.6349361E1,9.283962E0,0E0,0E0,6.0572324E0,4.407215E0,0E0,0E0,0E0,0E0,0E0,0E0,0E0,0E0,0E0,0E0,0E0,0E0,0E0,0E0,0E0,0E0,0E0,0E0,0E0,0E0,0E0,0E0,0E0,0E0,0E0,0E0],"parents":[2147483647,0,0,1,1,2,2,3,3,4,4,5,5,6,6,7,7,8,8,9,9,10,10,11,11,12,12,13,13,14,14,16,16,17,17,18,18,21,21,22,22,23,23,24,24,25,25,26,26,27,27,28,28,30,30,31,31,33,33,36,36,37,37,42,42,43,43,45,45,46,46,48,48,49,49,50,50,53,53,54,54],"right_children":[2,4,6,8,10,12,14,16,18,20,22,24,26,28,30,-1,32,34,36,-1,-1,38,40,42,44,46,48,50,52,-1,54,56,-1,58,-1,-1,60,62,-1,-1,-1,-1,64,66,-1,68,70,-1,72,74,76,-1,-1,78,80,-1,-1,-1,-1,-1,-1,-1,-1,-1,-1,-1,-1,-1,-1,-1,-1,-1,-1,-1,-1,-1,-1,-1,-1,-1,-1],"split_conditions":[5.5E1,5.9E1,1.0182E3,1.0067E3,1.7E1,-7.0710677E-1,7.1E1,-9.238795E-1,6.123234E-17,-3.8268343E-1,2.33E1,9.3E0,7.5E1,1.44E1,9E0,-7.837832E-2,4.8E1,2.3E1,3.1E1,-7.8218125E-2,4.5607667E-2,1.0097E3,1.7E1,2.2E0,7.3E1,4.4E1,1.5E0,1.0195E3,9.9E0,-7.835047E-2,-7.0710677E-1,1.68E1,8.095334E-2,1E0,7.5467806E-3,-7.843364E-2,0E0,4E-1,-7.825589E-2,4.5531917E-2,8.097559E-2,-7.836941E-2,-9.238795E-1,1.0115E3,8.0961294E-2,0E0,1.0143E3,4.5531917E-2,3.08E1,-7.0710677E-1,-1.7E0,8.084225E-2,2.3103438E-2,7.2E1,9.238795E-1,-2.6778089E-2,4.971626E-2,-7.56758E-2,-2.5115179E-2,-5.9234038E-2,5.0124293E-4,7.5467806E-3,8.089776E-2,-7.828289E-2,3.9153915E-2,6.10901E-2,-1.9517789E-2,1.4718702E-2,5.7115503E-2,7.829578E-2,5.7711475E-2,7.968062E-2,4.5531917E-2,-7.830315E-2,6.10901E-2,4.5531917E-2,-7.172364E-2,6.71083E-2,-3.8713252E-3,7.756899E-2,7.5467806E-3],"split_indices":[7,3,9,9,7,15,7,17,18,13,11,0,7,10,5,0,7,2,7,0,0,8,5,2,7,3,0,9,0,0,13,0,0,14,0,0,17,2,0,0,0,0,15,9,0,13,8,0,2,15,0,0,0,7,13,0,0,0,0,0,0,0,0,0,0,0,0,0,0,0,0,0,0,0,0,0,0,0,0,0,0],"split_type":[0,0,0,0,0,0,0,0,0,0,0,0,0,0,0,0,0,0,0,0,0,0,0,0,0,0,0,0,0,0,0,0,0,0,0,0,0,0,0,0,0,0,0,0,0,0,0,0,0,0,0,0,0,0,0,0,0,0,0,0,0,0,0,0,0,0,0,0,0,0,0,0,0,0,0,0,0,0,0,0,0],"sum_hessian":[4.5625623E2,2.3891025E2,2.1734598E2,2.1973123E2,1.9179014E1,1.6138484E2,5.5961132E1,2.5298964E1,1.9443227E2,3.5060315E0,1.5672983E1,2.7562254E1,1.338226E2,3.1148167E1,2.4812965E1,4.2489014E0,2.1050062E1,1.054866E2,8.894566E1,1.2496768E0,2.2563546E0,5.7623863E0,9.910597E0,1.5023868E1,1.2538386E1,7.134592E1,6.2476677E1,2.801357E1,3.1345966E0,2.9992244E0,2.181374E1,1.578061E1,5.2694516E0,1.0385855E2,1.6280481E0,2.4493666E1,6.4451996E1,4.262774E0,1.4996122E0,1.1281773E0,8.782419E0,3.7490306E0,1.1274837E1,6.3906927E0,6.1476936E0,3.6723045E1,3.462287E1,1.1281773E0,6.13485E1,6.0123215E0,2.200125E1,1.7564839E0,1.3781127E0,8.518612E0,1.3295129E1,8.133304E0,7.647306E0,1.0123077E2,2.6277895E0,2.187975E1,4.257225E1,1.6280481E0,2.6347258E0,1.7495476E0,9.52529E0,4.0128384E0,2.377854E0,1.5030804E1,2.1692242E1,2.9481855E1,5.141016E0,6.0220325E1,1.1281773E0,1.999483E0,4.0128384E0,1.1281773E0,2.0873072E1,2.8846612E0,5.63395E0,1.1667081E1,1.6280481E0],"tree_param":{"num_deleted":"0","num_feature":"19","num_nodes":"81","size_leaf_vector":"1"}},{"base_weights":[-3.8703736E-2,-6.034136E-1,1.6470059E0,3.6628047E-1,-1.0715681E0,4.6033907E-1,1.8831009E0,-5.19825E-1,9.351105E-1,-1.7468301E0,-6.7512536E-1,-5.370994E-1,1.65993E0,2.0228183E0,1.3542111E0,-1.2113875E0,6.3568777E-1,-7.334271E-2,1.4491597E0,1.40082445E-2,-1.7852929E0,-1.3383582E0,-2.7202773E-1,4.3908286E-1,-7.268663E-2,9.120495E-1,8.8083684E-2,1.8045597E0,2.1694555E0,6.248542E-2,1.6324831E0,-1.5356175E0,6.00203E-1,-7.266069E-2,1.2051463E0,-1.4745868E0,9.288165E-1,6.821755E-1,1.6501793E0,-6.32379E-3,-7.273981E-2,-1.5649436E0,1.9416962E0,5.6182426E-1,-9.108281E-1,1.3162807E0,-7.259038E-2,8.80229E-2,-7.252954E-2,8.810802E-2,1.6520829E0,5.2327648E-2,2.189996E0,-7.259038E-2,6.797815E-2,1.2321919E0,2.0870533E0,-6.668685E-2,5.2327648E-2,-7.252954E-2,6.2414166E-2,6.521884E-2,-7.259038E-2,-7.271319E-2,5.2327648E-2,-7.256502E-2,5.00142E-2,4.1623034E-2,-7.252954E-2,2.1233449E-2,6.961584E-2,-6.9800936E-2,-6.3351733E-3,5.2327648E-2,8.80229E-2,-7.299376E-3,4.34824E-2,-5.911776E-2,-5.6227334E-3,1.40082445E-2,7.411046E-2,7.135487E-2,2.4841297E-3,6.797815E-2,8.813738E-2,6.560662E-2,-6.32379E-3,5.2327648E-2,8.809889E-2],"categories":[],"categories_nodes":[],"categories_segments":[],"categories_sizes":[],"default_left":[0,0,0,0,0,0,0,0,0,0,0,0,0,0,0,0,0,0,0,0,0,0,0,0,0,0,0,0,0,0,0,0,0,0,0,0,0,0,0,0,0,0,0,0,0,0,0,0,0,0,0,0,0,0,0,0,0,0,0,0,0,0,0,0,0,0,0,0,0,0,0,0,0,0,0,0,0,0,0,0,0,0,0,0,0,0,0,0,0],"id":8,"left_children":[1,3,5,7,9,11,13,15,17,19,21,23,25,27,29,31,33,35,37,-1,39,41,43,45,-1,47,-1,49,51,53,55,57,59,-1,61,63,65,67,69,-1,-1,71,73,75,77,79,-1,-1,-1,-1,81,-1,83,-1,-1,85,87,-1,-1,-1,-1,-1,-1,-1,-1,-1,-1,-1,-1,-1,-1,-1,-1,-1,-1,-1,-1,-1,-1,-1,-1,-1,-1,-1,-1,-1,-1,-1,-1],"loss_changes":[4.5684827E2,1.6319684E2,3.373584E1,5.8999672E1,6.489731E1,2.3920319E1,7.411499E0,3.6573444E1,3.695638E1,7.2406006E0,4.0839264E1,1.3715437E1,3.726942E0,2.5277405E0,7.547577E0,1.6820564E1,2.4002687E1,3.3809147E1,7.2755127E0,0E0,5.7137756E0,4.2928703E1,5.06159E1,1.2321902E1,0E0,1.3663488E1,0E0,1.9649811E0,8.244629E-1,1.1545173E1,3.1338005E0,9.533417E0,1.0175101E1,0E0,1.81774E1,9.801376E0,1.2595439E1,8.899259E0,4.0351334E0,0E0,0E0,1.4163025E1,6.1528873E-1,1.625267E1,2.3711475E1,2.3431215E0,0E0,0E0,0E0,0E0,5.111412E0,0E0,4.697113E-1,0E0,0E0,5.2969303E0,7.617874E-1,0E0,0E0,0E0,0E0,0E0,0E0,0E0,0E0,0E0,0E0,0E0,0E0,0E0,0E0,0E0,0E0,0E0,0E0,0E0,0E0,0E0,0E0,0E0,0E0,0E0,0E0,0E0,0E0,0E0,0E0,0E0,0E0],"parents":[2147483647,0,0,1,1,2,2,3,3,4,4,5,5,6,6,7,7,8,8,9,9,10,10,11,11,12,12,13,13,14,14,15,15,16,16,17,17,18,18,20,20,21,21,22,22,23,23,25,25,27,27,28,28,29,29,30,30,31,31,32,32,34,34,35,35,36,36,37,37,38,38,41,41,42,42,43,43,44,44,45,45,50,50,52,52,55,55,56,56],"right_children":[2,4,6,8,10,12,14,16,18,20,22,24,26,28,30,32,34,36,38,-1,40,42,44,46,-1,48,-1,50,52,54,56,58,60,-1,62,64,66,68,70,-1,-1,72,74,76,78,80,-1,-1,-1,-1,82,-1,84,-1,-1,86,88,-1,-1,-1,-1,-1,-1,-1,-1,-1,-1,-1,-1,-1,-1,-1,-1,-1,-1,-1,-1,-1,-1,-1,-1,-1,-1,-1,-1,-1,-1,-1,-1],"split_conditions":[6.9E1,1.0113E3,3.1E1,3.6E1,-3.8268343E-1,8.6E1,1.0141E3,9.238795E-1,-1.8369701E-16,-1E0,3.8E1,1.0235E3,7.8E0,8E1,-7.0710677E-1,6.5E1,1.4E1,5.2E1,-7.0710677E-1,1.40082445E-2,1.0106E3,6.5E1,1.0175E3,8E-1,-7.268663E-2,2E0,8.8083684E-2,1.0029E3,-9.238795E-1,3.9E1,8.4E1,9.238795E-1,1.0063E3,-7.266069E-2,1.0141E3,3.1E1,-9.238795E-1,2.6E1,3.7E1,-6.32379E-3,-7.273981E-2,2E1,1.29E1,1.0169E3,1.7E1,4.5E0,-7.259038E-2,8.80229E-2,-7.252954E-2,8.810802E-2,7.7E1,5.2327648E-2,6E0,-7.259038E-2,6.797815E-2,7.0710677E-1,9E0,-6.668685E-2,5.2327648E-2,-7.252954E-2,6.2414166E-2,6.521884E-2,-7.259038E-2,-7.271319E-2,5.2327648E-2,-7.256502E-2,5.00142E-2,4.1623034E-2,-7.252954E-2,2.1233449E-2,6.961584E-2,-6.9800936E-2,-6.3351733E-3,5.2327648E-2,8.80229E-2,-7.299376E-3,4.34824E-2,-5.911776E-2,-5.6227334E-3,1.40082445E-2,7.411046E-2,7.135487E-2,2.4841297E-3,6.797815E-2,8.813738E-2,6.560662E-2,-6.32379E-3,5.2327648E-2,8.809889E-2],"split_indices":[7,9,3,7,18,7,9,18,14,0,7,8,0,7,13,3,7,7,15,0,8,3,9,2,0,0,0,8,14,3,7,13,9,0,8,5,15,4,3,0,0,4,0,8,5,0,0,0,0,0,7,0,4,0,0,18,4,0,0,0,0,0,0,0,0,0,0,0,0,0,0,0,0,0,0,0,0,0,0,0,0,0,0,0,0,0,0,0,0],"split_type":[0,0,0,0,0,0,0,0,0,0,0,0,0,0,0,0,0,0,0,0,0,0,0,0,0,0,0,0,0,0,0,0,0,0,0,0,0,0,0,0,0,0,0,0,0,0,0,0,0,0,0,0,0,0,0,0,0,0,0,0,0,0,0,0,0,0,0,0,0,0,0,0,0,0,0,0,0,0,0,0,0,0,0,0,0,0,0,0,0],"sum_hessian":[4.799078E2,3.594838E2,1.2042403E2,1.1704569E2,2.424381E2,1.9985256E1,1.0043877E2,4.576074E1,7.128496E1,8.967752E1,1.5276059E2,1.0912943E1,9.072312E0,7.9442055E1,2.0996716E1,2.8627571E1,1.7133165E1,2.4069016E1,4.7215942E1,1.6135455E0,8.806397E1,5.7743687E1,9.50169E1,6.206473E0,4.7064705E0,3.8498006E0,5.222512E0,3.194403E1,4.7498024E1,3.722509E0,1.7274206E1,2.4282352E1,4.3452187E0,3.2202165E0,1.3912949E1,1.003565E1,1.4033366E1,9.808565E0,3.7407375E1,2.1089635E0,8.595501E1,5.40143E1,3.7293835E0,4.121593E1,5.3800964E1,4.4725103E0,1.7339628E0,2.611256E0,1.2385448E0,8.704186E0,2.3239845E1,1.1181276E0,4.6379894E1,1.7339628E0,1.9885461E0,9.19273E0,8.081476E0,2.3164225E1,1.1181276E0,1.2385448E0,3.1066737E0,1.2178986E1,1.7339628E0,8.917522E0,1.1181276E0,1.4862537E0,1.2547112E1,8.57002E0,1.2385448E0,2.979382E0,3.4427994E1,4.7687412E1,6.3268905E0,1.1181276E0,2.611256E0,1.7119417E1,2.4096514E1,3.0850077E1,2.2950888E1,1.6135455E0,2.8589647E0,2.137859E1,1.8612545E0,1.9885461E0,4.439135E1,7.083766E0,2.1089635E0,1.1181276E0,6.963349E0],"tree_param":{"num_deleted":"0","num_feature":"19","num_nodes":"89","size_leaf_vector":"1"}},{"base_weights":[6.601376E-2,-9.490602E-1,9.935215E-1,-1.69451E0,1.1199128E-1,4.114397E-1,1.3388064E0,-1.8809768E0,-2.0387189E-1,-2.1058618E-1,1.1162649E0,1.0489714E-1,8.936393E-1,7.7194244E-1,1.435231E0,-2.050892E0,-9.3991226E-1,-1.0324994E-1,2.1360801E-1,3.3199102E-1,-9.9525243E-1,1.3198755E0,-4.7855774E-1,3.8186952E-1,-1.2091639E0,3.4182006E-1,1.1724463E0,9.5403206E-1,-1.1814054E0,1.2890041E0,1.5911815E0,-2.1919458E0,-1.0346428E0,-2.513655E-1,-1.03326224E-1,1.3455575E0,-1.0444422E-1,6.1720115E-1,-6.1969167E-1,-7.893296E-1,-1.032933E-1,1.4693605E0,9.137073E-1,-1.03157125E-1,6.4712465E-2,4.873185E-1,-1.4946601E0,-1.8702309E0,9.5294255E-1,5.8367217E-1,-1.0306818E-1,2.237065E-1,1.35581E0,1.1370773E0,-1.0331528E0,2.7482437E-2,-1.0312004E-1,1.3331708E0,2.6891303E-1,2.7482437E-2,6.388069E-2,-9.651495E-2,-7.66424E-2,-8.669711E-2,1.0724008E-2,-6.956525E-2,9.997483E-3,6.475991E-2,2.7482437E-2,-1.03184946E-1,1.3226496E-2,7.875644E-5,3.6429163E-2,-7.584809E-2,1.0724008E-2,-1.0326851E-1,-2.3450077E-2,4.6539955E-2,6.483596E-2,-2.4648977E-2,5.7196368E-2,3.410681E-2,4.722642E-3,-1.032066E-1,2.7482437E-2,-1.03329696E-1,1.449711E-2,3.8115857E-3,6.4712465E-2,-4.117451E-2,3.5251863E-2,-1.0306818E-1,4.3854814E-2,1.449711E-2,5.803985E-2,5.2728057E-2,1.4510613E-2,-1.0306818E-1,2.7482437E-2,3.087659E-2,5.5892184E-2,6.4712465E-2,-3.388059E-2],"categories":[],"categories_nodes":[],"categories_segments":[],"categories_sizes":[],"default_left":[0,0,0,0,0,0,0,0,0,0,0,0,0,0,0,0,0,0,0,0,0,0,0,0,0,0,0,0,0,0,0,0,0,0,0,0,0,0,0,0,0,0,0,0,0,0,0,0,0,0,0,0,0,0,0,0,0,0,0,0,0,0,0,0,0,0,0,0,0,0,0,0,0,0,0,0,0,0,0,0,0,0,0,0,0,0,0,0,0,0,0,0,0,0,0,0,0,0,0,0,0,0,0],"id":9,"left_children":[1,3,5,7,9,11,13,15,17,19,21,23,25,27,29,31,33,-1,35,37,39,41,43,45,47,49,51,53,55,57,59,61,63,65,-1,67,69,71,73,75,-1,77,79,-1,-1,81,83,85,87,89,-1,91,93,95,97,-1,-1,99,101,-1,-1,-1,-1,-1,-1,-1,-1,-1,-1,-1,-1,-1,-1,-1,-1,-1,-1,-1,-1,-1,-1,-1,-1,-1,-1,-1,-1,-1,-1,-1,-1,-1,-1,-1,-1,-1,-1,-1,-1,-1,-1,-1,-1],"loss_changes":[5.770817E2,2.3148209E2,6.437024E1,4.777655E1,3.91246E1,1.7627348E1,1.0983826E1,2.442218E1,1.905121E1,3.8918453E1,9.536755E0,2.653855E1,7.128807E0,1.0401522E1,3.909729E0,1.8541565E1,2.659552E1,0E0,5.8595753E0,1.4670425E1,1.227787E1,1.5754585E0,1.4769875E1,1.1918916E1,1.8149267E1,1.1024998E1,5.354618E0,9.731482E0,6.56822E0,3.9938354E0,8.734131E-1,7.0028687E0,2.3470999E1,1.2386351E1,0E0,6.4960384E-1,1.3779373E1,7.5949593E0,1.4219626E1,1.1978926E1,0E0,8.9624405E-1,5.608054E0,0E0,0E0,7.748867E0,7.671852E0,1.5697281E1,1.7094498E0,6.997339E0,0E0,1.2305022E1,2.5706787E0,3.5181255E0,6.045912E0,0E0,0E0,3.2839508E0,5.5921955E0,0E0,0E0,0E0,0E0,0E0,0E0,0E0,0E0,0E0,0E0,0E0,0E0,0E0,0E0,0E0,0E0,0E0,0E0,0E0,0E0,0E0,0E0,0E0,0E0,0E0,0E0,0E0,0E0,0E0,0E0,0E0,0E0,0E0,0E0,0E0,0E0,0E0,0E0,0E0,0E0,0E0,0E0,0E0,0E0],"parents":[2147483647,0,0,1,1,2,2,3,3,4,4,5,5,6,6,7,7,8,8,9,9,10,10,11,11,12,12,13,13,14,14,15,15,16,16,18,18,19,19,20,20,21,21,22,22,23,23,24,24,25,25,26,26,27,27,28,28,29,29,30,30,31,31,32,32,33,33,35,35,36,36,37,37,38,38,39,39,41,41,42,42,45,45,46,46,47,47,48,48,49,49,51,51,52,52,53,53,54,54,57,57,58,58],"right_children":[2,4,6,8,10,12,14,16,18,20,22,24,26,28,30,32,34,-1,36,38,40,42,44,46,48,50,52,54,56,58,60,62,64,66,-1,68,70,72,74,76,-1,78,80,-1,-1,82,84,86,88,90,-1,92,94,96,98,-1,-1,100,102,-1,-1,-1,-1,-1,-1,-1,-1,-1,-1,-1,-1,-1,-1,-1,-1,-1,-1,-1,-1,-1,-1,-1,-1,-1,-1,-1,-1,-1,-1,-1,-1,-1,-1,-1,-1,-1,-1,-1,-1,-1,-1,-1,-1],"split_conditions":[6E-1,2.27E1,6.8E1,5E1,7.3E1,4.8E1,3.1E1,1.016E3,1.85E1,-1.8369701E-16,3.1E1,1.016E3,1.0128E3,1.0146E3,8E1,6.8E1,1.0201E3,-1.0324994E-1,1.9E1,1.0142E3,1.0135E3,7.0710677E-1,9.238795E-1,9.238795E-1,1.0191E3,2.6E1,5.4E1,2.52E1,2.6E1,2.89E1,1.92E1,1.97E1,1.0122E3,4.8E1,-1.03326224E-1,2E-1,2.31E1,5.7E1,2.8E1,1.0071E3,-1.032933E-1,1.5E1,2.44E1,-1.03157125E-1,6.4712465E-2,2.7E1,2.44E1,2.4E1,1.9E1,5E1,-1.0306818E-1,2.4E0,2.43E1,3E1,2.64E1,2.7482437E-2,-1.0312004E-1,2.4E1,3E0,2.7482437E-2,6.388069E-2,-9.651495E-2,-7.66424E-2,-8.669711E-2,1.0724008E-2,-6.956525E-2,9.997483E-3,6.475991E-2,2.7482437E-2,-1.03184946E-1,1.3226496E-2,7.875644E-5,3.6429163E-2,-7.584809E-2,1.0724008E-2,-1.0326851E-1,-2.3450077E-2,4.6539955E-2,6.483596E-2,-2.4648977E-2,5.7196368E-2,3.410681E-2,4.722642E-3,-1.032066E-1,2.7482437E-2,-1.03329696E-1,1.449711E-2,3.8115857E-3,6.4712465E-2,-4.117451E-2,3.5251863E-2,-1.0306818E-1,4.3854814E-2,1.449711E-2,5.803985E-2,5.2728057E-2,1.4510613E-2,-1.0306818E-1,2.7482437E-2,3.087659E-2,5.5892184E-2,6.4712465E-2,-3.388059E-2],"split_indices":[2,0,7,3,7,3,3,9,0,14,11,8,9,8,7,7,8,0,0,8,8,18,15,18,8,4,7,0,3,10,0,0,9,7,0,2,10,7,5,8,0,4,0,0,0,10,0,4,0,3,0,2,11,11,0,0,0,11,2,0,0,0,0,0,0,0,0,0,0,0,0,0,0,0,0,0,0,0,0,0,0,0,0,0,0,0,0,0,0,0,0,0,0,0,0,0,0,0,0,0,0,0,0],"split_type":[0,0,0,0,0,0,0,0,0,0,0,0,0,0,0,0,0,0,0,0,0,0,0,0,0,0,0,0,0,0,0,0,0,0,0,0,0,0,0,0,0,0,0,0,0,0,0,0,0,0,0,0,0,0,0,0,0,0,0,0,0,0,0,0,0,0,0,0,0,0,0,0,0,0,0,0,0,0,0,0,0,0,0,0,0,0,0,0,0,0,0,0,0,0,0,0,0,0,0,0,0,0,0],"sum_hessian":[6.129389E2,2.9265445E2,3.202845E2,1.7189005E2,1.2076439E2,1.1925418E2,2.0103029E2,1.5277765E2,1.9112396E1,9.140654E1,2.9357845E1,7.290938E1,4.6344803E1,2.9229538E1,1.7180075E2,1.294078E2,2.3369846E1,2.8426828E0,1.6269714E1,5.4040447E1,3.7366093E1,2.6034807E1,3.3230374E0,6.021932E1,1.26900625E1,1.5559043E1,3.078576E1,2.6738903E1,2.4906344E0,8.86822E1,8.311856E1,1.136316E2,1.577621E1,1.6500029E1,6.869817E0,3.566502E0,1.2703212E1,4.15807E1,1.2459747E1,3.310207E1,4.2640243E0,1.9023535E1,7.011272E0,1.6582316E0,1.6648059E0,5.7018013E1,3.2013052E0,9.719073E0,2.9709892E0,1.4374592E1,1.1844511E0,4.9878435E0,2.5797916E1,2.4485159E1,2.2537444E0,1.0692931E0,1.4213414E0,8.5000534E1,3.68166E0,1.0692931E0,8.204927E1,6.1245987E1,5.2385612E1,8.41289E0,7.36332E0,4.148866E0,1.2351163E1,2.4972088E0,1.0692931E0,1.8951218E0,1.0808089E1,1.3535614E1,2.8045088E1,5.096427E0,7.36332E0,3.3164632E0,2.9785604E1,6.5374913E0,1.2486044E1,1.7799639E0,5.231308E0,2.8518867E1,2.8499144E1,2.1320121E0,1.0692931E0,7.343597E0,2.3754766E0,1.3061833E0,1.6648059E0,2.2537444E0,1.2120848E1,1.1844511E0,3.8033922E0,2.3754766E0,2.342244E1,1.9734205E1,4.750953E0,1.1844511E0,1.0692931E0,9.386748E0,7.5613785E1,1.6648059E0,2.016854E0],"tree_param":{"num_deleted":"0","num_feature":"19","num_nodes":"103","size_leaf_vector":"1"}},{"base_weights":[-2.999594E-2,-7.930336E-1,1.1515801E0,3.8942623E-1,-1.2865331E0,1.5846124E0,5.3943735E-1,-1.8012006E0,5.776483E-1,-1.6697166E0,-8.925484E-1,1.0950279E0,1.7022766E0,6.237515E-1,-8.912533E-2,-8.919536E-2,1.3476031E-2,4.3523017E-2,1.3027546E0,-1.7722787E0,-5.691187E-1,-4.5199934E-1,-1.4462619E0,-3.4667036E-1,1.343218E0,1.6029269E0,7.2005905E-2,1.0756586E0,2.1770541E-1,-1.6583087E0,2.5926536E-1,1.5967072E0,8.612345E-1,-2.0042546E0,-1.316768E0,5.959148E-1,-1.6067284E0,-2.5696285E-2,-1.9958208E0,-1.5427107E0,3.3869922E-1,-8.9027025E-2,3.622449E-2,1.4560599E0,-2.2419845E-3,1.0947013E0,1.6969407E0,6.8195426E-1,1.442217E0,-1.4262794E0,3.838199E-1,-8.91785E-2,3.616234E-2,-2.2683743E-2,2.5031742E-2,7.1985856E-2,5.7117805E-2,-8.9027025E-2,4.7060024E-2,-5.0851185E-2,-8.691146E-2,-4.843186E-3,-6.5737456E-2,6.1239798E-2,-8.8983834E-2,-8.9171275E-2,3.616234E-2,-6.2862314E-2,5.9653833E-3,-8.9217E-2,-2.9635936E-2,-4.395818E-2,-8.922709E-2,-2.2419845E-3,3.616234E-2,6.877816E-2,4.0369235E-2,6.5673284E-2,-2.2646157E-2,4.623992E-2,6.918702E-2,-3.0371168E-4,5.9303526E-2,6.853488E-2,4.5207433E-2,3.616234E-2,-8.914351E-2,-3.198046E-3,3.6279894E-2],"categories":[],"categories_nodes":[],"categories_segments":[],"categories_sizes":[],"default_left":[0,0,0,0,0,0,0,0,0,0,0,0,0,0,0,0,0,0,0,0,0,0,0,0,0,0,0,0,0,0,0,0,0,0,0,0,0,0,0,0,0,0,0,0,0,0,0,0,0,0,0,0,0,0,0,0,0,0,0,0,0,0,0,0,0,0,0,0,0,0,0,0,0,0,0,0,0,0,0,0,0,0,0,0,0,0,0,0,0],"id":10,"left_children":[1,3,5,7,9,11,13,15,17,19,21,23,25,27,-1,-1,-1,29,31,33,35,37,39,41,43,45,-1,47,49,51,53,55,57,59,61,63,65,67,69,71,73,-1,-1,75,-1,77,79,81,83,85,87,-1,-1,-1,-1,-1,-1,-1,-1,-1,-1,-1,-1,-1,-1,-1,-1,-1,-1,-1,-1,-1,-1,-1,-1,-1,-1,-1,-1,-1,-1,-1,-1,-1,-1,-1,-1,-1,-1],"loss_changes":[5.1193094E2,2.0133064E2,5.9055756E1,4.1892624E1,3.6742767E1,7.5095215E0,2.1609442E1,7.5171432E0,3.6234066E1,1.3924744E1,2.9276108E1,9.052734E0,1.0809937E0,1.6439278E1,0E0,0E0,0E0,1.9782494E1,5.144783E0,1.1917053E1,1.2725907E1,4.399494E1,9.157677E0,8.816417E0,3.40876E0,2.5708008E0,0E0,6.115181E0,1.289073E1,9.018339E0,1.46127405E1,8.06057E-1,1.5705906E1,9.603729E0,1.51495285E1,1.3210351E1,8.836677E0,1.4257504E1,4.3912926E0,1.5435516E1,6.134081E-1,0E0,0E0,2.37986E0,0E0,7.761861E0,9.4750977E-1,1.1368604E1,1.8676834E0,8.201149E0,1.0475155E1,0E0,0E0,0E0,0E0,0E0,0E0,0E0,0E0,0E0,0E0,0E0,0E0,0E0,0E0,0E0,0E0,0E0,0E0,0E0,0E0,0E0,0E0,0E0,0E0,0E0,0E0,0E0,0E0,0E0,0E0,0E0,0E0,0E0,0E0,0E0,0E0,0E0,0E0],"parents":[2147483647,0,0,1,1,2,2,3,3,4,4,5,5,6,6,7,7,8,8,9,9,10,10,11,11,12,12,13,13,17,17,18,18,19,19,20,20,21,21,22,22,23,23,24,24,25,25,27,27,28,28,29,29,30,30,31,31,32,32,33,33,34,34,35,35,36,36,37,37,38,38,39,39,40,40,43,43,45,45,46,46,47,47,48,48,49,49,50,50],"right_children":[2,4,6,8,10,12,14,16,18,20,22,24,26,28,-1,-1,-1,30,32,34,36,38,40,42,44,46,-1,48,50,52,54,56,58,60,62,64,66,68,70,72,74,-1,-1,76,-1,78,80,82,84,86,88,-1,-1,-1,-1,-1,-1,-1,-1,-1,-1,-1,-1,-1,-1,-1,-1,-1,-1,-1,-1,-1,-1,-1,-1,-1,-1,-1,-1,-1,-1,-1,-1,-1,-1,-1,-1,-1,-1],"split_conditions":[7.5E1,1.0109E3,1.0143E3,2E1,-1.8369701E-16,8.3E1,1.0317E3,4.6E1,3.3E1,9.238795E-1,1.0178E3,-3.8268343E-1,4E0,-3.8268343E-1,-8.912533E-2,-8.919536E-2,1.3476031E-2,-7.0710677E-1,1.92E1,6.2E1,1.7E1,2.48E1,1.4E1,7.8E1,1.0129E3,-3.8268343E-1,7.2005905E-2,2.2E1,1.9E0,1.9E1,4E1,0E0,1.39E1,3.5E1,1.0167E3,1.0241E3,3.1E1,3.5E1,9.238795E-1,1.54E1,3.9E1,-8.9027025E-2,3.622449E-2,1.19E1,-2.2419845E-3,2.2E1,1.5E0,9.1E1,8E-1,1.0164E3,9.2E1,-8.91785E-2,3.616234E-2,-2.2683743E-2,2.5031742E-2,7.1985856E-2,5.7117805E-2,-8.9027025E-2,4.7060024E-2,-5.0851185E-2,-8.691146E-2,-4.843186E-3,-6.5737456E-2,6.1239798E-2,-8.8983834E-2,-8.9171275E-2,3.616234E-2,-6.2862314E-2,5.9653833E-3,-8.9217E-2,-2.9635936E-2,-4.395818E-2,-8.922709E-2,-2.2419845E-3,3.616234E-2,6.877816E-2,4.0369235E-2,6.5673284E-2,-2.2646157E-2,4.623992E-2,6.918702E-2,-3.0371168E-4,5.9303526E-2,6.853488E-2,4.5207433E-2,3.616234E-2,-8.914351E-2,-3.198046E-3,3.6279894E-2],"split_indices":[7,9,9,7,18,7,8,5,5,15,9,18,2,17,0,0,0,18,11,7,4,11,0,7,9,18,0,5,0,10,7,15,10,3,8,8,5,3,15,11,7,0,0,11,0,4,0,7,2,9,7,0,0,0,0,0,0,0,0,0,0,0,0,0,0,0,0,0,0,0,0,0,0,0,0,0,0,0,0,0,0,0,0,0,0,0,0,0,0],"split_type":[0,0,0,0,0,0,0,0,0,0,0,0,0,0,0,0,0,0,0,0,0,0,0,0,0,0,0,0,0,0,0,0,0,0,0,0,0,0,0,0,0,0,0,0,0,0,0,0,0,0,0,0,0,0,0,0,0,0,0,0,0,0,0,0,0,0,0,0,0,0,0,0,0,0,0,0,0,0,0,0,0,0,0,0,0,0,0,0,0],"sum_hessian":[5.678041E2,3.4500705E2,2.2279706E2,1.01590065E2,2.4341698E2,1.3048523E2,9.2311844E1,8.035641E0,9.355443E1,1.2339392E2,1.20023056E2,2.5291092E1,1.0519413E2,8.959325E1,2.7185946E0,6.6729136E0,1.3627267E0,5.3874058E1,3.968037E1,1.12873116E2,1.0520807E1,6.684573E1,5.317732E1,3.7140331E0,2.1577059E1,5.3956364E1,5.123777E1,4.2398964E1,4.7194283E1,6.0584807E0,4.7815575E1,2.381508E1,1.5865289E1,7.4778496E1,3.8094616E1,4.956617E0,5.564191E0,5.2384327E1,1.446141E1,5.0451866E1,2.7254534E0,1.4828697E0,2.2311635E0,1.9967186E1,1.6098716E0,8.430364E0,4.5526E1,2.044776E1,2.1951204E1,4.328466E0,4.2865818E1,4.942899E0,1.1155818E0,1.4729131E1,3.3086445E1,1.0421241E1,1.3393839E1,1.4828697E0,1.438242E1,1.459527E1,6.0183224E1,8.296503E0,2.9798115E1,3.720892E0,1.2357248E0,4.4486094E0,1.1155818E0,5.3170457E0,4.7067284E1,1.2110103E1,2.3513064E0,3.0927414E1,1.952445E1,1.6098716E0,1.1155818E0,1.2405259E1,7.561927E0,6.3262024E0,2.1041615E0,3.0996E0,4.24264E1,1.1021956E1,9.425802E0,1.1536822E1,1.0414382E1,1.1155818E0,3.2128844E0,2.2785347E1,2.0080471E1],"tree_param":{"num_deleted":"0","num_feature":"19","num_nodes":"89","size_leaf_vector":"1"}},{"base_weights":[-5.052329E-2,-8.9845437E-1,1.3400868E0,-1.3500054E0,-2.757266E-1,8.6150646E-1,1.8087541E0,-1.8015369E0,-7.8750485E-1,-3.9337322E-1,7.2490156E-1,1.0375648E0,-1.2264933E-2,1.5689765E0,1.9954481E0,-5.098343E-1,-1.8292845E0,-6.630175E-2,-1.2743983E0,-4.5607176E-1,1.7446119E0,1.7951716E0,2.6858392E-1,-2.870845E-1,1.1744102E0,3.4901354E-1,-7.912969E-2,6.740525E-3,1.6187382E0,6.0215693E-2,8.017971E-2,-7.9004794E-2,4.4717975E-2,-5.098343E-1,-1.8582513E0,-5.260006E-1,8.1502336E-1,1.695182E-1,-1.4175576E0,-7.773474E-2,-7.760851E-1,8.007453E-2,4.4717975E-2,8.0102034E-2,4.4717975E-2,-7.904292E-2,6.2859565E-1,-9.0753084E-1,8.0019556E-2,1.8302547E0,1.0693046E0,-3.3701393E-1,1.2444822E0,8.0161035E-2,1.4743338E0,4.4717975E-2,-7.9004794E-2,-6.1448902E-2,-7.757591E-2,5.3190384E-3,-6.3866876E-2,6.30662E-4,7.2917566E-2,3.629465E-2,-7.9004794E-2,-6.0871027E-2,6.283251E-4,-2.0351034E-2,1.3143446E-2,-5.0150022E-2,-7.0810104E-3,4.4842254E-2,-2.5914812E-2,6.0215693E-2,-7.917024E-2,6.02709E-2,8.0143325E-2,-2.5914812E-2,4.5332357E-2,-7.9138376E-2,2.234356E-2,2.8867738E-2,8.007453E-2,-7.9004794E-2,6.4106666E-2],"categories":[],"categories_nodes":[],"categories_segments":[],"categories_sizes":[],"default_left":[0,0,0,0,0,0,0,0,0,0,0,0,0,0,0,0,0,0,0,0,0,0,0,0,0,0,0,0,0,0,0,0,0,0,0,0,0,0,0,0,0,0,0,0,0,0,0,0,0,0,0,0,0,0,0,0,0,0,0,0,0,0,0,0,0,0,0,0,0,0,0,0,0,0,0,0,0,0,0,0,0,0,0,0,0],"id":11,"left_children":[1,3,5,7,9,11,13,15,17,19,21,23,25,27,29,31,33,35,37,39,41,43,45,47,49,51,-1,-1,53,-1,-1,-1,-1,55,57,59,61,63,65,67,69,-1,-1,-1,-1,-1,71,73,-1,75,77,79,81,-1,83,-1,-1,-1,-1,-1,-1,-1,-1,-1,-1,-1,-1,-1,-1,-1,-1,-1,-1,-1,-1,-1,-1,-1,-1,-1,-1,-1,-1,-1,-1],"loss_changes":[6.671807E2,9.883597E1,4.8065674E1,5.1743835E1,1.7393833E1,1.6314278E1,4.835144E0,4.046814E0,3.1859955E1,1.7724419E1,7.589283E0,1.600129E1,1.2683628E1,3.3014984E0,4.726715E-1,5.731675E0,4.22464E0,1.4818115E1,1.1197655E1,1.5550468E1,6.117153E-1,6.626377E-1,8.842584E0,1.1777202E1,5.5068893E0,9.239611E0,0E0,0E0,2.5849457E0,0E0,0E0,0E0,0E0,5.731675E0,3.0123596E0,1.7066494E1,1.0165921E1,7.8031497E0,7.757675E0,1.0385492E1,2.0080818E1,0E0,0E0,0E0,0E0,0E0,5.9738035E0,1.6999126E1,0E0,6.2280655E-1,8.087143E0,1.2609525E1,2.589079E0,0E0,1.5551369E1,0E0,0E0,0E0,0E0,0E0,0E0,0E0,0E0,0E0,0E0,0E0,0E0,0E0,0E0,0E0,0E0,0E0,0E0,0E0,0E0,0E0,0E0,0E0,0E0,0E0,0E0,0E0,0E0,0E0,0E0],"parents":[2147483647,0,0,1,1,2,2,3,3,4,4,5,5,6,6,7,7,8,8,9,9,10,10,11,11,12,12,13,13,14,14,15,15,16,16,17,17,18,18,19,19,20,20,21,21,22,22,23,23,24,24,25,25,28,28,33,33,34,34,35,35,36,36,37,37,38,38,39,39,40,40,46,46,47,47,49,49,50,50,51,51,52,52,54,54],"right_children":[2,4,6,8,10,12,14,16,18,20,22,24,26,28,30,32,34,36,38,40,42,44,46,48,50,52,-1,-1,54,-1,-1,-1,-1,56,58,60,62,64,66,68,70,-1,-1,-1,-1,-1,72,74,-1,76,78,80,82,-1,84,-1,-1,-1,-1,-1,-1,-1,-1,-1,-1,-1,-1,-1,-1,-1,-1,-1,-1,-1,-1,-1,-1,-1,-1,-1,-1,-1,-1,-1,-1],"split_conditions":[6.2E1,1.81E1,7.2E1,5E1,2.32E1,7.0710677E-1,8.2E1,1.0093E3,2.2E1,5E1,2.76E1,2E1,7.0710677E-1,1.26E1,4E0,1.48E1,1.72E1,1.0235E3,-7.0710677E-1,2.78E1,2.2E1,1.4E0,2.81E1,2.18E1,1.45E1,7E0,-7.912969E-2,6.740525E-3,1.55E1,6.0215693E-2,8.017971E-2,-7.9004794E-2,4.4717975E-2,7E0,-3.8268343E-1,7E0,1.85E1,1.0147E3,5.4E0,3.1E1,5.4E1,8.007453E-2,4.4717975E-2,8.0102034E-2,4.4717975E-2,-7.904292E-2,3.16E1,1.88E1,8.0019556E-2,1.23E1,2.2E1,1.0149E3,1.1E1,8.0161035E-2,1.92E1,4.4717975E-2,-7.9004794E-2,-6.1448902E-2,-7.757591E-2,5.3190384E-3,-6.3866876E-2,6.30662E-4,7.2917566E-2,3.629465E-2,-7.9004794E-2,-6.0871027E-2,6.283251E-4,-2.0351034E-2,1.3143446E-2,-5.0150022E-2,-7.0810104E-3,4.4842254E-2,-2.5914812E-2,6.0215693E-2,-7.917024E-2,6.02709E-2,8.0143325E-2,-2.5914812E-2,4.5332357E-2,-7.9138376E-2,2.234356E-2,2.8867738E-2,8.007453E-2,-7.9004794E-2,6.4106666E-2],"split_indices":[7,0,7,7,0,14,7,8,11,3,10,3,15,0,5,0,11,9,13,11,0,2,10,10,0,4,0,0,0,0,0,0,0,5,18,4,10,9,2,3,7,0,0,0,0,0,11,11,0,0,3,8,4,0,10,0,0,0,0,0,0,0,0,0,0,0,0,0,0,0,0,0,0,0,0,0,0,0,0,0,0,0,0,0,0],"split_type":[0,0,0,0,0,0,0,0,0,0,0,0,0,0,0,0,0,0,0,0,0,0,0,0,0,0,0,0,0,0,0,0,0,0,0,0,0,0,0,0,0,0,0,0,0,0,0,0,0,0,0,0,0,0,0,0,0,0,0,0,0,0,0,0,0,0,0,0,0,0,0,0,0,0,0,0,0,0,0,0,0,0,0,0,0],"sum_hessian":[5.658122E2,3.5149063E2,2.143216E2,2.0374611E2,1.4774452E2,1.0604456E2,1.0827703E2,1.1301679E2,9.072931E1,1.3220345E2,1.5541076E1,8.8260506E1,1.7784058E1,4.741483E1,6.08622E1,2.3783844E0,1.10638405E2,3.656808E1,5.4161232E1,1.284397E2,3.7637424E0,4.64218E0,1.0898895E1,8.263582E0,7.9996925E1,1.5034156E1,2.7499022E0,1.6284112E0,4.578642E1,2.0068667E0,5.8855335E1,1.2499555E0,1.1284289E0,2.3783844E0,1.08260025E2,2.4033836E1,1.2534245E1,4.8852334E0,4.9276E1,5.8858917E1,6.958078E1,2.6353135E0,1.1284289E0,3.5137513E0,1.1284289E0,1.4999466E0,9.398949E0,6.5067067E0,1.7568756E0,1.1041236E1,6.895569E1,8.513574E0,6.520582E0,1.2298129E1,3.348829E1,1.1284289E0,1.2499555E0,2.3634565E1,8.462546E1,1.4905691E1,9.128144E0,7.0136266E0,5.520618E0,3.6352777E0,1.2499555E0,4.5769184E1,3.5068133E0,2.8540613E1,3.0318302E1,3.8526382E1,3.10544E1,6.7705736E0,2.6283755E0,2.0068667E0,4.49984E0,4.0137334E0,7.0275025E0,2.6283755E0,6.632732E1,2.9998932E0,5.51368E0,3.885269E0,2.6353135E0,1.2499555E0,3.223833E1],"tree_param":{"num_deleted":"0","num_feature":"19","num_nodes":"85","size_leaf_vector":"1"}},{"base_weights":[-8.185286E-2,-5.399489E-1,1.607643E0,3.12942E-1,-1.1451404E0,1.1168977E0,2.0638885E0,-9.773642E-1,7.478981E-1,-1.6919761E0,-1.0432204E0,-7.010766E-1,1.396057E0,1.6894684E0,2.203589E0,-1.3575923E0,8.8351065E-1,-1.2314871E-1,1.176556E0,-7.155645E-2,-6.5694E-1,2.6373935E-1,-1.1074519E0,-7.149888E-2,4.155787E-2,-9.325404E-1,1.6474411E0,1.9298859E0,3.9473656E-3,6.969184E-2,8.881618E-2,-1.4552559E0,5.3979296E-2,1.8411888E0,-7.141416E-2,3.5364497E-1,-7.153382E-2,7.0845586E-1,1.7033298E0,5.3979296E-2,-7.143297E-2,-7.149448E-2,1.8411888E0,-1.2662138E0,-4.608037E-1,5.3979296E-2,-7.14769E-2,1.9706378E0,7.2131836E-1,8.9907266E-2,3.9473656E-3,-7.4565347E-4,-6.63739E-2,8.984503E-2,3.1268056E-2,7.913397E-2,4.6860683E-3,-3.4949392E-2,3.4798887E-2,4.1608766E-2,8.154586E-2,3.1268056E-2,8.984503E-2,-3.0437805E-2,-6.087207E-2,-3.6485907E-2,2.3925493E-2,8.237334E-2,1.5515083E-2,5.412907E-2,-2.61812E-2],"categories":[],"categories_nodes":[],"categories_segments":[],"categories_sizes":[],"default_left":[0,0,0,0,0,0,0,0,0,0,0,0,0,0,0,0,0,0,0,0,0,0,0,0,0,0,0,0,0,0,0,0,0,0,0,0,0,0,0,0,0,0,0,0,0,0,0,0,0,0,0,0,0,0,0,0,0,0,0,0,0,0,0,0,0,0,0,0,0,0,0],"id":12,"left_children":[1,3,5,7,9,11,13,15,17,19,21,23,25,27,29,31,33,35,37,-1,39,41,43,-1,-1,45,47,49,-1,-1,-1,51,-1,53,-1,55,-1,57,59,-1,-1,-1,61,63,65,-1,-1,67,69,-1,-1,-1,-1,-1,-1,-1,-1,-1,-1,-1,-1,-1,-1,-1,-1,-1,-1,-1,-1,-1,-1],"loss_changes":[3.6338547E2,1.9065543E2,2.2414917E1,8.60454E1,1.2034668E1,2.4495518E1,2.7002716E0,2.735342E1,4.2813843E1,3.631363E0,1.5290375E1,1.2254904E1,2.449562E1,5.3964424E0,4.1467285E-1,8.508163E0,1.6819025E1,3.014885E1,1.8943962E1,0E0,7.068887E0,2.7711626E1,1.7819199E1,0E0,0E0,8.039109E0,1.1296959E1,7.319092E0,0E0,0E0,0E0,9.354927E0,0E0,2.1026669E0,0E0,1.1336376E1,0E0,1.0630169E1,8.163002E0,0E0,0E0,0E0,2.1026669E0,1.8286575E1,1.651564E1,0E0,0E0,4.257843E0,8.583481E0,0E0,0E0,0E0,0E0,0E0,0E0,0E0,0E0,0E0,0E0,0E0,0E0,0E0,0E0,0E0,0E0,0E0,0E0,0E0,0E0,0E0,0E0],"parents":[2147483647,0,0,1,1,2,2,3,3,4,4,5,5,6,6,7,7,8,8,9,9,10,10,11,11,12,12,13,13,14,14,15,15,16,16,17,17,18,18,20,20,21,21,22,22,25,25,26,26,27,27,31,31,33,33,35,35,37,37,38,38,42,42,43,43,44,44,47,47,48,48],"right_children":[2,4,6,8,10,12,14,16,18,20,22,24,26,28,30,32,34,36,38,-1,40,42,44,-1,-1,46,48,50,-1,-1,-1,52,-1,54,-1,56,-1,58,60,-1,-1,-1,62,64,66,-1,-1,68,70,-1,-1,-1,-1,-1,-1,-1,-1,-1,-1,-1,-1,-1,-1,-1,-1,-1,-1,-1,-1,-1,-1],"split_conditions":[6.8E1,1.0134E3,8E1,3.2E1,2.8E1,3.3E1,8.6E1,6.5E1,8.8E0,6.3E1,-9.238795E-1,9.238795E-1,9.8E0,2.6E1,1.0057E3,1.018E3,2.3E1,1.0118E3,4.8E1,-7.155645E-2,-3.8268343E-1,0E0,1.0265E3,-7.149888E-2,4.155787E-2,7E0,2.6E1,1.023E3,3.9473656E-3,6.969184E-2,8.881618E-2,-1.8369701E-16,5.3979296E-2,1.05E1,-7.141416E-2,1.004E3,-7.153382E-2,-7.0710677E-1,4.6E1,5.3979296E-2,-7.143297E-2,-7.149448E-2,7.2E0,1.0161E3,5.4E1,5.3979296E-2,-7.14769E-2,1.75E1,7.4E0,8.9907266E-2,3.9473656E-3,-7.4565347E-4,-6.63739E-2,8.984503E-2,3.1268056E-2,7.913397E-2,4.6860683E-3,-3.4949392E-2,3.4798887E-2,4.1608766E-2,8.154586E-2,3.1268056E-2,8.984503E-2,-3.0437805E-2,-6.087207E-2,-3.6485907E-2,2.3925493E-2,8.237334E-2,1.5515083E-2,5.412907E-2,-2.61812E-2],"split_indices":[7,9,7,7,3,3,7,3,0,7,13,14,11,4,8,8,7,9,7,0,18,15,8,0,0,4,5,8,0,0,0,14,0,0,0,9,0,15,3,0,0,0,0,9,7,0,0,0,0,0,0,0,0,0,0,0,0,0,0,0,0,0,0,0,0,0,0,0,0,0,0],"split_type":[0,0,0,0,0,0,0,0,0,0,0,0,0,0,0,0,0,0,0,0,0,0,0,0,0,0,0,0,0,0,0,0,0,0,0,0,0,0,0,0,0,0,0,0,0,0,0,0,0,0,0,0,0,0,0,0,0,0,0,0,0,0,0,0,0,0,0,0,0,0,0],"sum_hessian":[4.6951297E2,3.6936465E2,1.00148315E2,1.533089E2,2.1605576E2,4.825601E1,5.1892303E1,3.8649437E1,1.1465947E2,3.393352E1,1.8212224E2,6.422721E0,4.183329E1,1.4113504E1,3.7778797E1,3.209306E1,6.5563755E0,3.7816578E1,7.6842896E1,3.0845541E1,3.0879784E0,8.53049E0,1.7359175E2,3.9482293E0,2.4744916E0,4.0750356E0,3.7758255E1,1.2259348E1,1.8541566E0,1.9809629E0,3.5797836E1,3.0979197E1,1.1138636E0,4.8290253E0,1.7273504E0,2.942659E1,8.389987E0,4.069203E1,3.615086E1,1.1138636E0,1.9741147E0,3.701465E0,4.8290253E0,1.3937038E2,3.4221375E1,1.1138636E0,2.961172E0,2.7987093E1,9.77116E0,1.0405191E1,1.8541566E0,3.9550776E0,2.7024118E1,3.4683971E0,1.3606279E0,3.7151616E0,2.5711428E1,3.8282714E0,3.686376E1,1.23724575E1,2.3778402E1,1.3606279E0,3.4683971E0,4.7673454E1,9.1696915E1,2.3956684E1,1.02646885E1,2.6379702E1,1.6073923E0,6.683182E0,3.0879784E0],"tree_param":{"num_deleted":"0","num_feature":"19","num_nodes":"71","size_leaf_vector":"1"}},{"base_weights":[1.6636192E-3,-1.0305306E0,9.030595E-1,-1.2753425E0,7.1051097E-1,1.2045848E0,1.3634259E-1,-2.022808E0,-8.9781564E-1,-9.812338E-2,9.2983913E-1,4.5227462E-1,1.3385483E0,-4.6221817E-1,1.2445734E0,-2.1451244E0,-6.0862523E-1,-3.333194E-1,-1.5838795E0,1.7694679E-1,1.3057582E0,-9.8214686E-2,8.8129467E-1,1.4871665E0,9.9258643E-1,-1.108737E0,8.448918E-2,6.633375E-1,1.4774281E0,-9.829688E-2,-1.699809E0,-1.5255696E0,4.6340384E-2,-1.3131303E0,1.1696233E-1,-1.0706193E0,-2.2194061E0,-9.8062605E-2,6.633375E-1,8.543336E-1,6.700114E-2,1.3888036E0,3.290504E-1,1.1805398E0,1.5820248E0,1.5924114E0,8.2173526E-1,8.441861E-2,-1.6095523E0,6.411065E-1,-1.200097E0,-9.8014034E-2,1.230139E0,7.027116E-3,6.264987E-2,-4.302384E-3,-8.005163E-2,7.027116E-3,-9.815989E-2,-9.82721E-2,-1.8322099E-2,1.1917409E-2,-5.1849376E-2,-2.0984307E-2,-7.086061E-2,7.027116E-3,-9.3130395E-2,-1.54569335E-2,5.8073927E-2,4.902505E-2,-2.094094E-2,3.0361474E-2,6.3172884E-2,-9.812338E-2,3.3301666E-2,5.1253047E-2,7.0415637E-3,6.344724E-2,3.028886E-2,3.028886E-2,6.700114E-2,4.1002337E-2,-3.2804594E-3,-9.8014034E-2,2.4919625E-2,-7.086061E-2,3.028886E-2,3.7467603E-2,-9.8097324E-2,-1.3448531E-2,-9.820163E-2,1.753222E-2,6.6967405E-2],"categories":[],"categories_nodes":[],"categories_segments":[],"categories_sizes":[],"default_left":[0,0,0,0,0,0,0,0,0,0,0,0,0,0,0,0,0,0,0,0,0,0,0,0,0,0,0,0,0,0,0,0,0,0,0,0,0,0,0,0,0,0,0,0,0,0,0,0,0,0,0,0,0,0,0,0,0,0,0,0,0,0,0,0,0,0,0,0,0,0,0,0,0,0,0,0,0,0,0,0,0,0,0,0,0,0,0,0,0,0,0,0,0],"id":13,"left_children":[1,3,5,7,9,11,13,15,17,-1,19,21,23,25,27,29,31,33,35,37,39,-1,41,43,45,47,49,51,53,-1,55,57,-1,59,61,63,65,-1,67,69,-1,71,73,75,77,79,81,83,85,87,89,-1,91,-1,-1,-1,-1,-1,-1,-1,-1,-1,-1,-1,-1,-1,-1,-1,-1,-1,-1,-1,-1,-1,-1,-1,-1,-1,-1,-1,-1,-1,-1,-1,-1,-1,-1,-1,-1,-1,-1,-1,-1],"loss_changes":[4.8345078E2,1.03247986E2,6.412454E1,5.9920715E1,2.0787773E1,2.006137E1,5.194065E1,1.2321625E1,5.4645973E1,0E0,7.905054E0,3.766886E1,8.682831E0,1.7970995E1,3.7123528E0,9.369965E0,9.229163E0,3.4156815E1,2.0767136E1,1.1945098E1,3.1518059E0,0E0,7.3523674E0,3.430603E0,5.1997643E0,1.3920925E1,1.9701426E1,1.3923639E1,2.4107666E0,0E0,1.3520363E1,5.9742575E0,0E0,2.3974525E1,1.3695466E1,1.3560974E1,8.006958E0,0E0,6.5622535E0,4.3928695E0,0E0,1.6780853E0,1.7781206E1,2.9580345E0,7.3669434E-1,8.2657814E-1,7.4033585E0,9.484413E0,6.555813E0,1.7842716E1,9.07862E0,0E0,2.3645792E0,0E0,0E0,0E0,0E0,0E0,0E0,0E0,0E0,0E0,0E0,0E0,0E0,0E0,0E0,0E0,0E0,0E0,0E0,0E0,0E0,0E0,0E0,0E0,0E0,0E0,0E0,0E0,0E0,0E0,0E0,0E0,0E0,0E0,0E0,0E0,0E0,0E0,0E0,0E0,0E0],"parents":[2147483647,0,0,1,1,2,2,3,3,4,4,5,5,6,6,7,7,8,8,10,10,11,11,12,12,13,13,14,14,15,15,16,16,17,17,18,18,19,19,20,20,22,22,23,23,24,24,25,25,26,26,27,27,28,28,30,30,31,31,33,33,34,34,35,35,36,36,38,38,39,39,41,41,42,42,43,43,44,44,45,45,46,46,47,47,48,48,49,49,50,50,52,52],"right_children":[2,4,6,8,10,12,14,16,18,-1,20,22,24,26,28,30,32,34,36,38,40,-1,42,44,46,48,50,52,54,-1,56,58,-1,60,62,64,66,-1,68,70,-1,72,74,76,78,80,82,84,86,88,90,-1,92,-1,-1,-1,-1,-1,-1,-1,-1,-1,-1,-1,-1,-1,-1,-1,-1,-1,-1,-1,-1,-1,-1,-1,-1,-1,-1,-1,-1,-1,-1,-1,-1,-1,-1,-1,-1,-1,-1,-1,-1],"split_conditions":[6.6E1,7.4E0,7.0710677E-1,5.3E1,3E1,3E1,7.8E1,3.1E1,3.8268343E-1,-9.812338E-2,1.017E3,7E1,2.34E1,1.83E1,8.2E1,1.2246469E-16,2.16E1,3.1E1,1.015E3,5.7E1,1.66E1,-9.8214686E-2,1.3E1,7.4E1,1.1E1,2.05E1,3.1E1,3.3E1,1E-1,-9.829688E-2,4.6E0,1.77E1,4.6340384E-2,1.0186E3,2.8E1,2.4E1,-3.8268343E-1,-9.8062605E-2,5E1,2.4E1,6.700114E-2,1.6E1,3.8268343E-1,5.7E1,1.094E2,1.86E1,2.46E1,3.1E1,6.1E1,7.5E1,6.8E1,-9.8014034E-2,4.4E1,7.027116E-3,6.264987E-2,-4.302384E-3,-8.005163E-2,7.027116E-3,-9.815989E-2,-9.82721E-2,-1.8322099E-2,1.1917409E-2,-5.1849376E-2,-2.0984307E-2,-7.086061E-2,7.027116E-3,-9.3130395E-2,-1.54569335E-2,5.8073927E-2,4.902505E-2,-2.094094E-2,3.0361474E-2,6.3172884E-2,-9.812338E-2,3.3301666E-2,5.1253047E-2,7.0415637E-3,6.344724E-2,3.028886E-2,3.028886E-2,6.700114E-2,4.1002337E-2,-3.2804594E-3,-9.8014034E-2,2.4919625E-2,-7.086061E-2,3.028886E-2,3.7467603E-2,-9.8097324E-2,-1.3448531E-2,-9.820163E-2,1.753222E-2,6.6967405E-2],"split_indices":[7,2,14,7,3,3,7,4,18,0,8,7,11,0,7,13,11,3,9,7,0,0,5,7,4,11,5,3,2,0,0,11,0,9,4,10,13,0,3,4,0,10,17,3,2,0,10,3,3,7,7,0,3,0,0,0,0,0,0,0,0,0,0,0,0,0,0,0,0,0,0,0,0,0,0,0,0,0,0,0,0,0,0,0,0,0,0,0,0,0,0,0,0],"split_type":[0,0,0,0,0,0,0,0,0,0,0,0,0,0,0,0,0,0,0,0,0,0,0,0,0,0,0,0,0,0,0,0,0,0,0,0,0,0,0,0,0,0,0,0,0,0,0,0,0,0,0,0,0,0,0,0,0,0,0,0,0,0,0,0,0,0,0,0,0,0,0,0,0,0,0,0,0,0,0,0,0,0,0,0,0,0,0,0,0,0,0,0,0],"sum_hessian":[5.1960046E2,2.4222556E2,2.773749E2,2.1236548E2,2.9860077E1,1.9908047E2,7.829444E1,7.12606E1,1.4110487E2,1.9284059E0,2.7931671E1,3.0094437E1,1.6898604E2,5.083818E1,2.7456259E1,6.558587E1,5.674727E0,7.741397E1,6.369091E1,9.303867E0,1.8627804E1,3.8568118E0,2.6237625E1,1.1819815E2,5.0787895E1,2.32915E1,2.754668E1,7.857563E0,1.9598696E1,3.8086018E1,2.7499853E1,3.7396312E0,1.9350955E0,2.4372883E1,5.3041084E1,3.5240234E1,2.8450676E1,1.4463044E0,7.857563E0,8.463534E0,1.01642685E1,1.3669539E1,1.2568087E1,2.793836E1,9.025979E1,1.1252342E1,3.9535553E1,6.88667E0,1.6404829E1,1.9220396E1,8.326284E0,1.2052537E0,6.652309E0,1.3291239E0,1.8269571E1,4.469473E0,2.303038E1,1.3291239E0,2.4105074E0,1.0365182E1,1.4007701E1,4.7008125E1,6.032958E0,1.992348E1,1.5316756E1,1.3291239E0,2.7121553E1,3.3813999E0,4.476163E0,6.652309E0,1.8112254E0,3.2642195E0,1.040532E1,1.9284059E0,1.0639681E1,2.5280113E1,2.6582477E0,8.9171715E1,1.0880731E0,1.0880731E0,1.01642685E1,3.2166782E1,7.3687716E0,1.2052537E0,5.6814165E0,1.5316756E1,1.0880731E0,1.7533041E1,1.6873552E0,4.951575E0,3.3747103E0,2.417197E0,4.235112E0],"tree_param":{"num_deleted":"0","num_feature":"19","num_nodes":"93","size_leaf_vector":"1"}},{"base_weights":[-5.0189562E-2,-7.8489697E-1,1.9656308E0,-1.0611376E0,2.1472655E-1,1.3021605E0,2.7011049E0,-1.2729999E0,-3.5826856E-1,9.1175354E-1,-4.002259E-1,2.0885506E0,-3.3557996E-2,2.226962E0,1.1537996E-1,-1.3252327E0,2.9764172E-1,-1.0928963E0,7.342183E-1,2.290398E-1,1.9149681E0,-5.603534E-1,1.151325E-1,-1.7738329E-1,2.2654412E0,-1.2195181E0,1.355954E0,1.1293315E0,2.6219754E0,-1.44833E0,-9.2174405E-1,-6.0797047E-2,1.9132656E0,-1.16400294E-1,-6.0869526E-2,-4.1827515E-1,1.2080951E0,-6.082452E-2,7.420072E-1,1.4444817E0,1.1528761E-1,-1.2900381E0,4.4029586E-2,-6.0738254E-2,7.606949E-2,2.3580015E0,2.1501763E-2,7.606949E-2,-6.0857996E-2,2.1470432E0,-3.769837E-1,1.1521862E-1,-6.0738254E-2,2.1154306E0,1.1533364E-1,-2.550076E-2,-5.9758756E-2,-4.2503253E-2,5.1377345E-2,1.151325E-1,3.411928E-2,-4.1202974E-2,8.7170534E-2,-6.0821287E-2,5.1377345E-2,6.609017E-2,-1.818014E-2,-2.739793E-2,5.4039188E-2,-6.0681917E-2,7.630155E-2,-1.1364115E-2,-6.0860842E-2,-4.2912535E-2,3.632713E-2,6.8139024E-2,1.0212114E-1,-6.0681917E-2,1.15317196E-1,7.606949E-2,-6.07696E-2,1.1521862E-1,3.411928E-2],"categories":[],"categories_nodes":[],"categories_segments":[],"categories_sizes":[],"default_left":[0,0,0,0,0,0,0,0,0,0,0,0,0,0,0,0,0,0,0,0,0,0,0,0,0,0,0,0,0,0,0,0,0,0,0,0,0,0,0,0,0,0,0,0,0,0,0,0,0,0,0,0,0,0,0,0,0,0,0,0,0,0,0,0,0,0,0,0,0,0,0,0,0,0,0,0,0,0,0,0,0,0,0],"id":14,"left_children":[1,3,5,7,9,11,13,15,17,19,21,23,25,27,-1,29,31,33,35,37,39,41,-1,43,45,47,49,51,53,55,57,-1,59,61,-1,63,65,-1,67,69,-1,71,73,-1,-1,75,-1,-1,-1,77,79,-1,-1,81,-1,-1,-1,-1,-1,-1,-1,-1,-1,-1,-1,-1,-1,-1,-1,-1,-1,-1,-1,-1,-1,-1,-1,-1,-1,-1,-1,-1,-1],"loss_changes":[6.023619E2,8.231082E1,5.299893E1,3.4774597E1,2.7665688E1,6.0002434E1,4.715393E0,1.472345E1,4.3418545E1,2.071791E1,1.8065048E1,1.4413696E1,3.4893806E1,6.4815826E0,0E0,8.620575E0,1.7030115E1,1.3721497E1,1.1881724E1,1.6215929E1,5.6197624E0,1.4422452E1,0E0,7.33272E0,5.322571E0,1.1000494E1,1.3370417E1,1.8571142E1,1.493927E0,5.4975586E0,1.3000603E1,0E0,3.1514587E0,2.106688E1,0E0,1.2000095E1,1.1554123E1,0E0,1.2234262E1,1.1555838E1,0E0,3.5275745E0,1.7397161E1,0E0,0E0,4.1780396E0,0E0,0E0,0E0,1.835636E1,8.035209E0,0E0,0E0,3.760023E0,0E0,0E0,0E0,0E0,0E0,0E0,0E0,0E0,0E0,0E0,0E0,0E0,0E0,0E0,0E0,0E0,0E0,0E0,0E0,0E0,0E0,0E0,0E0,0E0,0E0,0E0,0E0,0E0,0E0],"parents":[2147483647,0,0,1,1,2,2,3,3,4,4,5,5,6,6,7,7,8,8,9,9,10,10,11,11,12,12,13,13,15,15,16,16,17,17,18,18,19,19,20,20,21,21,23,23,24,24,25,25,26,26,27,27,28,28,29,29,30,30,32,32,33,33,35,35,36,36,38,38,39,39,41,41,42,42,45,45,49,49,50,50,53,53],"right_children":[2,4,6,8,10,12,14,16,18,20,22,24,26,28,-1,30,32,34,36,38,40,42,-1,44,46,48,50,52,54,56,58,-1,60,62,-1,64,66,-1,68,70,-1,72,74,-1,-1,76,-1,-1,-1,78,80,-1,-1,82,-1,-1,-1,-1,-1,-1,-1,-1,-1,-1,-1,-1,-1,-1,-1,-1,-1,-1,-1,-1,-1,-1,-1,-1,-1,-1,-1,-1,-1],"split_conditions":[5.3E1,4.6E1,7.7E1,7.0710677E-1,1.0088E3,1.0151E3,8.6E1,2.4E1,3.3E1,2.7E1,6.9E1,-7.0710677E-1,0E0,1.24E1,1.1537996E-1,4E1,-1.8369701E-16,1.0106E3,8.3E0,1.0044E3,6.5E1,2.5E1,1.151325E-1,7.8E0,2.87E1,2.9E0,1.73E1,1.3E0,-3.8268343E-1,-9.238795E-1,1.98E1,-6.0797047E-2,1.34E1,2.6E1,-6.0869526E-2,1.0254E3,9.238795E-1,-6.082452E-2,3.5E1,1.7E1,1.1528761E-1,1.06E1,1.77E1,-6.0738254E-2,7.606949E-2,1.0091E3,2.1501763E-2,7.606949E-2,-6.0857996E-2,9.1E0,6E0,1.1521862E-1,-6.0738254E-2,-7.0710677E-1,1.1533364E-1,-2.550076E-2,-5.9758756E-2,-4.2503253E-2,5.1377345E-2,1.151325E-1,3.411928E-2,-4.1202974E-2,8.7170534E-2,-6.0821287E-2,5.1377345E-2,6.609017E-2,-1.818014E-2,-2.739793E-2,5.4039188E-2,-6.0681917E-2,7.630155E-2,-1.1364115E-2,-6.0860842E-2,-4.2912535E-2,3.632713E-2,6.8139024E-2,1.0212114E-1,-6.0681917E-2,1.15317196E-1,7.606949E-2,-6.07696E-2,1.1521862E-1,3.411928E-2],"split_indices":[7,3,7,18,9,9,7,5,7,7,3,14,17,10,0,7,18,9,0,9,3,7,0,2,11,0,11,2,14,13,0,0,0,7,0,8,15,0,11,4,0,0,10,0,0,8,0,0,0,10,4,0,0,14,0,0,0,0,0,0,0,0,0,0,0,0,0,0,0,0,0,0,0,0,0,0,0,0,0,0,0,0,0],"split_type":[0,0,0,0,0,0,0,0,0,0,0,0,0,0,0,0,0,0,0,0,0,0,0,0,0,0,0,0,0,0,0,0,0,0,0,0,0,0,0,0,0,0,0,0,0,0,0,0,0,0,0,0,0,0,0,0,0,0,0,0,0,0,0,0,0,0,0,0,0,0,0,0,0,0,0,0,0,0,0,0,0,0,0],"sum_hessian":[4.0670923E2,2.9807272E2,1.0863649E2,2.3353636E2,6.453637E1,5.7119286E1,5.15172E1,1.794441E2,5.4092255E1,3.0249052E1,3.428732E1,3.5951527E1,2.1167757E1,1.4972212E1,3.654499E1,1.7366937E2,5.774736E0,3.2343582E1,2.1748672E1,1.8002481E1,1.224657E1,3.2698406E1,1.5889126E0,2.6031854E0,3.3348343E1,1.142074E1,9.747018E0,3.966007E0,1.1006206E1,1.3306406E2,4.060532E1,2.7130938E0,3.0616424E0,9.96056E0,2.2383024E1,6.336827E0,1.5411845E1,4.0696406E0,1.3932841E1,8.274288E0,3.9722815E0,1.4812107E1,1.78863E1,1.582638E0,1.0205474E0,3.164952E1,1.6988208E0,1.0205474E0,1.0400192E1,6.69165E0,3.0553677E0,2.383369E0,1.582638E0,3.8560987E0,7.150107E0,7.9194646E0,1.25144585E2,3.8112045E1,2.493277E0,1.5889126E0,1.4727297E0,7.1250086E0,2.8355513E0,3.8435495E0,2.493277E0,1.2130386E1,3.2814589E0,4.1858234E0,9.747018E0,1.1304557E0,7.143832E0,2.8292766E0,1.1982831E1,7.803282E0,1.0083017E1,7.5960145E0,2.4053505E1,1.1304557E0,5.561194E0,1.0205474E0,2.0348203E0,2.383369E0,1.4727297E0],"tree_param":{"num_deleted":"0","num_feature":"19","num_nodes":"83","size_leaf_vector":"1"}},{"base_weights":[6.66635E-2,-9.222323E-1,7.714063E-1,-1.4813318E0,2.2654936E-1,1.2463143E0,1.3159111E-1,-1.1057645E0,-2.6421337E0,-1.6239036E0,4.199274E-1,8.8300467E-1,1.3913918E0,-3.9408565E-1,8.239021E-1,-2.011993E0,-4.5377403E-1,-1.8271867E0,-1.0951129E-1,4.1118674E-2,-1.0943561E-1,7.975307E-1,-5.1121175E-1,2.2027114E-1,1.2930319E0,7.8871995E-1,1.4415541E0,-2.9408516E-2,-1.942197E0,-1.0931344E-1,9.5544064E-1,-4.1744167E-1,-2.351221E0,-1.3063295E-1,-1.6447864E0,-1.0937096E-1,1.8697792E-4,9.959316E-1,-7.5715624E-2,4.7204942E-1,-2.195206E0,4.272108E-1,-1.0918712E-1,1.4439591E0,6.1444765E-1,-3.838973E-2,1.284379E0,9.415455E-1,1.4901855E0,2.795087E-1,-9.6487623E-1,-1.09476276E-1,-6.3354367E-1,1.1704416E0,-8.130824E-1,-6.776657E-2,2.4483025E-2,-3.2403983E-2,-1.0484077E-1,-4.0079966E-2,4.3275324E-3,-9.417648E-2,7.247692E-3,5.9426673E-2,2.867675E-2,-1.0931344E-1,2.9625947E-2,6.259349E-2,-7.2170617E-3,-1.0945108E-1,2.4412462E-2,4.1185796E-2,-1.3695448E-2,2.4412462E-2,5.9085734E-2,4.1160602E-2,-1.6598519E-2,6.260291E-2,2.4459464E-2,-3.838973E-2,5.7344574E-2,5.976531E-2,2.4412462E-2,2.454487E-3,4.7710035E-2,-1.4557051E-2,-1.09411895E-1,-6.776657E-2,6.250884E-2,5.672784E-2,3.1439915E-2,-1.0933687E-1,1.5269686E-2],"categories":[],"categories_nodes":[],"categories_segments":[],"categories_sizes":[],"default_left":[0,0,0,0,0,0,0,0,0,0,0,0,0,0,0,0,0,0,0,0,0,0,0,0,0,0,0,0,0,0,0,0,0,0,0,0,0,0,0,0,0,0,0,0,0,0,0,0,0,0,0,0,0,0,0,0,0,0,0,0,0,0,0,0,0,0,0,0,0,0,0,0,0,0,0,0,0,0,0,0,0,0,0,0,0,0,0,0,0,0,0,0,0],"id":15,"left_children":[1,3,5,7,9,11,13,15,17,19,21,23,25,27,29,31,33,35,-1,-1,-1,37,39,41,43,45,47,49,51,-1,53,55,57,59,61,-1,-1,63,65,67,69,71,-1,73,75,-1,77,79,81,83,85,-1,87,89,91,-1,-1,-1,-1,-1,-1,-1,-1,-1,-1,-1,-1,-1,-1,-1,-1,-1,-1,-1,-1,-1,-1,-1,-1,-1,-1,-1,-1,-1,-1,-1,-1,-1,-1,-1,-1,-1,-1],"loss_changes":[3.3842804E2,1.2978572E2,8.6153656E1,5.9243256E1,2.3673641E1,8.572784E0,4.396479E1,6.0675797E1,2.8436584E0,1.8662643E1,2.1061068E1,1.26211815E1,3.5110168E0,3.8765404E1,2.4470398E1,2.3238846E1,2.2987469E1,6.429002E0,0E0,0E0,0E0,7.3839817E0,2.8621962E1,1.0881379E1,2.9351654E0,7.771242E0,2.604721E0,1.6062399E1,1.3780209E1,0E0,1.9124214E1,9.987867E0,1.5220825E1,9.836827E0,1.6727402E1,0E0,0E0,4.7483063E0,1.7250652E1,7.832816E0,9.867281E0,7.759681E0,0E0,7.4982834E-1,2.2563565E0,0E0,1.3355207E0,9.02933E0,8.073425E-1,8.354833E0,1.4726613E1,0E0,1.1731225E1,4.3232155E0,1.2595711E1,0E0,0E0,0E0,0E0,0E0,0E0,0E0,0E0,0E0,0E0,0E0,0E0,0E0,0E0,0E0,0E0,0E0,0E0,0E0,0E0,0E0,0E0,0E0,0E0,0E0,0E0,0E0,0E0,0E0,0E0,0E0,0E0,0E0,0E0,0E0,0E0,0E0,0E0],"parents":[2147483647,0,0,1,1,2,2,3,3,4,4,5,5,6,6,7,7,8,8,9,9,10,10,11,11,12,12,13,13,14,14,15,15,16,16,17,17,21,21,22,22,23,23,24,24,25,25,26,26,27,27,28,28,30,30,31,31,32,32,33,33,34,34,37,37,38,38,39,39,40,40,41,41,43,43,44,44,46,46,47,47,48,48,49,49,50,50,52,52,53,53,54,54],"right_children":[2,4,6,8,10,12,14,16,18,20,22,24,26,28,30,32,34,36,-1,-1,-1,38,40,42,44,46,48,50,52,-1,54,56,58,60,62,-1,-1,64,66,68,70,72,-1,74,76,-1,78,80,82,84,86,-1,88,90,92,-1,-1,-1,-1,-1,-1,-1,-1,-1,-1,-1,-1,-1,-1,-1,-1,-1,-1,-1,-1,-1,-1,-1,-1,-1,-1,-1,-1,-1,-1,-1,-1,-1,-1,-1,-1,-1,-1],"split_conditions":[6.7E1,4.8E1,1.0149E3,1.0217E3,3.1E1,4.1E1,8.2E1,-3.8268343E-1,-3.8268343E-1,-7.0710677E-1,1.0148E3,8.3E1,7.1E1,1.026E3,2E1,1.0114E3,7.0710677E-1,8.1E0,-1.0951129E-1,4.1118674E-2,-1.0943561E-1,1.33E1,1.77E1,1.95E1,9.238795E-1,-1.8369701E-16,-7.0710677E-1,1.25E1,1.9E1,-1.0931344E-1,1.2246469E-16,5.3E1,1.59E1,1.7E1,4.3E1,-1.0937096E-1,1.8697792E-4,1.0055E3,1.49E1,9.3E0,1.61E1,7.6E1,-1.0918712E-1,6E0,1.3E1,-3.838973E-2,1.9E1,2E-1,3.94E1,5.2E1,1.0186E3,-1.09476276E-1,7.8E1,1.06E1,1.03E1,-6.776657E-2,2.4483025E-2,-3.2403983E-2,-1.0484077E-1,-4.0079966E-2,4.3275324E-3,-9.417648E-2,7.247692E-3,5.9426673E-2,2.867675E-2,-1.0931344E-1,2.9625947E-2,6.259349E-2,-7.2170617E-3,-1.0945108E-1,2.4412462E-2,4.1185796E-2,-1.3695448E-2,2.4412462E-2,5.9085734E-2,4.1160602E-2,-1.6598519E-2,6.260291E-2,2.4459464E-2,-3.838973E-2,5.7344574E-2,5.976531E-2,2.4412462E-2,2.454487E-3,4.7710035E-2,-1.4557051E-2,-1.09411895E-1,-6.776657E-2,6.250884E-2,5.672784E-2,3.1439915E-2,-1.0933687E-1,1.5269686E-2],"split_indices":[7,3,9,8,7,3,7,14,15,13,9,7,7,8,3,8,13,0,0,0,0,0,11,11,18,18,18,10,5,0,13,7,11,5,3,0,0,9,0,10,0,7,0,4,5,0,4,2,2,3,9,0,7,10,10,0,0,0,0,0,0,0,0,0,0,0,0,0,0,0,0,0,0,0,0,0,0,0,0,0,0,0,0,0,0,0,0,0,0,0,0,0,0],"split_type":[0,0,0,0,0,0,0,0,0,0,0,0,0,0,0,0,0,0,0,0,0,0,0,0,0,0,0,0,0,0,0,0,0,0,0,0,0,0,0,0,0,0,0,0,0,0,0,0,0,0,0,0,0,0,0,0,0,0,0,0,0,0,0,0,0,0,0,0,0,0,0,0,0,0,0,0,0,0,0,0,0,0,0,0,0,0,0,0,0,0,0,0,0],"sum_hessian":[4.856003E2,2.0206332E2,2.83537E2,1.3591452E2,6.61488E1,1.627389E2,1.2079809E2,1.02695366E2,3.321915E1,6.2561126E0,5.9892693E1,4.6448162E1,1.1629075E2,6.866286E1,5.2135235E1,4.2966583E1,5.972878E1,3.8224661E0,2.9396685E1,1.8581835E0,4.397929E0,4.261285E1,1.7279842E1,1.775563E1,2.8692533E1,8.9405E0,1.0735024E2,5.557517E1,1.3087688E1,1.8517597E0,5.0283478E1,7.538833E0,3.542775E1,4.6985085E1,1.2743695E1,2.5461695E0,1.2762966E0,3.47236E1,7.88925E0,1.0911207E1,6.3686357E0,1.659828E1,1.1573498E0,2.34684E1,5.2241335E0,1.9707066E0,6.969794E0,9.5223875E0,9.782786E1,4.178022E1,1.3794946E1,8.101449E0,4.98624E0,4.4834297E1,5.4491796E0,3.3595264E0,4.179307E0,5.4491796E0,2.997857E1,1.0085003E1,3.690008E1,9.1462755E0,3.59742E0,1.2431821E1,2.2291779E1,1.8517597E0,6.0374904E0,4.066784E0,6.8444233E0,5.323809E0,1.0448267E0,9.290917E0,7.307363E0,1.0448267E0,2.2423573E1,3.716367E0,1.5077666E0,4.8801403E0,2.0896535E0,1.9707066E0,7.5516806E0,9.678303E1,1.0448267E0,3.3765602E1,8.014621E0,1.0322897E1,3.4720495E0,3.3595264E0,1.6267135E0,2.6953297E1,1.7881E1,2.0832295E0,3.36595E0],"tree_param":{"num_deleted":"0","num_feature":"19","num_nodes":"93","size_leaf_vector":"1"}},{"base_weights":[4.146752E-5,-9.829084E-1,9.993757E-1,-1.4949131E0,-8.211513E-2,6.3320637E-1,1.6522585E0,-1.6394218E0,9.198259E-2,-1.285431E0,2.5013578E-1,7.661224E-1,-1.1184828E0,1.1220165E0,1.7747971E0,-1.9370632E0,-1.0965064E0,6.017113E-1,-8.883634E-2,-1.6819876E0,1.1654055E0,3.449037E-1,-1.4195261E0,4.4189492E-1,1.2369304E0,-1.8525466E0,9.1477436E-1,-9.966276E-1,1.4989927E0,7.168928E-2,1.1654055E0,-2.046742E0,-1.0962425E0,-2.0383515E0,-6.7481524E-1,7.2124965E-2,1.3058183E-1,3.6373444E-2,-1.8425287E0,7.20495E-2,1.3701269E-2,-3.177663E-1,5.831489E-1,1.3701269E-2,-8.884615E-2,1.3573437E0,2.4255209E-1,1.6534468E0,9.889227E-1,1.3701269E-2,-8.891362E-2,7.20495E-2,-2.0069436E-3,3.6373444E-2,-8.876916E-2,1.6633824E0,2.394894E-2,1.3701269E-2,7.20495E-2,-2.0069436E-3,-8.294356E-2,-6.1984416E-2,5.202838E-2,-2.0069436E-3,-8.893478E-2,-1.1151861E-2,-7.494956E-2,-2.940833E-2,4.3814886E-2,-8.054909E-2,1.3701269E-2,-6.973243E-2,1.9649247E-2,1.4960661E-2,4.7264986E-2,6.350514E-2,2.0332495E-2,-1.929186E-2,2.3476591E-2,6.886301E-2,1.3701269E-2,2.5121503E-2,5.8899894E-2,7.217537E-2,4.644521E-2],"categories":[],"categories_nodes":[],"categories_segments":[],"categories_sizes":[],"default_left":[0,0,0,0,0,0,0,0,0,0,0,0,0,0,0,0,0,0,0,0,0,0,0,0,0,0,0,0,0,0,0,0,0,0,0,0,0,0,0,0,0,0,0,0,0,0,0,0,0,0,0,0,0,0,0,0,0,0,0,0,0,0,0,0,0,0,0,0,0,0,0,0,0,0,0,0,0,0,0,0,0,0,0,0,0],"id":16,"left_children":[1,3,5,7,9,11,13,15,17,19,21,23,25,27,29,31,33,35,-1,37,39,41,43,45,47,49,51,53,55,-1,57,59,61,63,65,-1,67,-1,69,-1,-1,71,73,-1,-1,75,77,79,81,-1,-1,-1,-1,-1,-1,83,-1,-1,-1,-1,-1,-1,-1,-1,-1,-1,-1,-1,-1,-1,-1,-1,-1,-1,-1,-1,-1,-1,-1,-1,-1,-1,-1,-1,-1],"loss_changes":[5.5361316E2,1.3104019E2,6.680646E1,4.1543884E1,4.116997E1,4.1691475E1,6.516693E0,2.6822083E1,1.7896229E1,2.1661617E1,1.2769636E1,2.5402527E1,1.885603E1,1.5068298E1,1.1862488E0,9.880646E0,2.3348534E1,7.0574565E0,0E0,7.995308E0,1.6360674E0,1.2056836E1,6.1928844E0,1.7984655E1,7.0042725E0,7.7179356E0,2.8904457E0,6.70667E0,2.3597145E0,0E0,1.6360674E0,6.5289307E0,1.36592655E1,6.9828033E0,1.9345343E1,0E0,7.5140905E0,0E0,7.0567245E0,0E0,0E0,2.3451868E1,7.032772E0,0E0,0E0,3.5218315E0,2.0381584E1,2.4669647E0,7.4566E0,0E0,0E0,0E0,0E0,0E0,0E0,9.8664093E-1,0E0,0E0,0E0,0E0,0E0,0E0,0E0,0E0,0E0,0E0,0E0,0E0,0E0,0E0,0E0,0E0,0E0,0E0,0E0,0E0,0E0,0E0,0E0,0E0,0E0,0E0,0E0,0E0,0E0],"parents":[2147483647,0,0,1,1,2,2,3,3,4,4,5,5,6,6,7,7,8,8,9,9,10,10,11,11,12,12,13,13,14,14,15,15,16,16,17,17,19,19,20,20,21,21,22,22,23,23,24,24,25,25,26,26,27,27,28,28,30,30,31,31,32,32,33,33,34,34,36,36,38,38,41,41,42,42,45,45,46,46,47,47,48,48,55,55],"right_children":[2,4,6,8,10,12,14,16,18,20,22,24,26,28,30,32,34,36,-1,38,40,42,44,46,48,50,52,54,56,-1,58,60,62,64,66,-1,68,-1,70,-1,-1,72,74,-1,-1,76,78,80,82,-1,-1,-1,-1,-1,-1,84,-1,-1,-1,-1,-1,-1,-1,-1,-1,-1,-1,-1,-1,-1,-1,-1,-1,-1,-1,-1,-1,-1,-1,-1,-1,-1,-1,-1,-1],"split_conditions":[6.8E1,2E-1,8.3E1,2.28E1,5.6E1,2.81E1,2E-1,4.4E1,2.39E1,2.1E1,2.72E1,5.2E1,6.1E1,3.3E1,2.58E1,6.5E1,5.4E1,3.1E1,-8.883634E-2,1.1E1,2.14E1,3.9E1,1.3E1,2.07E1,2.19E1,-3.8268343E-1,3.1E1,1.1E1,1.0168E3,7.168928E-2,4.8E1,-9.238795E-1,9.238795E-1,1.7E1,3.9E1,7.2124965E-2,4.6E1,3.6373444E-2,1.0237E3,7.20495E-2,1.3701269E-2,-1.8369701E-16,2.56E1,1.3701269E-2,-8.884615E-2,3.8268343E-1,1.92E1,8E1,7.6E1,1.3701269E-2,-8.891362E-2,7.20495E-2,-2.0069436E-3,3.6373444E-2,-8.876916E-2,2.71E1,2.394894E-2,1.3701269E-2,7.20495E-2,-2.0069436E-3,-8.294356E-2,-6.1984416E-2,5.202838E-2,-2.0069436E-3,-8.893478E-2,-1.1151861E-2,-7.494956E-2,-2.940833E-2,4.3814886E-2,-8.054909E-2,1.3701269E-2,-6.973243E-2,1.9649247E-2,1.4960661E-2,4.7264986E-2,6.350514E-2,2.0332495E-2,-1.929186E-2,2.3476591E-2,6.886301E-2,1.3701269E-2,2.5121503E-2,5.8899894E-2,7.217537E-2,4.644521E-2],"split_indices":[7,2,7,0,7,10,2,3,0,0,10,3,3,3,11,7,7,3,0,5,0,3,4,11,10,13,5,5,8,0,3,18,15,5,5,0,3,0,9,0,0,18,10,0,0,18,0,7,7,0,0,0,0,0,0,10,0,0,0,0,0,0,0,0,0,0,0,0,0,0,0,0,0,0,0,0,0,0,0,0,0,0,0,0,0],"split_type":[0,0,0,0,0,0,0,0,0,0,0,0,0,0,0,0,0,0,0,0,0,0,0,0,0,0,0,0,0,0,0,0,0,0,0,0,0,0,0,0,0,0,0,0,0,0,0,0,0,0,0,0,0,0,0,0,0,0,0,0,0,0,0,0,0,0,0,0,0,0,0,0,0,0,0,0,0,0,0,0,0,0,0,0,0],"sum_hessian":[5.635844E2,2.8412115E2,2.7946323E2,1.8115262E2,1.0296855E2,1.7905023E2,1.0041299E2,1.6603311E2,1.51195E1,2.2277418E1,8.069113E1,1.6642432E2,1.262593E1,1.8856424E1,8.1556564E1,1.0723461E2,5.87985E1,1.239922E1,2.7202792E0,1.9175898E1,3.101521E0,7.6359985E1,4.3311486E0,9.8558365E1,6.7865944E1,9.27711E0,3.348819E0,2.8473597E0,1.6009064E1,7.845504E1,3.101521E0,9.485598E1,1.2378632E1,1.8179842E1,4.0618656E1,3.4758997E0,8.923321E0,1.116273E0,1.8059626E1,1.7379498E0,1.3635712E0,2.0192543E1,5.6167442E1,1.3635712E0,2.9675772E0,1.7619934E1,8.093843E1,2.532049E1,4.2545456E1,1.3635712E0,7.9135394E0,1.7379498E0,1.6108693E0,1.116273E0,1.7310867E0,1.352922E1,2.479844E0,1.3635712E0,1.7379498E0,1.6108693E0,9.324511E1,1.0393384E1,1.985248E0,1.6108693E0,1.6568974E1,3.0599653E1,1.0019005E1,4.7055273E0,4.217794E0,1.6696054E1,1.3635712E0,7.2987256E0,1.2893817E1,4.1776108E1,1.4391332E1,1.3776518E1,3.8434153E0,2.613456E1,5.480387E1,2.3956919E1,1.3635712E0,2.4551144E1,1.7994312E1,1.0427699E1,3.101521E0],"tree_param":{"num_deleted":"0","num_feature":"19","num_nodes":"85","size_leaf_vector":"1"}},{"base_weights":[-3.0853985E-2,-1.7505933E0,8.646166E-1,-2.044178E0,-9.4129485E-1,6.513707E-2,1.403397E0,-2.0872629E0,5.160743E-2,-1.4059644E0,3.7622303E-1,4.847415E-1,-1.3240994E0,9.5324856E-1,1.6242006E0,3.5932522E-2,-2.109113E0,1.8574964E-1,-1.5901546E0,7.824431E-1,-8.939819E-2,1.7566206E-1,1.5245298E0,-1.6288773E0,1.2961508E0,1.0341396E0,-8.939819E-2,1.2853438E0,1.7226884E0,-2.1519058E0,-8.933791E-1,-8.937493E-2,7.170504E-2,-1.9653317E0,-8.4026027E-1,1.1287227E0,-7.505495E-1,-8.609157E-1,4.4909278E-1,9.0369064E-1,1.6056993E0,-8.9543924E-2,-8.9382017E-1,7.170504E-2,1.323034E-2,1.1854625E0,1.6868271E-1,1.5570611E0,3.3289477E-1,1.5725393E0,1.7466886E0,-8.9558415E-2,-7.473541E-2,-8.946805E-2,7.1654946E-2,-8.954369E-2,-4.7576085E-2,-5.102138E-3,-8.9484505E-2,-2.2917159E-2,6.2179867E-2,3.5932522E-2,-8.930056E-2,3.6025353E-2,-5.4140434E-2,-4.8757885E-3,3.8350478E-2,-2.4986838E-3,7.1654946E-2,4.8234917E-2,6.789646E-2,-1.4092273E-2,-8.948877E-2,3.5215046E-2,6.2340803E-2,3.2187197E-2,-5.0441235E-2,-2.4986838E-3,6.589732E-2,-8.939819E-2,4.604454E-2,7.17866E-2,2.7387653E-2,7.1325384E-2,6.399235E-2],"categories":[],"categories_nodes":[],"categories_segments":[],"categories_sizes":[],"default_left":[0,0,0,0,0,0,0,0,0,0,0,0,0,0,0,0,0,0,0,0,0,0,0,0,0,0,0,0,0,0,0,0,0,0,0,0,0,0,0,0,0,0,0,0,0,0,0,0,0,0,0,0,0,0,0,0,0,0,0,0,0,0,0,0,0,0,0,0,0,0,0,0,0,0,0,0,0,0,0,0,0,0,0,0,0],"id":17,"left_children":[1,3,5,7,9,11,13,15,-1,17,19,21,23,25,27,-1,29,31,33,35,-1,37,39,41,43,45,-1,47,49,51,53,-1,-1,55,57,59,61,63,65,67,69,-1,71,-1,-1,73,75,77,79,81,83,-1,-1,-1,-1,-1,-1,-1,-1,-1,-1,-1,-1,-1,-1,-1,-1,-1,-1,-1,-1,-1,-1,-1,-1,-1,-1,-1,-1,-1,-1,-1,-1,-1,-1],"loss_changes":[9.546175E2,5.042389E1,1.7558536E2,2.2416687E1,3.459744E1,9.567045E1,2.4198425E1,1.0049194E1,0E0,1.224939E1,1.56855E1,4.050762E1,3.041114E1,2.0731232E1,5.443695E0,0E0,7.934021E0,1.7001621E1,1.0527878E1,6.776762E0,0E0,2.7542292E1,1.4495544E0,1.54843445E1,1.9222202E0,1.023671E1,0E0,9.522751E0,4.454651E-1,3.871582E0,1.8917267E1,0E0,0E0,5.4095E0,1.25003395E1,7.6569853E0,5.8009105E0,1.7815807E1,2.2549753E1,2.8943002E0,9.809952E-1,0E0,1.1374896E1,0E0,0E0,7.6022186E0,1.0670099E1,4.4739E0,1.7327173E1,3.534649E0,6.5045166E-1,0E0,0E0,0E0,0E0,0E0,0E0,0E0,0E0,0E0,0E0,0E0,0E0,0E0,0E0,0E0,0E0,0E0,0E0,0E0,0E0,0E0,0E0,0E0,0E0,0E0,0E0,0E0,0E0,0E0,0E0,0E0,0E0,0E0,0E0],"parents":[2147483647,0,0,1,1,2,2,3,3,4,4,5,5,6,6,7,7,9,9,10,10,11,11,12,12,13,13,14,14,16,16,17,17,18,18,19,19,21,21,22,22,23,23,24,24,25,25,27,27,28,28,29,29,30,30,33,33,34,34,35,35,36,36,37,37,38,38,39,39,40,40,42,42,45,45,46,46,47,47,48,48,49,49,50,50],"right_children":[2,4,6,8,10,12,14,16,-1,18,20,22,24,26,28,-1,30,32,34,36,-1,38,40,42,44,46,-1,48,50,52,54,-1,-1,56,58,60,62,64,66,68,70,-1,72,-1,-1,74,76,78,80,82,84,-1,-1,-1,-1,-1,-1,-1,-1,-1,-1,-1,-1,-1,-1,-1,-1,-1,-1,-1,-1,-1,-1,-1,-1,-1,-1,-1,-1,-1,-1,-1,-1,-1,-1],"split_conditions":[5.4E1,2.88E1,6.5E1,3.16E1,4.3E1,1.0087E3,7.2E1,1.0077E3,5.160743E-2,3E1,3E1,5.2E1,5.4E1,1E0,3.7E1,3.5932522E-2,2.6E0,2.49E1,1.0094E3,2.58E1,-8.939819E-2,-7.0710677E-1,9E0,2.44E1,2.37E1,1.0079E3,-8.939819E-2,1.0072E3,2.35E1,2.73E1,2E1,-8.937493E-2,7.170504E-2,3.05E1,1.0145E3,4.2E1,3.2E1,1.1E1,8E-1,2.6E1,1.7E1,-8.9543924E-2,1.0134E3,7.170504E-2,1.323034E-2,7E0,1.1E1,9E0,0E0,2.92E1,1.0068E3,-8.9558415E-2,-7.473541E-2,-8.946805E-2,7.1654946E-2,-8.954369E-2,-4.7576085E-2,-5.102138E-3,-8.9484505E-2,-2.2917159E-2,6.2179867E-2,3.5932522E-2,-8.930056E-2,3.6025353E-2,-5.4140434E-2,-4.8757885E-3,3.8350478E-2,-2.4986838E-3,7.1654946E-2,4.8234917E-2,6.789646E-2,-1.4092273E-2,-8.948877E-2,3.5215046E-2,6.2340803E-2,3.2187197E-2,-5.0441235E-2,-2.4986838E-3,6.589732E-2,-8.939819E-2,4.604454E-2,7.17866E-2,2.7387653E-2,7.1325384E-2,6.399235E-2],"split_indices":[7,10,7,2,3,9,7,8,0,3,5,3,3,15,3,0,2,0,9,0,0,15,4,0,0,9,0,9,0,10,4,0,0,10,8,7,7,4,2,0,5,0,8,0,0,2,4,4,15,11,9,0,0,0,0,0,0,0,0,0,0,0,0,0,0,0,0,0,0,0,0,0,0,0,0,0,0,0,0,0,0,0,0,0,0],"split_type":[0,0,0,0,0,0,0,0,0,0,0,0,0,0,0,0,0,0,0,0,0,0,0,0,0,0,0,0,0,0,0,0,0,0,0,0,0,0,0,0,0,0,0,0,0,0,0,0,0,0,0,0,0,0,0,0,0,0,0,0,0,0,0,0,0,0,0,0,0,0,0,0,0,0,0,0,0,0,0,0,0,0,0,0,0],"sum_hessian":[6.198841E2,2.122527E2,4.076314E2,1.5574738E2,5.650532E1,1.6411328E2,2.4351811E2,1.5376474E2,1.9826388E0,4.1772724E1,1.4732597E1,1.2604516E2,3.8068127E1,8.014597E1,1.6337215E2,1.1148059E0,1.5264993E2,4.33231E0,3.7440414E1,1.2756812E1,1.9757848E0,9.716656E1,2.8878605E1,3.4102848E1,3.9652777E0,7.817019E1,1.9757848E0,3.6802307E1,1.2656983E2,1.4745665E2,5.1932893E0,1.7288117E0,2.6034987E0,2.4951138E1,1.2489277E1,1.0407141E1,2.3496714E0,2.0279211E1,7.6887344E1,3.344418E0,2.5534187E1,1.8522982E1,1.5579867E1,2.6034987E0,1.3617791E0,6.6535034E1,1.1635152E1,2.8631632E1,8.170674E0,1.7476717E1,1.0909312E2,1.0965605E2,3.780059E1,3.4576235E0,1.7356658E0,1.8276009E1,6.675128E0,8.290734E0,4.1985426E0,2.1026983E0,8.304442E0,1.1148059E0,1.2348654E0,4.4592237E0,1.5819986E1,3.638044E1,4.05069E1,1.6087523E0,1.7356658E0,5.080084E0,2.0454103E1,1.1134352E1,4.4455156E0,3.7035572E1,2.9499464E1,8.050615E0,3.584537E0,1.6087523E0,2.7022879E1,1.9757848E0,6.19489E0,1.3885326E1,3.591391E0,8.355893E1,2.5534187E1],"tree_param":{"num_deleted":"0","num_feature":"19","num_nodes":"85","size_leaf_vector":"1"}},{"base_weights":[-2.3457232E-4,1.0897889E0,-4.3399784E-1,9.4104046E-1,1.8352653E0,-8.630047E-1,9.8607945E-1,7.059153E-1,1.2393943E0,1.8688504E0,4.040385E-2,-4.0594015E-1,-1.4806076E0,4.9599555E-1,1.6283196E0,8.896275E-1,1.1557819E-1,1.3680458E0,-1.4185238E-1,5.5933326E-2,7.59325E-2,-9.9306226E-1,-1.6588505E-2,4.5065525E-1,-1.5388838E0,2.508732E-1,1.793892E0,1.6848472E0,2.8090006E-2,-9.528381E-2,1.0171655E0,-1.7185304E-1,7.583851E-2,1.7728738E0,1.106022E0,-8.368867E-2,8.017164E-1,-1.8819963E0,-7.5851345E-1,-3.5963953E-1,4.2559168E-1,-8.365983E-2,7.583851E-2,-1.5816733E0,4.047193E-2,6.7507446E-1,-8.130127E-1,4.040385E-2,7.5908385E-2,1.7278718E0,1.7923258E-2,2.2797631E-2,-8.368867E-2,3.4486674E-2,7.5908385E-2,-8.3710305E-2,3.8382064E-3,7.5927615E-2,5.2597966E-2,5.3088628E-2,-5.65328E-3,7.578619E-2,-9.104461E-3,1.7923258E-2,-8.384111E-2,-4.7661185E-2,-6.1733467E-3,-7.5410493E-3,-8.380923E-2,-4.7620207E-2,2.2380818E-2,-6.7385554E-2,-2.9585198E-2,3.4255285E-2,-2.154549E-2,-8.380923E-2,5.0707906E-3,6.134346E-2,7.420141E-2],"categories":[],"categories_nodes":[],"categories_segments":[],"categories_sizes":[],"default_left":[0,0,0,0,0,0,0,0,0,0,0,0,0,0,0,0,0,0,0,0,0,0,0,0,0,0,0,0,0,0,0,0,0,0,0,0,0,0,0,0,0,0,0,0,0,0,0,0,0,0,0,0,0,0,0,0,0,0,0,0,0,0,0,0,0,0,0,0,0,0,0,0,0,0,0,0,0,0,0],"id":18,"left_children":[1,3,5,7,9,11,13,15,17,19,-1,21,23,25,27,29,31,33,35,-1,-1,37,39,41,43,45,47,49,-1,51,53,55,-1,57,59,-1,61,63,65,67,69,-1,-1,71,-1,73,75,-1,-1,77,-1,-1,-1,-1,-1,-1,-1,-1,-1,-1,-1,-1,-1,-1,-1,-1,-1,-1,-1,-1,-1,-1,-1,-1,-1,-1,-1,-1,-1],"loss_changes":[2.8505832E2,1.9023972E1,2.6274734E2,1.0033524E1,7.799301E-1,9.3495224E1,3.1491257E1,8.678551E0,1.1206184E1,4.5471954E-1,0E0,4.351393E1,1.5857056E1,1.8055365E1,2.2557526E0,7.6673164E0,9.762032E0,6.111046E0,9.93813E0,0E0,0E0,1.5819145E1,1.7362623E1,1.5302775E1,1.4951996E1,2.1550121E1,7.7160835E-1,2.1649704E0,0E0,9.369003E0,7.274746E0,8.467316E0,0E0,1.3485107E0,9.883247E0,0E0,4.1151466E0,8.195568E0,1.58561325E1,1.914716E1,1.102161E1,0E0,0E0,1.2317932E1,0E0,7.657117E0,1.651141E1,0E0,0E0,9.855652E-1,0E0,0E0,0E0,0E0,0E0,0E0,0E0,0E0,0E0,0E0,0E0,0E0,0E0,0E0,0E0,0E0,0E0,0E0,0E0,0E0,0E0,0E0,0E0,0E0,0E0,0E0,0E0,0E0,0E0],"parents":[2147483647,0,0,1,1,2,2,3,3,4,4,5,5,6,6,7,7,8,8,9,9,11,11,12,12,13,13,14,14,15,15,16,16,17,17,18,18,21,21,22,22,23,23,24,24,25,25,26,26,27,27,29,29,30,30,31,31,33,33,34,34,36,36,37,37,38,38,39,39,40,40,43,43,45,45,46,46,49,49],"right_children":[2,4,6,8,10,12,14,16,18,20,-1,22,24,26,28,30,32,34,36,-1,-1,38,40,42,44,46,48,50,-1,52,54,56,-1,58,60,-1,62,64,66,68,70,-1,-1,72,-1,74,76,-1,-1,78,-1,-1,-1,-1,-1,-1,-1,-1,-1,-1,-1,-1,-1,-1,-1,-1,-1,-1,-1,-1,-1,-1,-1,-1,-1,-1,-1,-1,-1],"split_conditions":[1.0042E3,7.6E1,6.9E1,7.2E1,9.5E1,1.0182E3,8.2E1,2.2E1,2.42E1,7.7E1,4.040385E-2,4.6E1,9.2E0,2.2E1,1.0227E3,-7.0710677E-1,0E0,1.29E1,1.46E1,5.5933326E-2,7.59325E-2,3.3E1,-1.8369701E-16,4.1E1,9.4E0,1.0197E3,3.9E1,1.65E1,2.8090006E-2,7.0710677E-1,6.2E0,-3.8268343E-1,7.583851E-2,5.2E0,1.0001E3,-8.368867E-2,1.59E1,8.7E0,2.4E1,1.84E1,7.2E0,-8.365983E-2,7.583851E-2,1.3E1,4.047193E-2,9.238795E-1,1.0238E3,4.040385E-2,7.5908385E-2,-7.0710677E-1,1.7923258E-2,2.2797631E-2,-8.368867E-2,3.4486674E-2,7.5908385E-2,-8.3710305E-2,3.8382064E-3,7.5927615E-2,5.2597966E-2,5.3088628E-2,-5.65328E-3,7.578619E-2,-9.104461E-3,1.7923258E-2,-8.384111E-2,-4.7661185E-2,-6.1733467E-3,-7.5410493E-3,-8.380923E-2,-4.7620207E-2,2.2380818E-2,-6.7385554E-2,-2.9585198E-2,3.4255285E-2,-2.154549E-2,-8.380923E-2,5.0707906E-3,6.134346E-2,7.420141E-2],"split_indices":[9,7,7,3,7,8,7,4,11,7,0,7,11,4,9,13,15,11,0,0,0,7,18,3,2,9,3,0,0,18,2,14,0,2,9,0,0,0,4,10,10,0,0,0,0,17,9,0,0,14,0,0,0,0,0,0,0,0,0,0,0,0,0,0,0,0,0,0,0,0,0,0,0,0,0,0,0,0,0],"split_type":[0,0,0,0,0,0,0,0,0,0,0,0,0,0,0,0,0,0,0,0,0,0,0,0,0,0,0,0,0,0,0,0,0,0,0,0,0,0,0,0,0,0,0,0,0,0,0,0,0,0,0,0,0,0,0,0,0,0,0,0,0,0,0,0,0,0,0,0,0,0,0,0,0,0,0,0,0,0,0],"sum_hessian":[6.028933E2,1.7161873E2,4.312746E2,1.4307797E2,2.8540756E1,3.312156E2,1.0005898E2,8.002504E1,6.305294E1,2.7415058E1,1.1256982E0,1.9035062E2,1.4086499E2,5.6755997E1,4.3302986E1,6.1030167E1,1.8994873E1,5.7680756E1,5.372184E0,2.00201E0,2.5413048E1,7.589644E1,1.1445417E2,4.1252527E0,1.3673975E2,4.774349E1,9.0125065E0,4.0802204E1,2.5007825E0,6.996654E0,5.4033512E1,1.6365936E1,2.628936E0,2.2655958E1,3.5024796E1,1.745703E0,3.6264806E0,1.583948E1,6.005696E1,6.445236E1,5.000181E1,1.4963169E0,2.628936E0,1.3448834E2,2.2513964E0,3.4134644E1,1.3608848E1,1.1256982E0,7.8868084E0,3.942712E1,1.3750843E0,5.2509513E0,1.745703E0,4.6146706E1,7.8868084E0,1.9950892E0,1.4370848E1,1.7526241E1,5.1297183E0,2.9652613E1,5.372184E0,1.752624E0,1.8738565E0,1.3750843E0,1.4464396E1,3.482051E1,2.5236448E1,5.871648E1,5.7358813E0,3.8689458E0,4.6132862E1,1.1900564E2,1.5482704E1,2.9638771E1,4.4958715E0,5.7358813E0,7.8729663E0,1.6393621E1,2.3033499E1],"tree_param":{"num_deleted":"0","num_feature":"19","num_nodes":"79","size_leaf_vector":"1"}},{"base_weights":[4.08093E-2,1.3977734E0,-1.3724973E0,4.172526E-2,1.9992818E0,-1.5007507E0,5.1773105E-2,-9.394598E-1,1.5098901E0,2.2698832E0,1.2290581E0,-1.569782E0,6.462603E-2,6.47361E-2,-6.541076E-2,2.1921964E0,-6.524043E-2,2.003586E0,1.01897314E-1,-4.8581604E-3,2.1921964E0,-1.3243572E0,-6.543489E-2,1.018373E-1,4.1098714E-2,1.2795049E-2,2.2410696E0,8.092283E-2,-6.5340705E-2,1.018373E-1,4.1098714E-2,-6.54161E-2,2.4779132E-2,4.115801E-2,1.0188821E-1],"categories":[],"categories_nodes":[],"categories_segments":[],"categories_sizes":[],"default_left":[0,0,0,0,0,0,0,0,0,0,0,0,0,0,0,0,0,0,0,0,0,0,0,0,0,0,0,0,0,0,0,0,0,0,0],"id":19,"left_children":[1,3,5,7,9,11,-1,13,15,17,19,21,-1,-1,-1,23,-1,25,-1,27,29,31,-1,-1,-1,-1,33,-1,-1,-1,-1,-1,-1,-1,-1],"loss_changes":[2.042392E2,4.4315514E1,1.7880661E1,2.4059715E1,